"","harmony_1","harmony_2","harmony_3","harmony_4","harmony_5","harmony_6","harmony_7","harmony_8","harmony_9","harmony_10","harmony_11","harmony_12","harmony_13","harmony_14","harmony_15","harmony_16","harmony_17","harmony_18","harmony_19","harmony_20","harmony_21","harmony_22","harmony_23","harmony_24","harmony_25","harmony_26","harmony_27","harmony_28","harmony_29","harmony_30"
"AAACCTGAGTACGTAA_1",1.53434762664281,5.90299162879233,3.50312144187035,-6.73037716621386,-6.28679664168483,0.639160189829865,-1.39566598357264,3.00359853114455,1.33187901254216,-4.33479612588396,1.62327674789444,-0.678672441186617,-1.91948002144182,1.01173746315799,1.53370755240072,-0.20833001479442,1.99653079574351,0.304472797881512,0.208187577069597,0.289936441802953,-1.65612173770909,0.516732972437291,-0.990012158335082,-0.485378559389988,1.03469787122279,-0.266628053044446,-2.10549360495283,0.657629958930372,-0.705745113994255,0.731774109173515
"AAACCTGAGTGCCATT_1",6.74820258826134,-2.43605181803044,-2.56258730970612,2.25178635611033,-3.47023024521216,0.285166967195937,-2.51919053149685,0.963310488693148,2.05671402540012,-2.554346849226,0.881528034237584,1.15682365418349,-2.25048732855305,1.11572662662072,1.73797236431045,-1.68727240330204,0.833740497916967,1.93687069443075,-1.02897553191055,-1.2928107033764,0.130235276426819,-0.45199806129495,-1.65822436960906,1.06913123174597,-1.13247667629425,0.918945841021155,-1.1147299278001,-1.79472995167635,-1.02478735710264,0.476672382961785
"AAACCTGCAGACACTT_1",-15.5719515715711,-20.9064149992652,4.21879184504508,3.91269540307788,2.93249680012141,2.50744954701733,-3.77192807636371,1.106996385891,-2.76114687391379,0.991808358522451,7.97037749658002,0.855482414441497,-6.45449766736652,-3.97506503059148,-4.99665905405015,3.49182932009261,2.50762897952825,0.170710932659087,0.723906532902758,0.863597684654818,-0.415109919862634,1.41401908180855,-0.60351238318953,-0.342433225149503,4.99433926836538,-0.840425258854236,-1.4884892288208,-0.267709246569443,-0.603569154067624,-0.430149159921221
"AAACGGGAGGCCCTCA_1",-19.1912679606127,9.83631104348783,-6.64921778251587,9.0496599982984,8.45461357077856,-10.7051691083218,-1.03776925956814,-4.20806851711904,-8.17323051042474,3.88103677772304,-1.68352124911679,-1.84878730821706,-7.38201502567649,0.233098349582256,3.25335685803395,-3.57625351234202,1.55480202646536,1.86987498560339,-0.00100616227392204,-1.67812114944333,-0.944563305345121,-0.536342905777513,-0.131701287894272,1.31224715478698,0.11164254965312,-0.740170840112387,-5.73556277498412,0.347199218774261,-2.80377558407174,-1.18726609727188
"AAAGATGCAAGTCTAC_1",2.91531193692534,5.71569615463375,-6.12735316991936,-1.49951244996498,2.19181638202941,-6.34094035982984,3.51593467183171,6.33110853179925,3.08515116707016,-0.701662470060422,1.65691903746308,-1.33975595282316,1.21327645647005,2.00764444804855,-1.91229228225216,-0.0686244884888497,1.67143668526631,-0.594765371857146,-0.0520501508468359,-1.33584207340901,-0.112464315469625,-1.22438659362122,1.60441193857114,-0.657697847434678,1.78947543433984,-1.43567932368023,2.46427917292387,2.97951923300947,-0.0294515936592736,0.299285656000537
"AAAGATGCACATTTCT_1",-13.8079846317971,3.85151825936951,13.3753653409311,0.490420098591366,-9.79959480406868,-1.59373166060617,-3.30979146958013,1.53973092674061,4.45246401846644,-0.901928651850055,-4.93820648349462,4.27842184897609,-4.01336261786242,-4.12679763705694,-0.752393720187753,1.65007357542449,0.261039053283085,-0.431645484148833,-2.23931256918741,-1.56642343947711,1.53059944247274,1.29871830841352,0.384191751933927,0.318437851020845,-0.954126582932005,-0.517788648244545,-0.720085837165581,0.185157871996035,-1.57529438842904,0.361152245424669
"AAAGATGTCAGTTTGG_1",7.20435002893549,5.2061951994146,-0.774105208212247,1.04234865551353,-5.89511590182629,2.37656075816097,-3.50991655910944,1.39584244792603,1.31442328718452,-3.15858431260604,-0.941372733441755,-1.37160103953283,-2.36541550217811,-2.57333477072049,1.77957766699584,0.853324875953021,-0.261793410529123,-1.51632720186363,-1.3087325746356,-0.0784149775710729,-2.00008205778868,-0.285766531846277,-2.71842494640422,-0.100421899145734,0.586962242410548,-0.611909381178841,-1.78130627807561,-1.47464413524875,-0.0458255885077904,0.619999779215461
"AAAGATGTCCTTTACA_1",-18.1682531011788,8.01819157825506,12.9126440507541,0.626620657088839,-10.2837789056696,-3.53258580697558,2.90179803650803,-1.50651330237272,-6.11426106213591,-0.998249077856875,0.125016499888479,1.79542320358259,-0.837770488494503,2.54244872252577,-1.01008412923915,4.69210862409433,-1.56117208913359,-4.07900524483947,1.61990195056097,-1.52077358136177,-2.72676490176196,-1.97091940509374,1.17551703663077,2.521133028276,-0.322258585697431,6.01870770558339,-0.560719103470305,-3.47663017819739,-1.31200882528274,2.45128128694093
"AAAGCAACACTTGGAT_1",-21.3929846547681,-24.9369645950328,0.205685548314385,5.74771461670997,2.88344048369435,10.5690964359268,0.290422844388216,-2.95622687412511,7.14569080624956,1.61320910799818,2.78078520014463,-7.85610863955458,-1.30098965605823,-2.75289349813625,-6.53909333892797,-2.15316455037936,1.56871686303147,-4.55761228051832,-0.611218113321642,-1.11841563311615,-1.43933044581888,-1.6111307499601,-0.0406205428209564,0.81656650587746,0.515480700845332,-1.29892139097765,0.00550026272384958,-0.502395332541892,1.3571476987018,0.908808866050275
"AAAGCAACATCAGTAC_1",-15.5719627076192,-21.7796481835853,0.545702623799458,1.6937911132525,2.91584876399284,7.0516472173384,6.03970697405822,-0.94537328395785,2.39367422865256,1.36357626775693,-0.869885489156549,-5.79055571760666,-5.05111953697464,1.09052153325434,2.12984364280756,0.102554628605752,-0.599642788278579,-2.96991383344753,0.996113161982925,-2.81481536006116,-0.629253912670674,0.35075814116216,0.486577135518472,-2.2054237870299,0.396888241682321,-0.965615306989468,1.68644004761914,0.183161827994892,0.432881698638486,0.193885826818378
"AAAGCAAGTCAGATAA_1",8.58257526197742,3.80811957398053,-4.03304371173957,2.26562960463511,-2.76972042567744,-0.677025142127857,0.5901359892234,3.67448082249383,0.270358698575279,-1.84880858630303,0.614223205085163,0.732952881384936,0.770166115504416,-0.981183436178713,1.97259964270871,-0.354724747613765,1.34252290159634,-1.55809172994288,2.59010532667721,-0.148545669753742,0.635804110852272,-0.793314758521879,1.1220053312125,-1.08565243642151,2.4894899312287,0.102934756363167,0.914968557264695,-0.171732330025956,1.30987754929237,-1.51567559900126
"AAAGTAGAGTGTTGAA_1",-14.1138226014475,8.10526668168065,-5.19833644408081,1.76228828421774,5.86905613311485,5.82833677182735,3.19851065204737,7.43865923835129,2.0965623119381,-2.07953763707982,-1.18136128756505,1.165894352498,0.123456597256863,5.52600356030575,3.55823225490664,0.116455517888085,2.06966557019154,1.76133900534209,1.60415600961449,-0.0868386450665152,0.704681118151646,-2.13158885361486,-2.53890220536537,-1.1014433917203,1.35906766252579,1.24329140128193,-0.921724283928002,2.79788455222132,0.625423218606514,-0.827170505143623
"AAATGCCCACTTCGAA_1",-14.3200461467404,4.1507945232749,10.9543657076881,0.371728569572698,-10.3244610217432,-2.33282830748883,-2.99748647397218,-0.849085230752821,1.68927766433799,-1.33811075205505,-3.66581316909976,2.28206913113427,-3.22887815297717,-3.58440914950964,-1.1231364658207,2.02274582626065,-2.80763636128008,2.04599504758482,0.0848847995042966,-0.945768616607496,0.907584113992801,-1.15563154494122,-1.74853846810605,-0.323854484522062,1.04179709241341,-1.82218005138602,-2.59939820281402,1.30212200390871,1.15953972731812,-0.775721056434602
"AAATGCCTCATATCGG_1",-15.9146428295606,4.88499141615894,11.1205349811386,0.179905830578495,-12.0169646310809,-10.7695591997071,-2.24340310270811,-8.07792799002966,0.973821939637691,1.93489088174035,1.54276658612385,-1.94683600463361,-0.410954329273646,8.19683299092037,1.51451199363799,5.23906438080631,3.35415600995718,-2.79704151580911,-1.9154721001984,2.09065893038191,2.41160262699253,5.70731363862178,4.20847021568404,-1.2344268759213,0.259688756591712,-1.82663214544185,1.47997987753386,-0.619889840276814,1.11206341708985,0.671097292526858
"AAATGCCTCTACTATC_1",1.31715398284921,5.11619858680655,-6.94851862126641,-0.487471903995865,1.99234930911682,-6.76306359530444,-2.57712717696485,4.41444856196979,2.43934016387289,-1.0840058806052,0.651380435682765,-2.62435582046023,-0.341486145916581,0.782862889784177,1.28679844288285,0.876793010045465,-0.369182937103824,-1.04197979186443,-0.953596327601457,-3.48476888156957,-1.00947856395415,0.474684058931925,-1.3221320960547,1.75560197028085,0.782080396439141,-0.321168007439471,-1.91230697298431,1.36346113110459,-1.47607168249604,0.257698175593659
"AACACGTAGCCTTGAT_1",-9.71321843761869,6.28296710540667,-6.31508993849152,6.37872966940261,5.10756800145571,-4.43609947830464,-0.352731126935024,4.51029733713913,3.06108548355202,-3.57879115071477,-0.494589798206692,0.17977164849559,-1.57337600831701,1.85737007791027,1.14166276923299,-0.232889529045547,3.95898577361983,-2.59219718548971,-0.725828290476617,-4.54532715933877,-1.3515437653067,-0.856560554929146,-0.0509085317350892,-1.0841180058722,2.26009527466222,-0.41417029721413,-0.536263086314169,-1.62738430996096,1.11047031525661,-1.37801390174998
"AACACGTGTCAGAAGC_1",-13.211857044242,2.76133909708956,12.4324127945074,-0.232627650848606,-9.6690930949765,-2.39024698788531,-6.18661289585445,1.5899598691111,5.90442902676562,0.122408574294894,-5.99662603282388,4.38091319212837,-4.12154801129891,-3.68251639254349,1.0913320301861,2.18568708172743,0.611068660304065,2.52242115918307,-0.490487642850326,0.0425829564287079,1.01164918332705,0.509672236088085,-1.03599175824037,-1.08726198595768,-3.79836643624611,-0.23890672798889,-0.19800949395994,0.664988945409298,-0.398773245768421,-0.439898589059013
"AACACGTGTCGAACAG_1",-16.3725663048687,11.5183190098954,-8.90577703539339,3.55503289044117,5.89219637068265,-2.5153969302424,-5.27195165864947,-3.6152520911849,-1.03629569577691,-4.14328225803973,-1.1131575857382,3.32970796671243,-0.415546478585546,-3.63273759901367,-0.595216081239293,-1.61051962212503,-1.80665822195709,1.48610290272258,-0.289063035086291,-0.304244426636112,-2.61518432710648,-0.841043182954812,0.770010967779006,-1.62361723420334,0.164773865495696,-0.283112103877001,1.0726073332308,0.627325213617945,1.50019174694118,-1.10229001204993
"AACACGTTCCGCATAA_1",-15.2066181451797,-16.5979120536472,-1.360383671093,2.03640302182597,3.1305806701895,1.92174727646007,5.54538656703909,-3.9124595530551,4.93930089764887,-0.39654664042312,0.0135844020072054,-7.38361586426934,-1.27639287148283,0.416808596385303,1.18669349691563,1.28670627465293,1.28998842730645,1.92761701178212,0.670546679368811,5.9449225913487,-0.956826433830069,1.60129133678154,-0.27919772902979,3.21138437059559,-1.362725206543,1.14681718647425,0.507323733648707,-1.17091916443914,-1.75601069879153,1.23212610891681
"AACCATGAGCAATCTC_1",-10.7485215756727,-28.5853757062947,1.08868923563644,2.93348935143156,1.82812889011493,-3.10421946497122,-3.55405487858656,-3.29227733447237,5.9002121336818,-2.00553346230974,2.42376264102265,0.295922354370411,0.903711197138289,0.311799815829794,0.721434997938925,-5.50565517389298,-0.374823934215317,-7.74248564827651,1.89525356961527,-2.04974407703352,-1.69877130180243,-1.12354236733024,1.78354048102617,-3.96291680259048,-1.93794742516298,-0.646018197897035,-1.22878356630326,-3.67980659999015,0.374878876773984,0.409905580573998
"AACCATGAGCGTAGTG_1",-10.4142820724064,1.02564398397874,12.724589325129,-0.242757728796805,-10.9147056973527,-9.05467161667974,-5.69292073062414,-2.62763783005061,9.10914885577112,3.38040873439124,-4.76671365711846,4.01635139324581,-4.30166499468077,2.74415444028319,3.94737903331065,2.20553712357675,0.0807620062283894,0.684558931769616,0.199053756134896,2.12493472319434,-0.040681373749156,-1.87176383736763,-0.981320815901992,-1.04556738365331,-1.11423404474961,0.404250547306119,-1.84689541752611,2.84051437203347,2.1404803739267,-0.866529658177352
"AACCATGAGGCAGTCA_1",9.93690314332271,1.20113426024211,6.82914111491038,-1.94313289225698,2.24197772323804,-4.03703627538666,-1.40963963860342,2.64969361461228,3.20898620967716,-2.16590967112349,-0.469447427125792,-3.04206165714089,-1.18361672361218,2.74510205722422,1.80738443818394,-0.37254227323897,1.77046473059566,1.14914852454152,-1.37007697201039,-0.790159356980461,0.215898236748703,-0.342068643708342,-1.29357116418381,-2.114660760497,0.809038901286314,-0.787276563730786,-2.81713280235573,-2.26265374563668,0.989926011874967,0.396194005556375
"AACCATGCATGGTCAT_1",-17.7426543122314,10.4767462635296,-7.98074385245245,3.15642461323785,6.49977906602294,-3.44643992359203,-5.07392457670498,-3.68221812767313,0.859774066951995,-0.780310405824598,-1.46319141021185,1.73715226996218,-1.60201359009167,2.44238598158355,3.91117126088867,-3.55404031783307,0.401479214700752,-0.898719675821136,0.259962158726504,-1.02825969969354,4.50857091769599,1.76850658695633,-3.39130892247492,2.50116775446064,0.803831557708743,-0.261859691196967,-0.902502120087925,0.434879488780159,-0.566203755714518,0.69330928740928
"AACCATGTCCCTGACT_1",-25.6418732982368,6.49717125986259,11.0543746402953,3.7164199669261,-11.0542407390478,-0.626218157669787,2.36828409139956,-0.806788276932795,-1.61419448991536,-2.10863631818721,-1.90634759022147,-2.00462350726199,10.6807552493052,-4.40090533769757,-11.711706995491,-1.9505344227531,-3.8008129262597,0.957424584833618,-3.38008391315489,-1.58369984143137,1.04233142925324,1.97714979659808,-1.32711636206867,-1.95557843853343,-4.93694239030492,-3.12078755011513,2.89244360678225,4.30163966280867,-2.47160030400921,1.48682961349636
"AACCATGTCCGCATCT_1",-15.0034043062423,5.30732647179297,11.2437343989437,1.48089750422589,-6.23061090018328,6.49401838271292,1.62692021692792,7.94100330624291,3.69374262676929,0.717070419020008,-5.46267828502099,3.62564220593717,-2.29835770230579,-1.79989858275631,3.15690898185501,-0.248518736880676,-0.945435483963383,1.19572812376998,2.20507836128226,2.04337333580674,0.500926560136606,1.77870339108008,0.0376997728365779,-1.22881280777514,-1.89430173844847,-1.42571781844654,0.0441812952896171,-1.57301683424202,0.743612324397302,-0.540558133199315
"AACCGCGCATGTCGAT_1",-14.2323827099194,6.31489924379159,10.5905866338957,0.780728405811003,-7.28004297980388,5.76173327775768,2.58888959869568,6.5802256914296,1.78230513735494,-0.548707406430254,-4.6998428118881,3.22842414088157,-3.49535135655314,-4.14799208049803,3.18804858809744,-0.802230863217872,-1.11731546280004,1.70851756370326,1.61383963575665,-0.446903419843877,1.50120645843409,1.38980667813094,-0.299788713909658,-1.1388729275331,-1.21277349080874,-1.52865684767577,0.455529376392017,-3.0181720914438,0.337010118973726,-1.63076617329795
"AACCGCGGTATTAGCC_1",-9.88857291468751,6.25538696724716,-4.80141186995356,5.2685859585837,4.47023135077118,-1.97876664725651,-0.541558704081062,4.58752748924708,2.14649912616905,-5.14290131888269,-0.35082723815439,0.727148706459941,-1.37640515306141,-0.486677862221856,0.862103126686986,0.576529800308565,2.14936203261952,2.03752003529344,-0.950016195498144,-2.49230213362441,-1.76260859839759,-0.557936576477197,0.655439980154926,0.283006856036903,1.47304716799025,-0.175496540244733,0.731272937946241,1.28166822099395,1.65891506149351,0.0106511666874005
"AACCGCGGTCATATGC_1",-19.4911123151789,11.6819231408199,-9.28751051863135,3.4428745011532,7.22197990870079,-2.96223875499871,-5.2110944223464,-5.38467998298657,-3.66580305869857,-1.24509916203662,-2.2010727997854,4.06024106239448,-1.99839246185931,-1.40527615251097,-1.57343948587259,-1.22603026696601,0.0142453464474192,0.540587319041177,-0.412336837076752,-0.0427284791815458,-2.74810906339411,-2.19878782313797,1.51995456383252,-1.03582610880167,0.538927716560176,2.08082382828206,0.260415469118518,-0.198509628215244,0.391335039724928,1.94294999791958
"AACCGCGGTCCGACGT_1",8.17267743250349,0.560225223471456,-1.56002057109296,4.3297283506008,-2.52492403224262,-1.31675732663435,1.81456912475012,4.24803075873312,-0.355530374053618,-2.8636612348452,2.76798476130972,-0.975122153946327,-1.47838823146019,-0.711850879068543,2.3039020518052,2.20583464158783,1.48765179966976,0.923489961892939,-1.23545028128147,-0.979978918453886,-1.2799565464895,-3.23272587965672,0.522560699042134,1.68648365167026,-0.018642045252938,-0.548036769649068,-1.30659314771667,-0.373347659401206,-0.731289052752281,-0.892927735429276
"AACCGCGGTTATGCGT_1",-19.8103035095062,12.387483617921,-9.86940623170502,1.95668470126748,6.67562403929576,-0.380902650678523,-4.81552078725317,-5.55665930458839,-1.71098384973851,-4.42023522382145,0.0603318483441449,1.64777565384948,-0.595862519476463,-0.915547943717877,0.439509681454013,-1.41735512077104,-1.42510851828191,2.97037362114267,-0.539524966768607,1.19616326707746,-0.397646017274335,0.813487802162456,0.166379748158503,0.0774921430367664,-2.06658556342905,2.1701493192844,0.288534805430733,1.21477867578227,0.130643352521015,0.570348138614594
"AACCGCGTCGAACGGA_1",-17.2919163603517,9.99255365901564,-7.33998847496919,2.23524192954847,6.25621062913002,-5.93447987328784,-6.07593481107947,-7.19236069939208,-2.33946757126429,-0.0731849216443262,-0.134401518391248,3.12977292280162,-3.8760932402272,3.50033884391535,2.91502821175782,-1.14979620240192,-1.41152299239629,2.50321022554183,0.00660237607148227,1.70238095027557,-1.71516194563561,-0.199903421878867,0.744655373934587,-0.790018688881744,-0.0981965872348399,2.11220489541284,1.52516453310072,0.817799840789271,-1.54836986849782,1.83910819019639
"AACGTTGAGCGTAATA_1",4.64012884697284,6.37355037300306,5.27677593178113,-2.80861345420833,3.2041720435789,5.29425047235858,-1.90548343551314,4.99415925213108,0.877400630649629,-1.88206947150476,-2.00785552030327,-0.239418028847564,0.337908461766043,-1.86570768283768,-1.95906493387208,0.0682826206747019,2.76751932945555,0.929085822334625,-0.586891212416357,0.183465125891634,-0.163648262104941,-3.04553864911311,-1.25434689183765,-1.2431082481378,1.03558419963203,1.64168382106913,-0.852070819980965,1.33897021849922,-0.0471340387223951,-1.79060297162195
"AACGTTGAGGTAGCTG_1",3.3821740245654,5.29215358258306,1.10218345129744,-5.31898415746923,-4.45906799127124,-0.851388677486511,0.460610897632886,3.52430248886488,-0.0762276384911182,-2.90374178874739,3.85258736824701,-1.53078690392656,-0.26192810532429,1.64192798262305,0.989652880819595,-0.148629016802081,3.48012620084131,-2.27696899895904,-1.43900255490296,-2.00469530993364,-0.275364237892546,-0.0981598803010184,0.214995877856367,0.478364889758997,1.10692821476807,-0.702886220458132,0.60977928412001,-0.808997705664557,1.35039793227011,-1.80245154028511
"AACGTTGGTAAGTTCC_1",-14.569458486806,6.35052706441135,10.6456701325251,0.272192976840068,-7.41155177105923,7.98874050477809,2.8631079965712,7.96565275660746,3.05853062862742,-0.386847122841539,-4.60891337049465,3.46365748913159,-2.53613427639252,-2.34056674942081,2.98380346692497,-0.49906362245164,-0.577505667839931,1.48725557455981,1.70867792873733,0.174164195999096,0.745061174592043,1.10805022383808,-1.77935943982703,-0.728789435337765,-1.18199176673907,-1.43357147647351,0.770423865281577,-3.11713285278073,1.16138155719896,-0.906441219092581
"AACGTTGGTTTGTGTG_1",-20.6080530725831,7.53691573166394,-3.93453159137441,9.5145941200333,6.05308900435073,-7.40696046490345,-5.76050254259979,0.57663909690249,-0.670682630586364,7.74704905280868,-4.03913452518402,-3.06206215532683,0.138292208694927,2.68297967182613,-1.548501783603,-3.39746664828827,0.867402056508889,-1.84725730681558,-2.16255340710006,-2.70244387418186,5.36714409014489,2.63996119162428,-3.10731598339292,2.22650488123054,2.15035150541081,-2.50586141413084,-3.65761947282466,-1.09740887618191,-2.54049758595125,-0.4306193307759
"AACTCAGAGGCCCTCA_1",6.85110528709113,6.15296983689949,0.984337241816692,0.508856893164316,7.22228395327121,-3.5320059080259,-0.387858414117098,2.77291188313524,-1.68106296556509,-3.52600432794624,2.73204625149615,-1.73178074341338,2.02620022081888,0.350814887808965,2.14855855715861,3.46768433954299,1.97958356048968,-0.550863377083372,-1.20486804361669,-1.81995519964946,0.886374470365801,1.35242138889379,0.22486817408357,1.14030549876783,0.10968261077445,0.0530267576192882,0.213928102730103,-1.15522621295953,2.20501951057326,0.272328626962576
"AACTCAGCAATGCCAT_1",1.02788142891432,5.24280105423088,-6.92763781081089,-0.946322583981252,4.26571977450118,-4.89461472128129,0.970127981027529,5.06403108752223,3.77101395837269,-0.4767655302778,0.705719422363609,-2.06074518921155,-0.0358273970775119,0.775233613536981,-1.08630660615246,1.13268254173706,0.284305237471242,0.825718211367812,-1.12858943914392,-0.313330688258761,0.611953486697184,-1.14498556309376,-0.604909343972525,-0.31901707356717,1.52826069915498,0.409822600015366,-0.981090281113491,2.12403858144975,-1.60890530412864,1.02434412815662
"AACTCAGTCATCACCC_1",-22.4150154781173,12.7297744637554,-8.63426392346045,2.92911629297438,7.15785408891518,5.10094054022973,1.82130787492433,-1.62125222389544,0.098553080244437,1.75036344375406,-1.85612558022167,2.63872500067949,-0.365633691833221,2.04931811055594,3.01312041274979,-2.33579760516857,-1.60650225304128,0.514140771128603,1.06096092760315,1.86895041623952,0.464986611557587,2.7942465966222,-0.00870892310093571,0.746742971173581,-0.0420928162878035,-0.533670217474653,0.242178164158226,-0.563328028441454,0.269067160460307,0.169977351208857
"AACTCAGTCGCGGATC_1",-24.5159970339863,11.6648168559579,-8.75099251671158,4.44917246886198,8.21156402014305,2.77796633238601,-4.52930461386891,-1.00483174117622,-3.56602280847542,-1.49546644030573,-1.09753130109074,0.304230286504237,-0.608555282600062,2.81402342469354,1.66653291007575,-0.561296205502214,1.72344529205359,2.08525511491986,0.285534966367973,1.6023082428144,-0.837778679106822,-2.46472966562,0.672820457253416,0.849383795237614,0.35371911911811,0.504068223711417,-0.0733674481716991,-0.439867569308681,-0.45200576332287,0.499872608347642
"AACTCCCCAGTCGATT_1",-14.3302909219253,-21.9249359366561,-2.26872067869205,0.784150347847988,1.38526321704323,0.863717004199446,3.66750571974185,-10.3499846244061,5.31308184478711,-5.18621684173451,-0.889308338754366,-11.0323806623078,-4.93817836503945,-2.76868128176539,1.97479849077304,-1.15972893172337,-2.20153214285181,0.871570667377973,1.17956392621296,0.75917930062324,0.0709368810268733,-1.25138830363115,0.686909319196242,3.39788752625925,-0.320996496599576,-1.52174116412113,1.54270232924332,0.958939366694771,0.73919692747469,0.671987826856146
"AACTCCCCATTGTGCA_1",2.8400599059966,4.48651461708362,-8.10947435722116,-2.05330559627594,2.89201752428789,-2.68559028854356,1.40383373346804,3.55195880222404,2.01151743327068,-4.35661082711744,-0.736657709936288,-1.56382887420011,-0.322262168079423,-0.731057281039972,1.42934358262731,1.90546804767834,-1.40403342958984,3.33781304879292,0.354589905080931,1.55386651503132,0.099852117977254,0.620296645947331,-0.388202894535493,1.09143002899129,0.0333157986624365,0.6495087008874,-3.09327819314971,1.72547745908139,-0.440287148398831,-2.39426521466464
"AACTCCCGTAAATACG_1",-18.700861572216,12.005309580319,-8.76743668541871,3.52532893077285,6.34593072130322,-1.04384860358815,-1.51084402064902,-3.33927213976887,0.182676404756057,-0.769955065919232,-0.288894624630422,2.03528322954146,-1.0081284136374,0.773939876571384,3.82380527281934,-3.39918030993534,-1.54111065786709,0.887905421115546,-0.775839178265016,0.479324764120401,1.37969659245401,3.16216625174117,-0.103616773862245,1.88762985878171,0.461477422080201,-1.75528030737847,0.221232907722282,0.401190288363137,-0.234223779240077,0.736482388765546
"AACTCCCGTCGCATCG_1",-14.697822054321,5.14409221996132,11.013787472951,1.44289893813342,-10.3610741974425,-5.47018101099396,-2.7426963163138,-0.276940312925307,2.60332575798188,-0.951071869197783,-1.33847973808941,2.1255180392639,-1.29425910296534,4.75181242124755,1.36404471388609,4.42806367673652,1.29898369054984,-4.85324886348461,0.317538673441795,-2.1777974422891,-0.972647145182682,1.44716348170064,-1.19507347417241,4.24201367333076,-1.86776342522393,1.5906423024011,1.31401259098299,-0.939712494456256,-1.25727518782474,1.44639583845566
"AACTCTTAGATGGCGT_1",-13.8390281118152,6.96785863100379,9.9604302533089,0.79361429045954,-6.72510688754133,7.59163689919992,2.90578640680418,7.67566566275527,2.61856412051527,-1.33529454283972,-4.59974865915609,3.20017656149427,-1.48345210069691,-4.34276129942068,2.28932297316691,-2.43998164938339,-0.0604775159765574,1.02283917638651,1.62063860685412,-0.119617396593802,1.04078667011083,1.09535734513193,-0.916966051565629,-0.321807499840584,-1.38898301649921,-1.19087060015158,1.94696191401187,-3.44716409539141,0.353238567980666,-0.263955174354864
"AACTCTTAGGTGCTAG_1",5.38172428081219,4.30934441681119,4.65593893939195,-4.34609777308541,2.88088143138028,4.33462922103392,-0.569704938398871,7.23303154959002,3.84525061936793,-0.556744572358518,-1.36072656581087,-1.57158327072381,0.792933887325997,1.4327945216578,3.6114214148768,-0.194109445504697,3.24507480288191,1.70791044708148,-0.260647375212123,-0.0727684687274091,0.3332877114302,-1.37759530895294,-0.316976473375814,-1.35161373175195,1.49457015747341,1.00441920847508,-2.92857377870757,-1.12715197024122,0.436977012261332,1.01899472985498
"AACTCTTCAAGCGCTC_1",-9.82084563024653,4.15052976416774,7.74496027815274,1.06408672237991,-5.9358333966782,-8.00747674195473,3.17366744224843,-4.37742965890122,2.30368242214917,-3.99100737093163,0.162791274157318,5.85690649557016,0.773100359119742,1.49938854320411,0.0760484311811576,-3.83381100228905,1.51644064734893,-0.207754212050106,-0.411593311961176,3.29189494841155,1.35965953470238,-14.1817055388075,4.49930764708906,2.53225621838295,-0.026647800465817,-3.31500604953176,1.04478844892422,2.52186520934059,-3.76845551943,0.452939475089911
"AACTCTTGTACAGACG_1",-12.3745214942747,-20.2818268160997,1.43399716944769,2.46074791791804,1.14979903684669,-0.303566750601813,-2.64303144133973,-2.03339697539074,0.909535514260298,-2.46176372960494,5.18034514231206,-2.45404188323913,-5.38324568457601,-2.96180060429929,0.19854672169754,-0.840438427354691,-2.07214101368285,-0.971915352195173,1.03743341577689,-2.46402699868844,-0.207613036616213,1.64698755190363,-0.808443307433396,0.287632704507979,1.0550241439136,-0.895802832189907,1.03960215412315,1.65148987411053,1.8985032557172,-0.834732345734458
"AACTCTTTCCCAACGG_1",-20.7792582393558,12.5908524883327,-8.51367904956118,3.84830339006875,7.80005532946823,5.42011451164326,1.03510085179667,-0.316884100814215,-2.12731530065689,0.176101546982639,-1.22789685356483,3.76291205944349,-2.21841146707356,-1.02441956355385,1.28360711874397,-0.819468108773352,-1.33796058739499,1.10866802871357,-0.443367171428946,-0.251779413341337,-3.3714575956137,1.99456608754217,1.72121120689678,-0.254599282916745,-0.960684778269097,-0.778554337361838,1.86488986277023,-2.25169798313764,2.25703033251461,-2.05600741164037
"AACTCTTTCGGTGTCG_1",-21.6144661429015,13.1380677385071,-7.24259377476388,3.4054028221373,7.2943041114428,6.17226089328912,-0.8446032107656,-0.378368774322693,-2.93111012031492,0.565430912578083,-1.14198059749889,2.71561836155387,-1.5998706526688,-0.141066621627462,1.4431341016716,-0.940195157686667,-0.297676959363135,0.825521629965833,-0.810072262916282,0.201808947868065,-2.76503193933821,1.00706003719838,2.3733356053805,-0.0280074419062036,-1.17862200807367,0.825654583815858,3.53171434569322,-0.682197457131096,0.972268340356143,-0.0366271001655068
"AACTGGTAGATATACG_1",-9.68394335470173,5.3660673296554,-6.32340044011698,7.56742902898016,4.19030075119764,-1.93994254414415,1.46234013949885,6.78484410832279,-0.440714743999647,-4.82623352095632,-1.39114553287,-3.23011135573777,0.12061673904232,2.02979481602672,0.463938422553368,-0.308094912891773,1.37675186319706,1.23557174869272,-2.5124448724276,-2.54595491610544,-2.3800260510314,-2.33560070655266,1.65492879327804,-1.66238864055495,2.48920330560099,-1.09253424320727,-1.80561384275469,-4.2772873036931,1.52465342745736,-3.62457870868685
"AACTGGTCAACTGGCC_1",-14.1681038227362,7.03501198496111,10.9803728356238,0.0932992635956532,-8.18631039975651,1.43210299147641,-2.35669093288503,2.44155447786397,-0.135445996243001,-3.49863832998859,-4.52357985290076,3.55352927974682,-4.73425764488141,-8.56968512015392,-1.58535384526426,-1.66736008990233,-2.96131342801775,1.1825383402623,1.5723732815494,-1.06510903744127,3.18520118686053,0.298332143587811,1.6272228729561,-1.38987592841637,-0.416130901390439,-0.601116401977627,1.3594339953319,-3.51432424134087,-1.07632934732759,-0.362324994244895
"AACTGGTGTCACTTCC_1",-13.6747486987064,5.23630516871425,8.44943840922075,2.37643192824326,-6.4391223793951,0.6863312509765,-1.78760183697856,4.38646874844823,3.90901271645618,-3.94008039206404,-2.47246757270812,3.17869189716205,-0.835516863251708,-1.12157699371041,0.50395887451249,4.86159973509908,1.34240926379896,-0.538049988205653,-0.293261726647458,-0.0595709748123615,-1.26347837261573,-1.9406262942341,1.17756848908687,-0.815125924406296,-0.847350195089851,-1.55594854096989,0.693285235801681,-2.21765917738982,-2.20680686538318,0.143817437031525
"AACTGGTTCAAACCAC_1",-8.12242004986502,4.57763350712394,6.88488041080234,4.27047220209072,-4.40401354474711,-2.60605681397877,-2.33481370603811,8.07502227393871,5.24799246965419,-8.3442375383563,-3.81762436507119,2.24669682937233,-1.31295388341484,-3.64592230940416,0.708524248852442,1.01800884433508,2.28582973184592,0.964227065930177,-0.7602201590506,0.0395114897842343,0.832295904331598,-1.14611706870779,0.898875936703258,0.422668594431511,-0.629182999605109,1.1955261690725,-0.856238319686978,-0.665894532268913,-0.244838914008299,2.15337413772351
"AACTTTCAGATACACA_1",-14.7395395353458,-16.3028357547369,-2.56913362451393,1.99658734633822,1.48436582466455,-2.17665544966511,3.71075889201689,-9.31403997365619,1.84502345345519,-4.11337427045223,1.82657888552641,-12.0416642321114,-3.64346077989671,-0.500188392095684,-2.35847545004418,1.08809374943958,3.14457814547354,8.70757034451392,-3.23422182820631,5.61678043468491,3.56965383478487,3.06668191663712,-3.61286619532056,0.839065582441884,-5.37573763951551,0.13014610808014,0.112946617303621,2.66875242292249,3.37537168436098,-0.4492457442443
"AACTTTCAGTGAAGAG_1",-17.2259905728161,10.8525249147172,-5.63270507242467,3.33892038383405,6.43839361383914,-1.8215340223095,-5.18879408209866,-0.960464670461128,-1.78706454000651,-0.0417206597407422,-1.5927585995297,1.91858875063403,-1.24083192344259,0.0921944336210279,3.13131857159089,-2.57926454369742,1.39527584946101,-1.13410836859033,1.06149825200132,-0.99722792390831,3.24557195683729,-1.22697709844202,-1.86732025692679,-0.0507847172146666,2.29839397477132,0.668364345287643,0.344372797705156,2.01296506679962,0.371930060749325,-0.410286918332011
"AACTTTCCACGCCAGT_1",9.2781575633945,2.74033007596515,-6.1478069291161,4.47260770852261,0.879878959130397,-2.82839322063692,-0.74008050262018,4.87860273409949,0.239480779336766,-1.78043999374719,0.993816019218803,-1.89972357686876,1.85287956869158,-1.95652114811505,-1.07928753176707,2.22555091852712,1.10654315633306,-0.265717857072121,0.343626428308001,0.144222732167475,0.307924753818309,-2.53883349430492,1.34343832174893,-1.48641910419316,0.696523084415308,0.612041779161452,1.28069370882413,-0.862081313096186,0.670260964086141,-0.647884506755415
"AACTTTCGTACGAAAT_1",-18.7303668595185,-26.7662063000125,3.80304456141533,0.454640570222991,2.26477688965556,10.6830321511196,4.68036115824645,3.44330671630415,0.395072802799016,4.99884353136916,4.08843860514309,1.33098112824738,-0.265502293192618,4.98795754990735,1.04916273242897,-0.893394759484709,-1.20395368698351,2.08464816465192,2.74008841629318,1.84899197172091,0.759841766169548,-1.41259535221983,-0.903985073743623,-3.11479763283129,0.842256364484125,1.54259166324663,-1.59633149650803,1.19307021985169,-3.10095213143282,-1.53474322135697
"AACTTTCGTCACACGC_1",1.23520432832182,3.91535347948158,-6.21791010355211,-2.25512427050007,2.68858364616415,-4.88003073190097,2.77609054083514,5.70690521741441,2.50953387038833,0.977394751367549,1.55049516986617,-2.05127503813189,-1.36731072912294,5.05876741999043,3.03680097635825,2.38137519664917,2.09864884907316,0.26516744493998,2.75316667896544,-0.737288969672874,2.33267896256034,-2.1420557051021,1.53405197114936,-1.65541025778093,0.966312644563008,1.14619379071218,1.93604298197335,-1.10951924222386,0.144815069924394,-0.909514204724157
"AACTTTCTCATGTCCC_1",-23.5920159889427,11.8980229471166,-7.9761047930954,3.94417597563845,7.2659675219813,3.97725469087417,-2.31129987775722,-1.11159949138887,-2.70081126828966,-0.974703343108087,-1.79777300652385,2.4137690406483,-0.794836286120613,1.80326026320229,2.34602212340794,-1.36443885968854,1.26770483207159,0.5428616639711,1.26627952964865,0.726251261898525,-1.31753113311324,-0.935057502850193,0.394961963493751,-0.93586089855454,0.586163196580444,0.0786257742373582,0.669307216152289,0.0790985156721979,0.0419364441968345,-0.041770335967023
"AACTTTCTCTTGCCGT_1",-14.9176628842935,-19.1332972894517,0.559619750896663,3.39665020152886,3.16702431472006,8.90885030286328,6.54389814788312,-0.340203970141714,2.19896197201822,0.782746290888375,0.825726690311265,-4.73879197433805,-5.93281436042661,0.642815305901245,-0.264542329954729,0.444330120432253,-0.40319147699364,-1.12986237211139,0.385450398080391,-2.7405312063564,-0.698167475108917,-1.27644619731051,-0.455427232169531,0.362171520628284,0.400345188517954,1.324928920404,0.706569869585942,2.35853752613047,2.04373994594185,-1.44083008483583
"AAGACCTAGACGCACA_1",-21.4559089580129,12.6184752408024,-7.04131906864724,3.29447644420683,6.79526120856616,5.801226047768,1.78377222300433,-0.238879022860265,-2.70565242032108,2.79241386205935,-1.69723434320474,2.37430249985296,-1.13972385677708,1.08017815210778,3.63179528186434,-1.21416964884864,-0.710905906060394,-0.10899277874911,1.54890752740028,-0.76578065208157,1.0037671436279,0.400685644530956,-2.23788470868216,0.095810111648984,-0.0627840659062117,0.750780153545911,1.80172152954337,-1.25146119080346,1.08217614233181,-1.18708419935879
"AAGACCTAGGGCACTA_1",6.55417046582011,4.67545537070965,-4.90053401955015,3.87213432074387,-1.1797570784507,1.64141586932326,-3.09179757938675,4.15432678604143,-0.688201235279944,-2.67987765762367,1.1483047144414,-1.96669578943973,1.90452655317797,-0.0605518475504792,1.37781634860198,2.82826308347837,1.38528458401449,-2.05067128383961,-0.0597527686684077,0.836173318347192,-0.850756321632396,-2.59076146244124,-1.38405388785244,-0.594019437647217,-0.814340172421473,-0.480238422065293,-1.00319173105873,-0.691641403220704,2.75276548831612,-2.84935122866892
"AAGACCTAGTGTCTCA_1",-15.0770955607224,7.90956015802906,-8.5078668733613,4.7801646441416,4.97879964731019,-9.14555459443629,-4.75745099278653,-5.33341034244423,4.8210077991652,1.82736948485158,-1.96240317515463,3.40138192787103,-1.3116217336923,4.69775845699478,2.36111326595088,-0.0108094366039329,0.0758629823492088,-2.01588796534047,-2.1131762508298,-0.806525234537814,-3.21809887433017,1.75850820507309,0.994647653983568,0.322244951949266,3.48025658689378,-1.8015639642198,-2.26892009864776,-2.77816271457888,1.89880344774142,-1.9059914671256
"AAGACCTCAACACGCC_1",-14.2487319858635,-21.5244821571777,-2.2102155511035,-0.00633231332673953,4.00288663483571,-0.416837778280919,9.18945734917273,-10.1457310886219,8.64932071065949,-1.88137523943184,-1.97868601639845,-5.16585071467184,-6.99208263828011,1.1294903268628,-2.16756092313512,-0.881416795372228,6.47480349052131,3.40855302268679,-2.25865278891345,2.90027443865248,0.0891497834932475,-19.8791884752717,7.22981970439973,14.1897607573282,-3.38020747031377,-10.1925328463346,2.42726526106532,0.288408885024117,-2.99920008949744,0.730879795838402
"AAGACCTGTCCATCCT_1",-11.8079463975249,6.43266346014155,-4.77220627834976,8.19126274955735,5.59978365109004,-3.71904908847947,0.505258046972819,7.0284492962013,0.412673032502632,-2.70135819608824,-1.18784534618419,-1.20146995211321,0.755706288106341,-0.721570679677614,1.87540679544194,-0.539651008551872,1.5662885147368,1.9798472937214,-0.177268635772675,0.00647882841578219,0.408943976996801,-1.20962985154794,1.23107570168744,-1.25596854638963,2.30834746351015,-1.70344976317327,-1.61752156171152,-1.32826668864385,0.9000125701751,-0.589004137255889
"AAGACCTTCTCGTTTA_1",-18.7829634142425,9.03171179603429,7.78830796057795,-2.07398106066307,-10.9646576438336,3.7433081231604,10.5153089506148,-1.11377971101032,-4.31783739113985,-5.50294112023534,2.94899453585773,1.85131825386366,3.74114588352172,1.33100881239175,-0.295941577857198,-1.9408880754378,-2.9367870745846,0.00346735018662168,2.18782183214635,-1.44902573033881,-0.325832151199652,-0.0224442484746879,-3.11967813018618,0.858318984901871,-0.907043974526535,-0.452417848981424,-0.904299751948377,-1.58598481167793,-0.0885037996722861,-0.00732737669406875
"AAGCCGCAGAAGGTTT_1",-17.0305237704985,-22.4332328038599,-0.118962340928389,0.0761317083836789,2.82861822590055,4.20324479317763,2.66602655485113,-4.74757018843888,2.72194899117343,-0.664131931044157,0.596969788196639,-2.97403526262874,-1.56467480750144,-0.685241290411351,-1.17051344235672,0.637698275601223,-0.0812676861261863,1.51575169944795,0.897847745364153,2.87336728611883,-0.1201113975142,-1.47184579177653,-0.741637626302569,-0.786793169640747,0.498342721926452,0.471284526080992,-1.48098668724374,0.0685864328231685,-0.319521942081617,-0.497211973014979
"AAGCCGCAGCTGGAAC_1",-15.6137383825276,5.84237969298461,8.98943237063492,-0.709684708996568,-9.49047405607808,0.561672332071139,5.72269203076841,1.58024491029459,2.41588623238609,-2.25578167216538,0.258046800245039,1.73818855727929,2.22941564114988,3.85950231450042,2.37012979180895,-0.768837081779897,-1.44274589790086,0.348222502469724,0.528056296770621,1.98291190708356,0.417667396942382,2.11147587576472,0.386803477542837,-0.365448261918546,1.076444964126,-1.34998453047278,1.6085979043411,3.35384082951762,-0.436470101042947,0.107921657194975
"AAGCCGCCAAAGCGGT_1",8.02293083417804,1.60173774135951,-4.81021823354762,5.9838597061611,-0.663648585072625,0.0365344149699232,-3.82818065814369,4.8946760289935,1.55444578326106,-2.36654003165508,1.25385076155833,-2.83155918567,3.00316498769057,0.2100755928699,-1.69149078898313,0.314650709034926,1.68342992883338,0.102407809773383,1.31977827281838,-0.185986888528412,-0.344477226379942,-0.908671105966943,0.507072266027131,-1.24794908483519,0.132114237198145,0.454918204932552,1.4234005484107,0.0277087327236096,1.83473945009758,0.266798228590466
"AAGCCGCTCCGCAGTG_1",8.13035106069031,-0.12677698527072,7.97128601494788,-1.71911658756331,-0.396909300548177,-7.31481036270585,3.95801748633891,-0.596960978777918,-0.49948706180904,1.28624910266026,-0.142695522453344,-2.70141926983515,0.198785064435777,3.72992840768902,-0.38582323251521,-4.54851721971861,-3.48914762086021,-0.704727289509113,0.409152765562205,4.47657760788469,0.747450779122861,-3.10955408704317,2.59260258735765,-2.4590419580499,0.763537909911973,4.46287011234187,3.43880545961096,0.268899355398762,-2.02928771505806,1.82879088455379
"AAGGAGCAGCCACGCT_1",-13.1968209097999,5.06936478643753,10.2938144606054,1.50368903574389,-6.44441605552297,6.96216159160199,1.84881548860579,8.12645102594384,4.28298431938085,1.27966009977363,-5.45712503740237,3.22451558268751,-2.91046251834508,-2.82660004788728,2.43316538569854,-0.846600917280194,1.22126647021828,1.54714703122667,0.476035765726074,-0.28272166797933,1.01470772076788,1.23109026114462,-0.0214609716176025,-0.575639807670562,-1.19929807338889,-1.02771743247747,1.37735879241125,-2.13947141047162,0.28265463931638,-0.234650045159839
"AAGGAGCAGCCGTCGT_1",-13.4560735560339,7.53435869037198,10.3838347452552,-0.270030354724025,-8.4355793922082,1.33796927869837,-2.73472697992664,2.46015674648175,0.343195823007622,-4.89458540532505,-4.8340199160596,3.95265228294505,-3.94879604998258,-8.92504860529959,-1.57966326578372,-2.6063752196408,-1.67091352733621,1.42121473634957,-0.134489511295736,-1.75406765240648,3.35117460816112,1.24502538800386,1.46070708496113,-0.960357915632031,-0.552577083820898,-1.28149427537817,0.277780837515679,-3.51661510604671,-1.04580603927807,0.527357240354997
"AAGGAGCCACATTAGC_1",-19.4002109594101,11.3393602679832,-7.90965580353712,4.50034235893301,5.74008557662624,-2.73909094477401,-5.56673800239938,-4.46735284728679,-3.13601986469704,-0.687587987591097,-1.69933323227959,1.04798941349223,-2.4584548097077,-0.334210033390672,1.44200513594849,-2.16380464616023,0.298541448047693,-0.00148476724757268,-1.66140481260114,-1.62168949372873,0.0455789573747984,0.709317914973909,-0.246343782393549,0.732022200405873,-0.108196814914332,0.089920823922245,1.76478264144011,0.251398558639901,-0.0327190664240741,0.160176984330579
"AAGGAGCTCCACTGGG_1",-12.1551944909573,-21.8238803835779,3.22355421005936,4.90174684075626,3.10726107242336,-0.709778817148509,0.355097060355455,3.71289537462904,-0.916615847063096,1.95165080971052,5.44757128837283,2.39783060300132,-5.51243761276771,-2.58056531202188,-1.41582680324687,1.11148677968107,3.58479893761581,-3.61621782537769,2.35351790424993,-0.712425192895707,-0.881255620584254,2.43955613620171,-0.765752200793959,0.0955129477823544,2.26034610711919,-1.40386782329369,-0.577313677204993,-1.11615614568167,1.83212099242869,-1.09256706394115
"AAGGAGCTCCGCAAGC_1",-21.9799224664018,12.7767316848154,-9.20755840820109,3.10939471750695,7.18240768269941,4.71109748484877,0.546825484307651,-2.24137034286724,1.08167599617743,0.95345583254966,-0.995537692884304,1.86074750899411,-0.420237350642354,3.56115988526199,3.9427129632197,-1.41560656421442,-0.236792968456501,1.92934478876422,-0.0582423472391997,1.68694034853391,-3.7139924602456,2.89144991984442,1.00876158080702,0.131849633752204,-1.06155374531522,0.141075320316618,0.416021660912194,-0.17020587002044,1.33939047548988,0.964633456330829
"AAGGAGCTCGTCCGTT_1",-22.8212210372086,13.7026925618439,-6.22139787612304,3.2645737894322,6.97796809302843,6.49571226735698,-2.87192075681476,-2.15744067196874,-3.64078975863716,-0.17840984179139,-1.3679465022826,3.52698720854024,-2.28375965043538,-0.209188376256126,0.753310628479202,-0.538055166495483,0.150955674031712,0.335798923745392,-0.979746342620313,-0.917230096789104,-2.24102630219067,1.48463294893211,2.34637331903149,-0.632681210739035,-1.55401465814367,1.82179736727506,3.72494869751431,0.226455811675497,0.138033180084343,-0.182700994624714
"AAGGCAGCAGCGATCC_1",1.80425946153371,-8.50094072994059,2.22979087628598,7.98842303005443,2.61832855264751,-4.75212766220269,9.14561237758729,12.9984888180281,-2.15032631590933,10.0004723559942,0.274614741449517,-4.74712159895213,0.944494026458657,3.32499919320445,-4.75261440973666,-2.25713902565093,-4.39046549331634,1.04050732635489,1.63376897164397,0.358567666528457,-0.0362434771783059,-0.294260781557876,0.605347444322827,0.691498182860571,3.54009146966025,2.71818136725028,3.57653434535893,-2.97686347583848,4.70138735782549,-2.88489074173708
"AAGGCAGGTCTTGATG_1",4.87247063655336,4.58787341473532,-7.03622257016133,-1.83243683742264,2.94729519817413,-7.90651390313801,0.418997677772127,4.68615412072918,1.39226840206503,-2.11513687496897,0.54226389319411,-2.40909450265639,0.583456378803539,-0.515763507830297,1.62467961812299,2.68432384215065,0.0629224271981445,-0.378380084368944,1.01749168247224,1.36685685693085,0.315193587042287,-1.90654973559087,1.47255911031303,-0.565804633034461,-0.722864300982755,1.64205794896694,-0.272485807669352,0.361618187274272,-0.655673379802846,-0.38491663188505
"AAGGCAGTCCGAATGT_1",-22.2291670573902,11.8465696485414,-7.84754089604436,1.70192802873703,6.43308617047241,6.4305242802671,5.42368662364953,-0.0763283274659353,-0.695666706229367,6.06226826256554,-1.4104155961624,3.30019860999243,0.590306179959179,4.20247113481728,4.70910478522105,-3.05958034573496,-0.193021045647751,0.569853893984795,3.8303915527591,1.17271689642107,4.38778640161627,-1.02929279408496,-5.03212787234328,-0.638007666623744,0.99320091410853,1.88056816207524,-1.28425839647757,-0.269669756450106,1.03284594684716,-0.306574451850104
"AAGGTTCTCACGATGT_1",-11.4705865013875,4.82205185123049,-2.99092571981233,9.76603525917241,5.55098416780564,-8.63601446309944,0.688424521485095,3.4376582519697,-0.505614810277931,1.86751606388616,-2.37592689451898,-4.06425697430944,-0.186693074904717,4.59649930666548,-1.2265107716575,-4.9896187883611,2.1114066273662,-2.56755857846953,-1.59850100341665,-3.42110019469636,3.97201713800003,1.69943800880226,-1.89491095297144,3.20500977823483,4.78785310894945,1.85845495408515,-1.78184846952051,1.1523755449234,-1.15722777196587,0.239788347584874
"AAGGTTCTCAGCTCTC_1",1.81145075120375,4.20755900297964,-6.48111004686317,1.32780767272076,3.02030409435539,-4.76517470380209,1.86709964328734,4.70096941029547,2.13985417194604,-0.576690330352026,1.62342163663471,-1.17706963189349,-1.41935129897031,-1.67597667863516,3.16860009738147,0.255577377221359,1.68463518123966,-0.129048005937519,-1.24030876242707,-0.862605871867095,0.936614015021288,0.461585268093508,2.04327164439115,2.07785355511741,0.402260829880561,-4.71963913276391,-0.353376848466639,-1.9135173342568,-0.667466383106862,1.61207076240311
"AAGGTTCTCCTTCAAT_1",-18.0869278677448,10.5219906315681,-7.49940490768204,5.06297537400375,8.0649267837775,0.954594607120407,0.171214266735086,4.01272991327949,0.448399108702609,0.39325128954165,-1.5703881435,0.723289588356886,1.43146106142701,3.68126148743563,2.77728540621143,0.442843516073716,4.10862642070995,0.386473774765671,1.59742723087478,0.0491202248311573,-0.620370256331871,-2.08882286959225,-0.397647669537852,-1.77416346168993,1.25538099530759,-0.762690058880679,0.470483534230721,-0.660992660885294,-0.572841548011801,-0.672936444117802
"AAGGTTCTCGCTTGTC_1",-16.2173742787783,3.24914718341305,12.0727732079504,0.780057245272239,-12.2233670737312,-11.8663250519215,-0.681614524348345,-5.35487519342951,1.18140113939441,2.97733411125235,1.55846436026857,-0.263921593073668,-0.696963663520328,7.45475588606204,1.42645937287875,5.64130560789159,-0.357857165795497,-2.44189412427748,-0.441964240670102,1.44635408767446,0.94494046278501,3.06786243984653,5.22440141036667,-1.71693619589323,2.29582991892832,-1.63582498293958,3.15087499139312,2.45891148478084,-0.57049627816112,-1.87086523675287
"AAGTCTGCATTCCTCG_1",-15.2890846861472,5.32880285765742,11.1004399940184,-0.088475174884553,-11.8798920317353,-9.59151165640624,-2.67328060856242,-5.77280622766335,3.29796773010111,-1.04100605363848,0.717258569145458,1.74578411799702,-0.110865953516184,8.44695565730723,2.04824433569209,4.20682630947652,0.608028472524588,-4.75817134837224,0.463351649930767,-0.117273013733102,-1.14044138514183,3.1062130968515,1.22177800210926,3.61651586957979,0.791872962043697,1.05864793258072,1.77527774997022,0.319771519438191,0.696917019680988,1.01583973775415
"AAGTCTGTCCACGCAG_1",-12.8390649050205,9.16991514222113,-9.25883441123037,6.6279175199936,7.06527605183994,-2.56907350101011,0.74089504917527,3.05939296232848,2.9880104817573,-2.59006377679512,-0.63132726906983,0.0361792458370614,1.37063923213532,0.709968940039043,2.33953515784994,0.344156415336271,1.40694658723162,-0.800567819889811,-1.65465183572902,0.216692048651488,-3.95526828490595,0.56617690357119,1.03180298731223,-1.6186324000948,-0.221269089391926,-1.40181770490787,-1.32993678482793,-2.04477015077884,-0.616501998717845,0.172295207394625
"AATCCAGCACGTCAGC_1",-20.422466691611,12.6696707590519,-8.5785270021124,3.61649025032285,7.6515774658784,-0.332634102326504,-2.60601700652241,-4.51540328114993,-4.79431686598146,-0.862799618339161,-0.28451017087677,3.80758206444772,-2.96066940134675,-0.90950771507227,0.102292198546329,-0.933137991181351,-1.04956282905125,1.78852647109178,-1.19087977269785,0.455778362982274,-2.66561332037936,0.0416860585717349,2.71563296341761,-1.34272661021122,-0.753813892215987,1.93662324983275,0.607950053550751,-0.315561656064273,-0.10181674916414,-0.270021491396817
"AATCCAGGTACGAAAT_1",6.90489910075433,-0.0948927900102659,-3.93742469092852,4.64434798466401,-0.0366803328613723,-5.53007379058308,0.395275899218694,3.68335342654271,1.73621067168675,-1.62297259927654,0.0180116667194034,-2.24874201958645,-1.14402604817692,1.80810691473898,-0.83446670526659,-1.70332943554322,-1.43626590533532,-0.988554235122043,-0.937954393946769,-1.5477703849675,3.61480367868957,-0.370152013305555,-0.426545021306509,0.245835060848758,1.49142024181563,4.02643764619901,1.09217991961411,-1.58362702321053,-1.7456194740768,3.75420481047439
"AATCCAGGTAGATTAG_1",7.18257918689502,4.84120171046699,5.03821785964198,-2.36945844919454,3.54126580202085,-1.49387558291177,-0.570944429762598,3.90249032774218,2.02392683618511,-4.17077059004424,0.646669286123146,-1.29557194063912,1.09490496154619,-0.0208030997712351,0.5440216248756,-0.976150464576529,2.72017302765443,-0.114000208857556,-1.50789098846705,-0.275877278383481,-0.391159124097868,0.0398771332493781,-1.28958971241268,-0.447441673278195,-0.375664012505349,-0.85850441370225,-1.86437931217922,0.662084516963021,0.303898381837054,-0.625132885710792
"AATCCAGTCGAGCCCA_1",-16.8235052692131,5.34227945717028,11.4390283023817,-0.48877982589335,-7.9893591745174,7.41070840697597,0.632640236818486,6.30658416693433,4.89027588472689,-0.0165840209362344,-4.78271901301549,4.15480896334343,-2.34224714073583,-1.94575460314435,1.44975988091555,0.195123417985839,0.289172896742422,2.5259966972509,0.542733575442312,0.0518404206948829,0.896309800325537,-0.19285672254642,-1.30546202945436,-0.0419435937824173,-1.83384183025501,-2.29350406944617,0.444761867143741,-1.79382608061608,-1.60835243614487,-0.300198836642111
"AATCGGTAGCCCAGCT_1",6.01876955796511,-0.061522142536621,-4.33945459093831,1.72687077957198,-2.44643185566635,5.19453225089082,-0.999763855166627,4.32123583824194,1.23236144375219,-2.59354721165505,1.92421766595936,-3.79691212377079,1.34924215447837,1.04554320295857,1.26705701963026,-1.27531731890359,0.136324519675915,-0.430407770040372,-0.272863287206943,-0.467950420697095,1.62363005348375,0.162633386169215,-1.88430757617594,-0.815952600311732,1.05514335094071,-0.555817213014265,-2.67504740811141,-0.392436385022609,-1.92158145974885,1.56638656136688
"AATCGGTGTCATCCCT_1",7.19216066588535,2.3246352074944,-4.27213295645948,4.12617786024046,-0.648821180814417,-0.708700236173493,-3.16651239489795,3.07062650687553,1.45843472602832,-4.00934611556192,-0.724366167787438,-2.6992855223676,2.048711218295,-0.653454149426195,-0.493185049809043,0.859311863037689,-2.47023715208027,-0.0790189215662608,2.79690352806186,0.770082935877416,1.39097900917106,0.401795934129418,-0.335646913386071,-0.895184641334101,-1.74293087727331,-1.04521601149589,-1.58809334334225,-0.0373565077952812,-1.18988091945331,-0.759771455347221
"AATCGGTGTTGATTGC_1",-19.8839170009338,12.297035346247,-8.22444526485715,4.10109730464292,6.97541921996574,-0.512670540168409,-3.02448525424736,-3.94693789421404,-4.43113509450625,-1.21696064069304,-0.690484503279547,3.16049825447418,-4.19452413262033,-1.38722395531406,1.14656514501054,-0.208308041865574,-0.958391202778287,0.453020389074175,-1.35104743134031,-1.25408473244973,-2.98483291213949,1.14357011304263,2.69443811429808,-0.513421995361614,-0.607120412474882,-0.347845767900917,0.3690811559248,-2.08550442911798,1.4218560920121,-1.34614341323614
"AATCGGTTCTGACCTC_1",-16.2849371179148,10.191634729418,-6.63811535932648,2.88265917517402,6.09419193391691,3.79352151685028,1.26254334767978,2.17410839222477,2.82028848794065,-4.28002287728159,-1.77425234100947,-0.377006836250695,-2.7117957210658,2.58032283989661,4.7066108496562,1.54638688896541,3.43383101416216,2.92279120790626,-0.930688384924513,-0.743200123658883,-0.360156903216381,-0.798984695241701,-0.990018903832862,0.0561752182773246,0.741901050948015,-0.457501336525423,0.390505319888697,-1.86522595753467,-1.00090673186215,0.392016789521654
"ACACCAACAACTTGAC_1",2.60626701780612,6.92229837722404,-5.77952232947948,-1.31544021446267,1.83160999826579,-4.45273506373019,0.155378070295442,5.37868511766506,1.3521171778077,-2.46959047391763,1.05751361340496,-0.993269816653716,0.821852259796706,-1.10472146766945,0.461149507986783,-0.130945071732437,0.580532425878962,-1.40359389899515,0.45032054251739,-2.82721813528939,-0.149533553960502,1.83864638585922,-0.085680668514113,1.24370032886633,-0.245665524995917,-0.851223529772478,-2.21678036419514,-0.28650979537076,-2.29119295410416,0.447706217112237
"ACACCAACAAGTACCT_1",-19.4903640170755,9.16617063001689,10.7553911877851,-0.649136568777411,-11.2459869419282,-0.846276335537026,5.8188314330619,-5.64087444348041,-6.77193568825266,-5.39269254052234,2.39083611371926,1.9019960023538,1.18058816877913,4.78927006430005,-3.35159175698147,5.15048152198923,-0.182994879649531,-1.45049634366836,2.16880425709367,-2.49973045252259,-2.966156148551,-1.91526382500841,-3.75590465453244,1.8718132817041,-5.73608210722417,4.35857772886415,-3.22669173380884,-2.99817921027796,-0.936436849203242,2.38868664928167
"ACACCAAGTCACTTCC_1",-16.6905598723332,4.00956813749335,14.2182577880706,1.31996857528148,-8.15487939537216,-0.814425072065133,-3.41462517762203,2.49143487396713,2.72321932180625,3.02744348761527,-5.36275770674843,3.6363670941848,-7.1353727232871,-1.00300052531491,-0.440550938664319,4.98701380997526,0.669375326115619,1.01716048699441,-0.320239396286143,-0.567267386850146,2.09801273059803,0.397612265523703,1.63551435040557,-2.16256554898255,-0.877092747735077,-0.28202867812588,-3.13961356628843,-2.1204237286018,-1.56462116915431,0.206083036494996
"ACACCAAGTTCACCTC_1",1.68001053609705,5.84061366666478,3.69585237482986,-3.52682611144294,-5.2730041235132,-3.08388460188013,-1.2278799623519,4.4697914319912,1.63151189605375,-4.96483316128626,-0.0297417718591441,-0.519784108085651,2.29778713255544,0.413219046832884,0.515908406042455,0.198602247339233,1.25835766725614,0.954821961662268,0.181873608996459,0.498613096029255,-0.823943431627768,0.3801412192851,0.469433207384791,-1.40235396829089,0.981310164475309,-0.962806770943313,-0.839315084209073,0.196758147312651,0.309551094077556,1.10351433914545
"ACACCAATCCAACCAA_1",-16.9128046861929,5.71557425971339,-5.35552480753664,8.34105972039752,4.91271719886045,-5.17642289501561,1.9577605093395,2.73282552381532,2.61370104405786,2.88437984395707,-1.8354661490741,-3.3567001568455,5.79616260208576,1.20222159762433,-5.15582772527223,-4.11006108444021,0.263799492319394,0.904238736217588,-3.79698543008182,-2.74872730246455,-1.27869501978279,3.0653391838213,-3.48508360616877,-1.32148715399666,-1.50906758165454,-3.06795664493805,-1.69287486547151,3.05911948837545,-2.66240164764649,0.434927211789975
"ACACCCTAGCGACGTA_1",7.53517876457593,4.39551043059682,7.80293384283972,-2.08177575754907,3.10694049593408,-3.49929581535742,-1.12409578933473,3.51990985360328,-0.615151961464772,-2.02762566346824,-0.366004256807355,-2.30141296643207,-1.81149048595922,-0.161564220629084,0.318398021164058,2.32231038414071,0.0137350114354172,-0.59252108013274,0.975523224103031,0.241347090340301,-1.0194914169946,-2.65560803232271,-0.659190783909773,-1.11265763687194,0.798377364210291,0.785083468458736,-1.6266735446486,-1.61605971392467,-0.00431513389575899,0.561250955376086
"ACACCCTCAATAGAGT_1",-13.8423344104011,6.01888459404849,12.0272329119417,0.442090369289157,-11.366454972092,-10.2979711611678,-0.31557458991305,-3.20276062310885,0.00767074773589381,-0.290391686283383,0.894203346808965,1.97376940366807,-2.07359102469197,4.29806001767268,2.56964150101735,4.20233182420724,-2.09955038445498,-2.87135479023696,1.74080992374379,0.266198490027898,-1.53498609558585,2.02042571759038,0.273033746250603,3.53993229168738,-1.93330502144967,1.90350347920779,1.02785642633923,-2.5725712816012,0.173026229870082,0.104955341612524
"ACACCCTGTCATCCCT_1",-12.7288394713289,5.23998353320309,4.39623873889558,3.77328643630698,-3.38651319310138,-0.430194888430961,1.29873072247404,7.32953017327995,1.90485366539646,-4.3241572553897,-1.52567319728054,-0.241780433034422,0.608343833814581,2.6672578392316,2.20761908011501,4.00055579118795,0.504151006595939,2.90155628713644,1.43802168674837,3.15860784223403,0.802631493973524,-1.8728525258102,0.104868795912473,-2.69810485383948,-1.38611663912549,-1.53146301046619,-0.459885268274496,-0.166185110854117,1.36519413056676,-0.981483368794743
"ACACCGGCAGCAGTTT_1",-12.3673045268099,7.28399725017371,-6.10586943245318,5.76380606302779,5.45751328918087,-3.50707085144376,2.0366510854645,3.6331623753418,2.08812060138724,-4.89104634824475,-0.593995456505778,-0.702554066088593,2.27059578636266,3.16745598772995,-0.0440233701252289,-1.0008432960918,3.67223646827245,1.09596328709894,-1.54022596798012,-1.45683063710637,-3.54807608219356,2.60653199151379,0.501260538613795,-0.291670575998297,-0.00923325368029742,-1.43567688238124,1.19800982678254,-3.28312047434298,1.13495109114644,0.657190107442912
"ACACCGGGTTACCGAT_1",-10.5449113026054,6.70899492651208,-4.92431391106606,7.19506043327957,5.9351813492082,-4.13701194260977,-4.36677274628119,3.32438263177344,-0.688709406086422,-4.51034372245708,-1.26198276182268,-2.5577615329659,0.151778401127423,0.640706509664814,-0.120982437530497,-0.405819293120678,4.26471353260494,0.703452290883601,0.199612011809235,-0.392090049570099,0.580886469907775,0.741452292393052,-0.943459702739498,-0.409425054043517,4.25135499042034,-2.50872359773488,-3.4096516813647,-0.897342103099012,-1.65257065451282,-0.192241009482212
"ACACCGGTCATGTCCC_1",-11.5409454066182,5.7623002945645,7.78635093551588,6.11452247499137,-1.50186963901656,-0.480879101065013,2.4985802309988,9.07427147749293,1.64499611638911,-5.01873024340847,-2.26643415167797,1.27131572594876,0.489386092413837,1.36069923503255,0.1185691294705,2.25756751555768,-0.56739809808637,0.235978212002526,2.0488974763324,2.01650327787043,0.332332825118613,-0.420848932116001,1.29172922618929,-1.36450466522494,-0.614629539340608,-1.23271973852974,-1.3384462741246,-1.68083178363397,2.94287430836052,-2.02799753044357
"ACACCGGTCCTTGGTC_1",-17.3895836057374,-16.3141989730013,-0.463548368542596,3.33747145330542,3.5568097133291,13.5903625350502,9.2800099148948,-1.05021013166625,2.25926080175945,0.405873619969518,-0.840348914611182,-6.05351108355408,-4.8294393727601,-1.31918464992221,-1.89398794657443,0.214250545602185,-0.0858928472732608,0.301861352485742,0.879336212019754,-0.536129165839454,-0.167826436830394,-0.488845308746689,-0.445697329973014,-0.503083301432878,1.5536707740923,1.30077028595578,1.27439040869407,1.42676783264978,2.5631346964503,-0.504721566789237
"ACACTGAAGCGATATA_1",9.19044214617998,2.88396692172423,-2.85005049385006,2.56796075070895,-1.80464455283855,-0.618138680969653,-2.69358054887344,3.31058229410766,2.84189263945598,-1.9919876779269,0.555133321306031,-1.0945878767896,0.285457791180463,0.645114266503962,2.46688101918288,2.02348006009912,1.75697513907419,-0.812061490957657,-0.491563473851793,1.21106163038667,1.22999158249709,-0.719251726557178,-1.00434874724493,0.229898476022107,-0.454960285801464,0.985395087400918,-1.86716188380504,0.485353754423538,-0.0812875916569948,-0.928299178069408
"ACACTGACAATAGCAA_1",3.86380572985665,-1.73933387045445,4.52260817175855,8.94621244769642,-0.902879293127875,-14.0489708738417,3.65091430188408,9.2606092636774,0.767821253378288,1.8010967284914,-3.02590335303082,-5.305055987457,0.0108121982932918,0.717926968851459,-6.90264226136886,-2.72416802743447,-5.13628520792421,-1.15727916262403,-0.381215621664782,-2.18893226697152,1.11446371335256,1.41241144749271,2.28567068995966,3.75209311827751,-1.296626693147,2.32303119428614,1.28951783242659,-3.43833025950487,0.253585788857396,0.896573245069541
"ACACTGAGTCCATCCT_1",-9.66260426012312,3.26350878252383,9.47100896282114,0.83055814497863,-8.22826567407247,-5.05649673399992,-3.48075729067785,1.45093427828854,4.69477928391663,-2.52130321673785,-4.25557286774545,3.07232523254194,-4.70435232723806,-3.49037387083982,2.78291225711596,-1.61525840771528,-1.64357146600896,1.38730111574283,0.253308620549348,-0.701195991326981,1.39328966988028,0.0335545387966908,0.490943797299586,0.577331482842026,-2.23917652940837,-1.37580177458907,-0.302405085231951,-0.862604814636368,1.13253162249301,-1.85957777698751
"ACACTGATCAGTCCCT_1",-14.2406810451019,5.68348472449455,-6.40402213858939,10.4211355487785,5.45568307838602,-6.13646681829387,2.74118272436396,4.92521444647316,2.21475021247198,1.56978231934315,-1.60046438330057,-2.14552018272764,5.23763826614032,3.41422556315735,-2.42033449950551,-3.53125416378707,1.26529180227904,1.21971633694744,-5.30915725937827,-2.38969055373041,-4.12438240836577,2.34457133754321,-0.723014413876206,0.188126732761881,-1.18769806283734,-2.83640173147712,-4.54457712073423,3.19406544636196,-3.23500844584362,-0.866082495416382
"ACAGCCGAGAAGGTGA_1",-14.5811985819665,-22.1189165679457,-0.995705176897581,1.64416916169571,3.72790307112903,10.9475570733833,9.89355626029256,-3.22252286277686,2.7460428087543,-0.751466737419267,-5.6270519693077,-6.78414483043852,-3.64627944027037,0.460102503365847,1.44239073882839,0.616599895936138,0.672480996221383,-2.62859565656036,1.38262591912413,-1.56007884919436,-0.257679139708403,-1.37351798703858,0.585606936930406,-1.23021264925932,1.07601393347524,0.625834914408885,-0.166258054313081,0.697347044616071,0.844500664300622,-0.109806420695039
"ACAGCCGAGTTAACGA_1",3.44624081859037,5.79133115446473,5.67237124887307,-3.10354774491638,1.25799226528423,-1.57006116253479,1.13321714108891,2.46956569058326,-1.11208920635435,-1.89855603906671,2.54665813234974,-0.606367591442004,0.499220227940588,-0.341610542032558,4.00785989131046,1.48893625991912,-0.593597935655973,0.883160878577146,0.454343489392698,-0.211371015572667,-0.858808366519927,-0.266001298280244,-0.73366910507518,-1.16572968216526,0.486637779588407,-0.512937868921179,-3.32146731429625,1.27867579745967,-0.917984502546341,0.312487518987269
"ACAGCCGGTGTTTGTG_1",-13.3948868908211,-18.8776391266753,2.43698790089046,2.69348867622191,2.74978631801923,7.87952808932794,2.6088671370262,4.95656329582329,-2.4721515022135,1.70252168095507,4.91535806590552,2.94590942516685,-3.09924549399817,-0.613392120272275,-2.63179329240332,0.428552556998204,0.129620117734062,0.497051795413968,0.0633961263641658,0.824382234386247,-0.328945932733785,-0.736357548175555,-0.571699210675403,-1.33008958745928,3.01472818804115,1.29490704070761,-3.25214408937716,1.17247587128247,3.38882060458361,-3.46181702647376
"ACAGCTAGTTATCGGT_1",-22.4378629624287,13.4428967558299,-7.17082774404442,5.12147628987201,6.93421636784478,0.706450773689459,-4.13698825694946,-1.9859107243518,-3.90663096105015,0.117154524553799,-2.25933697169752,-1.15665865178648,0.683548090434251,-0.2300230894673,-0.752284288147157,-2.61116425749006,0.317002011268778,0.00914438045777619,0.423043250892972,-0.0293503161206758,0.588723795533819,-0.359580117861831,-0.692817232880697,-0.163678592730275,-0.590367227853931,0.60851298084577,0.177795829252882,0.109510150078669,0.890710333642605,0.189409221018558
"ACAGCTATCTGGTATG_1",-19.6975396487248,10.6407109711288,-8.52055346620142,3.59965347151483,6.84913128552279,-2.82888503847235,0.246903495483852,-4.28456539628546,-5.71411022898953,-0.505714591801782,0.630112966071355,3.07059354071371,-3.98627130549863,-0.165609141292275,0.588701063507702,0.0342804910888502,-1.73549514020154,3.71137686960256,-0.465094749065503,0.611959558101969,-3.283871570865,-2.43561192764669,0.938387616625156,-1.02106658022471,-2.19613493129053,3.80396331191254,-0.180393578080091,1.57994675295603,0.238282873555495,0.998059936425073
"ACATACGCAATGAAAC_1",-22.9126935578977,4.44229874627334,-7.67596550578455,7.00177662577406,7.49904697597661,-3.51192245380247,6.82992644129173,-1.14479814546187,3.39387188166284,13.0516696671027,-4.41808656043711,-2.27990417508342,8.52591276310114,5.08224344521805,-4.24716280663793,-7.69044587893754,-1.60957302432313,2.57852963645963,-1.1437509287144,0.0171504323503411,3.04523117658386,-0.757443574380087,-5.7864359584695,0.701401940593587,-2.38772014977483,1.94660799089936,-3.35452054648884,-0.128730936431342,-1.01646348261441,1.33895825440747
"ACATACGCACAAGCCC_1",-18.9512258448215,11.7671439221939,-9.95162514454428,3.54037374358078,6.69300872139061,-4.91586059649011,-3.55408992782534,-7.39089971288475,-2.14127011992334,0.480805936163547,-1.1104015120608,0.31496891592332,-2.52380478678266,1.29478655116173,2.90463929046214,-2.93421361946801,0.823984181301211,-2.01103019099723,0.472951596192323,-2.62984878234586,4.97854808031932,3.15175278791228,-2.75177894029047,1.44215648722472,-0.103464439079716,-1.68832050944379,-0.936112547829264,-2.2394225161559,0.0607342582939277,0.0381711712153956
"ACATACGCATCACCCT_1",-14.7292068262014,-18.8038386794091,1.42371222276103,2.07345889172519,1.87705363558781,6.38386343344818,-2.60874367718338,3.73212992128522,2.62042351812277,-0.967287453011521,5.52894616840033,0.710872556993077,0.4461759070809,0.997949221354908,-0.308761533190366,-2.90916858526181,-2.27541311487167,1.78329981013077,0.369759093998911,4.28821616707461,0.317957995783383,0.0979458225769372,0.194075234650127,0.469779175738554,-1.43088335220334,1.18272172757748,-2.35107236161683,2.02625261376431,-1.82770156887909,0.0853524740646797
"ACATACGTCACGATGT_1",-18.7463676764929,3.2426185714849,14.4735029020604,3.65714150995985,-9.0207137823895,1.92106046747469,1.17150781729963,6.12115279632978,5.41153326850448,6.87174915300706,-6.24085754867923,2.29593187504635,-1.63601897168123,-2.53522036590518,-1.85465151309875,2.93148236361455,0.541277206966993,-1.07132698743154,-1.30885932239463,-1.35682327382807,0.0169702786699593,-0.328051994577458,3.4564251360423,0.15794674478861,-1.28867939031768,-2.25178136046461,0.813953636208673,-2.39132422612713,0.892499488459465,-0.95374944811888
"ACATCAGTCTAACTCT_1",8.39060582608269,2.73245013666354,-4.30725985653939,1.98855682956494,-2.78386149122919,-1.14443292229654,-0.682779081340491,1.63636288981951,1.4584500793888,-2.52491834505333,0.897339754533779,-1.55058361822399,-1.13076071964502,1.13400780678412,1.01417360266522,-0.973750079492163,1.13119680299273,2.03509324710533,1.53147950505663,0.705701630751525,-1.64426949786782,-0.458381650422231,2.11885191903457,-0.370534144059118,-0.635074096956621,-0.536537541372795,-2.06287514584663,3.87131135304467,1.61895248198471,0.497329026173738
"ACATCAGTCTGCGTAA_1",-13.5844201385982,3.14563315374667,11.1788572623643,1.20653930710424,-12.2254806554706,-10.0620169934963,-3.14273330052229,-3.40515488148071,4.45798560497408,2.00180401429386,-0.853205749494008,0.263359203147948,0.222448975462028,7.10886572283237,1.95850810378959,4.0040021612585,2.00961196588911,-4.56636306870782,-1.55424721691813,1.64339721888318,1.22496117494713,2.6813511928034,3.85537190000349,-0.234591976420572,2.45694877297017,-0.306214986986088,2.8889570141264,2.98625760475769,1.95035443382091,-1.77287542314925
"ACATGGTCAAGCCCAC_1",-13.845884660781,-16.9654757527769,2.81573936424848,3.9582656448037,2.28293556252327,5.06125204424401,0.422029837595839,5.72787481496645,2.5439195288202,0.426909979900754,7.30036885313207,-0.100960154655192,-0.97746924795935,1.10327001370504,-0.129544470157974,-2.23019849805097,-0.547261137974956,1.61912207672286,1.82266200169267,5.47575020287474,0.140851026903891,2.75587053363813,0.497621962602915,0.848534534706076,0.575836087657789,0.179235781268596,-1.94708195488259,0.737238115847418,-1.49748543780416,-0.525066831726278
"ACATGGTCAGTATCTG_1",-23.2322846472463,13.6065509337031,-9.04341771022702,2.99042536100702,7.47310002522489,4.17112198451454,-0.366804231225327,-3.36783798931354,-3.41120240387742,1.1405278826149,-0.390557357768132,1.94367552428091,-0.996482217033168,1.48881355554695,2.63684710702879,-1.45525338942954,-1.47922416096307,2.64675899355671,-0.153460138657449,2.12946491592508,-3.69357778842163,1.16684224636223,2.09432489428633,-0.77316282949021,-1.71135336082819,1.32606162624883,1.13681500002036,0.485269955811956,1.73177116129116,0.959240321959393
"ACATGGTTCTACCAGA_1",-18.8288492357395,9.30286843678583,10.5452832378552,-0.566476154635138,-11.2660797932869,-3.00764121036218,4.7487807490038,-3.83229442232457,-5.71879274935771,-5.82782574402613,2.14628881909746,1.78420418184145,-0.759968230566244,1.17715817999822,0.305656084694259,1.55316126690505,-2.63462702272368,-1.79862748975001,1.26615631105252,-2.12553977996584,-1.88687938471908,1.08642915656128,-1.75492765046922,3.52314703417322,-2.80401531313414,2.23091705412055,-0.781998053890632,-2.77430403455378,-1.20320526410761,1.53900976114669
"ACCAGTACAGACAGGT_1",-16.7437152295346,1.01350476955141,12.8343036248018,6.08605459381051,-7.03804004171121,-4.41673821028966,-4.02487941388434,3.60165574183958,2.96946811707409,3.77041992519137,-6.45552691249066,-2.47025024459374,1.76265111101465,-3.83385700195982,-8.51862051795255,1.89780824033787,-2.48016411772743,1.24800729567804,-2.48056274480754,-2.31400514086517,1.72905790710613,-0.445131152213727,-1.01135390149581,1.88853188600364,-1.97252803736712,-0.188920142134939,-0.594670474054003,2.51108553022302,-1.46159672969131,0.743579757612399
"ACCCACTAGGCAAAGA_1",-13.7545022819355,-21.5864918439244,0.636487406041863,1.6651847500722,3.12102425450124,0.785001104937378,-1.92073546086186,-4.91157944915281,3.32050600734384,-2.08237462827674,2.14498774225929,-3.91919401064326,-3.90069505478299,-0.545603969305296,0.079195216024751,1.06925698674079,2.08488415619486,-3.16000000377777,-0.300897370719614,-1.3822367005658,-1.41492767734589,-0.108032067870299,0.661288778433694,0.354253288117118,-0.368929751742738,0.661723192401101,4.62304405554962,-1.83727634729957,-1.14764519230093,2.22309014288914
"ACCCACTCAATGTAAG_1",-11.5671219098349,-19.8327383477487,0.40017337294373,1.95767838328207,1.51498022315489,0.704400630607285,-2.0569558678343,-3.74880587436805,3.04127182770886,-5.94273101068612,2.48210549397656,-3.33323950701327,-3.26191927883729,-2.74305144777175,0.312176280487104,-2.67797559151318,-1.32059895459954,-1.7333575201411,0.774204793708366,-3.31956280308156,0.953581589406571,-0.276032253225704,-0.375352160941985,0.0779488741889938,-0.420093210570145,-0.607076726404017,1.45279810712621,1.36252487253461,1.04070978500526,-0.532066723149372
"ACCCACTTCACATGCA_1",4.55337837351042,6.30927094852868,-6.74235598057662,-0.25538122091888,2.61328013548033,-5.57276535852484,2.28701193477231,4.00998797054768,2.66921091623369,-1.72401085724717,2.14501577183585,-0.740194416151527,0.232136949378675,0.0299451572171372,2.48108353392743,0.747212304943067,0.813601259726896,0.425316858433241,-0.117447096307224,0.839630471098514,0.878074292497849,-1.00797863065737,0.101700300557482,0.457188103300942,1.10985717599247,-0.0180062039427524,1.51052054076162,0.0871151424305493,0.601307484400995,0.149409565815616
"ACCGTAAAGTGGTCCC_1",-19.0239893158102,7.54507654291552,9.92055159207203,-0.903895136092989,-10.738249421711,5.02507512742862,5.97813877383402,1.27332059262428,0.353865310788648,-4.10229313620726,0.460837457323076,2.1876619947823,3.23427181576207,2.80652936137081,-0.184414635048721,-0.430187214978966,-3.07678768491285,0.349732121521802,1.99846382336358,2.80470321640967,1.9248116525133,1.37478887233586,0.588951020906909,-3.57854923951718,3.77770440718732,-3.10937351434259,2.72356264652441,3.52584537960043,-2.52937278502232,0.850399098043024
"ACCGTAACAACTGGCC_1",-17.3222448409913,3.73205686298228,14.4618560541993,0.336571711662941,-11.1254809370091,-11.4045562044274,-9.10239583019818,-5.21000685473278,3.29198756313144,4.16848230760052,-2.62005175340252,1.51003382338612,-2.06367395545398,11.0148492101756,1.17553422012788,12.0490557129533,2.23826950565807,-4.9579488012755,0.649231631670483,2.5787795375965,-1.60339744817894,3.82020559166772,3.54614988194266,4.52807882344846,-2.61769501610257,5.21020674358572,2.52909098275381,-3.90787798948792,-5.47481617389166,4.82090541449451
"ACCGTAACATCGTCGG_1",-16.0009139277291,9.42397708979927,-4.2183818106657,3.97445607699386,5.51814018795536,-2.98525894655796,-5.3316966410049,-0.51770426280033,-2.18271812787341,0.109275194296245,-0.610954014376736,2.37290336080223,-3.34293657648095,1.19804190333498,4.40771417995072,-2.44612829370498,-1.22853630596133,-0.772594536255822,0.625200733930741,-0.719994702585567,4.44337613548495,1.0243468107916,-1.13788690150041,2.02075738937961,2.86784497059493,0.750214097503077,0.491818510630395,3.63492962299404,-0.708493233460904,0.0180585005068368
"ACCGTAAGTGCACCAC_1",-10.0406480408192,7.38524385882544,-6.49927423338414,5.92195366317196,5.60040318018446,-3.61045974902194,0.470666969341427,6.35970265268441,0.197701963436192,-5.50018467162132,0.0418018391274334,0.12721760022764,-1.23923230819017,1.14917433389465,2.88956423829039,0.111974784075375,0.492208925449531,1.90471824926786,1.14878759839171,-0.477369349204309,-1.80084338222478,-0.699266419727671,1.50141889643026,-0.794962659276319,-0.401864113151406,1.02889347140343,1.03934632751775,0.234162738396612,0.810640170543061,-1.05552203281142
"ACCGTAATCAAACCGT_1",-18.4050843572288,10.8654722063748,-7.32082300443739,2.20368118581575,6.07189983716123,1.88030582989207,1.85236776313838,-2.60963625070559,-3.20021012807539,-2.19216194139785,-1.21049767798815,5.32581053605836,-3.25848082063828,-2.44775651739417,-0.46873311961921,-1.97964155558261,-3.19413405383557,1.79775746057784,1.23023307544818,1.39214482105213,1.67256403679172,-1.99248927415147,1.79730833204386,-1.86646184890323,-0.0337910726084421,3.55827598994039,2.41902744797297,-0.242680635275046,1.21663603933119,-0.495096634941696
"ACCGTAATCGCAAACT_1",-14.8448241605983,-18.2576579082274,-0.771531253510699,0.285375371162002,1.58884005921366,-0.472319159506962,-0.0226979641126042,-10.5046241595921,4.02836514393539,-3.10780665198362,0.698823540911172,-9.7759805351215,-3.75644600270291,0.160650362038858,-1.84515213698286,3.64860334307385,1.90472801510949,4.51365845169074,-1.3147161508672,4.66539800201001,0.862388906646609,2.19894264129311,-1.78204742634884,0.979873856934647,-0.227267256874761,0.103575263735706,1.99779953536146,0.0442770933146097,-2.48115796781585,2.53389808740409
"ACCTTTAAGATATACG_1",-11.0510136887586,-22.2111087235131,1.28849056544186,1.79978155426198,1.6903433610807,0.0321816934497144,-6.18259747890032,0.17687928485732,1.00094495749214,-3.29129562195506,6.43882419761207,3.08220186834842,0.319379114079947,-1.41237560541689,-0.62289448092544,-3.85457637120592,-1.59492557943026,-0.533448403727445,0.152278927896207,1.04309236475258,-0.448006895442215,0.793339122067591,-0.189541067270152,-0.687263895444075,-0.926587781897854,0.932133533620284,-2.08142710280499,-0.063279015889704,-0.90194729996804,0.758428591372125
"ACCTTTAAGTCTCAAC_1",-12.4132382800744,1.97290384196314,14.1711779930693,0.419681000915663,-8.71199034104889,-4.82212976663931,-10.5294473089234,0.507064842620342,7.86401531742481,1.94544966285022,-6.88090153119196,3.71113092021489,-3.35701262385999,-1.12315355828058,0.0678375018835222,4.91340685251934,1.40034308782253,0.983637761291996,-1.0736086093349,2.29360400760086,1.86712336682933,0.382434790543581,2.30535094067792,-2.05093132094255,-1.54193841959618,-0.707829793249284,-0.699891990545478,-3.08238676961111,-2.02929386665541,0.355622343914921
"ACCTTTACAGAGTGTG_1",0.581667923264837,6.59056006007702,-7.17028863619716,-2.93310981033086,2.70900208555254,-2.89626522010519,0.57471853858576,2.42809661666551,0.218152950192569,-1.55066546297788,1.39622321583018,-1.86758440594488,-0.548015522285024,-0.51519247622943,3.74639368663609,3.90508927624739,1.66094031619906,-0.764966638249752,1.54995112315798,0.296460912537223,-0.174303538137828,1.13634262043238,-0.882504444167672,-0.68768658110997,1.26366624067622,-0.421131674888122,1.47935420466229,-0.87305435573563,-0.295599526518679,-0.695965088064276
"ACCTTTACATACAGCT_1",-9.46498701518957,-0.0279621927297577,10.9851843779143,1.78054062738811,-9.13226183899661,-9.6948434634646,-3.23557399835975,-0.430220334395431,7.19756109447828,0.588228869779373,-2.65710068618455,3.26748645427098,-0.287947387645122,6.9453391894511,3.63135806756409,3.11440735423067,0.597848719971162,-3.54599816651475,-2.66492675770852,3.07661477569066,0.628010367616128,1.99962944468009,3.34653682567647,0.415754916785849,-1.44393036391772,0.857814688966526,1.92139054265512,2.43567055342662,0.324382536382877,-1.72160215178548
"ACCTTTAGTCTCACCT_1",-12.485313441151,-27.78443469519,3.65129685669404,4.99878180232963,2.53516313701407,-9.10041331987063,-3.82498976151731,2.6042926603136,2.53885373937994,4.89767779983237,3.45400781053786,5.69177048882788,0.910968765084797,-2.0721487466189,-2.27247041918224,-2.0807245490407,2.02365246654709,-6.10511317484064,4.58275121161174,5.47516720002717,-1.69524360270143,2.29200960958899,1.39540065355008,-5.4925268176925,-3.53618820984221,-0.96415272468236,-6.95395329149329,-2.50455043512168,3.45390728497675,-4.0020166484718
"ACCTTTATCTACCAGA_1",-12.5671268272496,-15.2604366779164,4.21551909613837,5.02096397078722,1.06707822312623,2.67084741081392,-2.17040040420845,3.94866041485528,-0.554342440755795,3.95875843935811,8.26694741108437,2.72614408257636,-4.99028611153319,0.482745536806864,-2.62257664566243,3.98369066834579,1.93465137318367,3.01895092764306,0.391791317759275,1.50387953448004,0.776782109564134,-0.793104764944475,-3.32220172767643,4.80771972997364,-0.186961283748634,0.885506240038345,0.176891951382246,1.49419155086199,0.68110704854396,-1.46307475595756
"ACGAGCCCAGATGGGT_1",-12.5926890616659,-15.6330722876041,-2.85026188857917,0.495246934083304,1.65884514618785,0.537731696340307,3.38875091243502,-7.790191586236,5.86299651629595,-5.49625979590483,-2.86334035622843,-8.0833325832054,-2.46082930284574,-1.25037552127103,-0.687387648790821,-0.588632758751399,0.5343406691099,1.15703568093736,-0.532902112401849,1.25305179495397,0.274316927191172,1.16815170159351,-0.381838676921766,2.05664985641351,-1.27783081607213,0.321781412577729,-0.102504568727276,0.13813821147719,0.302174695449348,0.421456790428094
"ACGAGCCCATTACCTT_1",-20.6890804072452,0.87324740480886,-8.58918779777771,9.35339128687596,7.84015215971494,-14.3046363215999,-1.06755532733686,-5.22977704915836,9.09384099727039,7.68592881497745,-0.798651124817051,-1.01153064983086,3.26950221621131,0.891242417695534,-6.53398671924558,-6.80573632452664,-0.665674976954753,4.37011184587802,-8.14821693942837,0.126970644246014,-3.57620370905034,-9.71042595159092,7.08547569089882,8.40118237026366,0.626132764444844,-7.88524101011109,-5.07179655384636,-2.60154054134906,-0.190080124221534,0.763277911119198
"ACGAGGAAGATCTGAA_1",7.7461173698771,1.69932278424134,-2.24021665310223,3.4241793425623,-3.59417367065085,-3.72267850902534,-1.34373675795265,4.88864436791341,1.38160746822434,-2.78002135519673,0.589401548379451,-2.01385540047899,0.501241419513264,1.33663990595828,-0.584961017133105,0.869223878178972,0.0386790116473185,0.0739666017052591,-0.557382390459977,-0.399249714160373,-1.66870757643917,0.493666782420388,1.00451837575191,-0.882593447145259,1.4279292800763,-1.74143632466187,0.403151022844399,-0.917660099720637,-3.8112458459129,-0.394368034172371
"ACGAGGAAGGCACATG_1",-14.2557776337903,-21.1362184448907,3.16394195188851,-0.225010280582665,1.49346900658532,-1.81921568090154,-8.63814589514475,-3.2180440339716,5.20904197291262,0.159525985547682,5.53309814243392,-2.72179375432505,-1.50784410187721,2.16019056964797,-2.12157385255597,2.03635482283837,1.73906344204333,-0.481257817469465,-1.91496294868689,-0.573734234546511,0.0366056099321282,-0.861621290906317,0.810013477277382,0.450556031916415,-1.92658429412679,0.523428942090537,4.31327654678374,-4.64852886698927,-3.53570198711658,1.79620899987099
"ACGAGGAAGTTCCACA_1",3.37666091118783,4.66487135702429,-7.94193815642934,-3.76064226368739,1.06674158736606,-7.46817418269963,-2.24758631344282,3.01722990484765,0.0983037263162576,-2.56626166772015,0.210257646476449,0.978175342476145,-1.77302603154335,0.265924475781678,-0.0787336107536981,2.15632975913561,0.39724792048377,0.0394649755004308,1.95486606825914,0.236704718912344,-1.35934975520903,-2.64335948823127,-0.947075682597475,-2.04884054685708,-1.03357409970544,0.124868153156979,0.858576002960308,0.89571379291458,-1.50598650192353,0.0697936056877174
"ACGAGGACACACCGCA_1",-12.6890516775358,-22.4106829614874,-0.482446601099637,2.64186321530804,1.85563365408183,1.21926338471316,1.87661359158743,-4.59691634865696,2.21009414035573,-3.24219402281431,0.257422903575934,-3.47175032559383,-3.96423788027825,-2.04626982892626,-1.29191299142763,-0.316924447361546,1.07415102885298,-3.75841223175387,0.501971628308634,-2.12505880310692,-0.670414647475172,-1.32779691578187,-0.567332338350858,0.990786013873078,0.163131673363212,0.109961672530371,0.592427131909431,1.51801774138217,1.73979779022137,0.321065367531654
"ACGAGGAGTAAGAGAG_1",-12.8837589609641,-19.2989205836531,1.95451070396153,1.56428072395095,3.60025777673332,6.53137307115776,5.69612925033016,3.8875845432178,1.76706916727106,2.24596394165402,2.8062529538262,-1.13050132458807,-2.8543837678556,1.15624935094589,4.13791676397118,-1.10872395094476,-1.92898470867352,-1.32963179313498,2.53012762642785,1.15535643512182,-0.942486783505906,0.895697392579815,0.238009494966226,-0.531455562181914,-0.435887488765275,-0.0497578274986212,0.95134186166851,0.167550804025058,-1.53947126627588,0.384000104053239
"ACGAGGAGTATATGGA_1",7.7832634457838,4.50721788456037,6.19741247679633,-2.54573664606715,1.75473562412244,-1.88898141686297,-2.17371896656224,4.30491926050779,0.352582015232018,-1.11970064849986,1.26734733848141,-2.55274426814464,-0.823858081855491,-1.05768313837565,-0.683078285197165,1.45005005395456,1.558950721617,1.23688127752424,-1.10741254905356,1.73507482274066,0.379038134648341,0.0558638459787111,0.947626996737259,-1.20963874097291,2.98299359853567,0.671469430769211,-0.578159111692046,0.604612934212436,-1.32778220391653,0.0594916133551043
"ACGAGGATCAGGTTCA_1",-11.1015588982737,6.64623953126519,-4.68521235669349,5.1401636582887,5.1648784994039,-2.08967764470032,0.688400149893971,5.88447669507937,1.96014659689068,-1.15646885370059,0.218707093901456,-1.25105336867655,-0.787637295708185,1.31129368308212,1.16084872196514,0.0718711670116484,4.9100610260875,0.281509788129547,-1.36475593032518,-1.27402584310226,0.843236505683055,-5.29868874545534,1.75264300514761,1.26743657679133,1.90025181915866,-2.85124296392906,1.10706517721322,-1.02397589883437,-2.57556221869205,-1.04548374411512
"ACGATACGTCCGAAGA_1",-9.95818223353924,-19.5523598534624,-1.09526755039468,1.52881035165616,1.73033261486887,-1.23741430169891,1.69756780722818,-4.77466825706916,4.46247384107692,-4.1605266275954,-0.7470538710596,-5.7236466649957,-2.86216294377593,-1.21745101614704,3.09297311085776,-1.58067542696406,-2.36538725525361,-0.743070141443622,1.28528247667291,0.496688578445594,-0.000109213049419709,-0.350228180801426,-0.240621050544973,2.06473164423475,0.778642065708012,1.28007123394347,0.868901315010337,1.92902258687205,1.89035318119064,-0.507900332636561
"ACGATACGTTCGGCAC_1",-17.4773833246839,8.32989725198606,7.40283935313864,0.213355457247682,-9.78987873341636,-1.44039699665704,14.3689628463112,-1.88188340774311,-5.44718069923622,-3.07811508010078,4.65030191581107,0.349161290589279,2.77490234763275,0.78030906708445,-1.31113788448673,-4.06799455886808,-3.21731256678041,2.48434301207707,1.09621883667603,1.74161932718619,3.48288527477418,-0.720715851279398,0.150651396155836,-2.70987059280191,0.803496528772767,-3.26070247428135,0.219496578401673,-0.186749543580536,0.881537353327077,-2.85646047423549
"ACGATGTAGATGCGAC_1",-13.9021385664844,5.63942109263114,8.65676133638958,0.673427081364521,-7.10461434032674,0.594618193633797,2.34565367917188,3.2249887429052,1.52503562714148,-5.15404204736145,-0.496815228608509,1.58239392181204,-0.367278064911511,1.800931478639,0.882706126894689,2.12883637296513,4.15007934683032,0.468429749877307,-1.09242091456727,-0.233919277848126,-0.813126688413844,-0.355824750357229,-0.87039091025007,-0.506538131922135,-0.81799352234856,-0.217337655611019,0.837853670320035,-0.342974770661916,-0.897586804813246,0.091406075113329
"ACGATGTCAACGATCT_1",9.50000995839281,0.153447785133499,-1.65944968899049,4.55741461130625,-1.69261184168557,-0.820978272491802,-3.46908757095083,2.37852721754591,0.627848391819782,-2.7668170712786,0.5746683156419,-0.468116928508163,-0.614611719834726,0.167663183109913,0.250516716151037,2.42680749277569,0.330962489608695,1.43631651726382,1.41957037588774,-0.882981359555327,-0.639398978040387,-0.333210219220172,0.590441850778584,-0.788093936000981,-3.03361730292666,0.317241555650042,-0.18331617300591,-1.09760522487877,0.848052904199751,0.543764564461254
"ACGATGTGTCATGCAT_1",-12.9334748014661,-21.9639482962348,2.90510069644239,1.92711530537767,2.46591264690245,2.11168316548668,-1.63232371519902,2.47554773928552,-0.784837818832595,-0.108676738771667,5.09965694595602,3.55608763099579,-3.19796007720284,-0.492686616452331,-1.55376830368403,0.620562092921772,0.760069154865818,-1.49188574156944,0.16972642831322,-3.15372632259138,0.224120562462808,-0.576304230660221,-1.16997744278821,-1.29089125144063,-0.0866815887701678,1.1719866558109,-0.726435883746486,0.107412729826613,-2.89779247060966,0.123697609452224
"ACGATGTGTCCAGTAT_1",-10.7494235004169,-17.1648535877477,4.1615252862784,8.39115800729475,0.716235741214179,-6.88404993801883,-3.10028407114596,6.2240290098884,1.83183939846447,2.7846670301502,9.82731257522574,0.139508076006333,0.626809767290232,-2.0112135393457,-5.45576560262977,-3.48392567539616,0.243074680668942,-0.326326936547538,2.33458796658633,6.84356130779202,-1.38681048083758,5.42516273523807,-1.14687981009245,5.56574246952236,-2.54056672201077,-0.791406867551427,0.501019814358216,1.20607540520279,2.59407178948875,-1.1323489709339
"ACGCAGCAGGAATTAC_1",-10.5988057970337,-19.1913586157866,-2.40546309218705,1.15824308711501,1.66518321256075,-1.87898490674585,0.703839149300451,-8.92088786841606,5.18447211029269,-4.588153306152,-1.1501243562885,-6.84060260289908,-2.99236029814087,-0.25772876854283,0.0609574597913306,-0.742895333144372,-0.537258803791188,-0.874840078583161,0.555857771328789,-0.396000085402579,0.593515374321913,-0.24230537562469,-0.0239049793896111,0.346082014048688,-0.656834206870323,1.07170509724484,0.544096083406573,-0.619103643117134,1.53202584682538,0.0929807747759747
"ACGCAGCCACGGTTTA_1",-14.3025387965494,4.71838081956959,-5.59345027405606,9.16715357180776,6.7538115795779,-10.8383407374064,2.10236718231383,-0.0944207773763557,3.75627690093446,4.03490352611003,-1.43749888129188,-2.91241526929065,2.37709675526557,2.07878106865473,-4.57177261070324,-4.72629995651657,0.557690674142689,0.363448671703161,-3.6537348291967,-1.24284886414652,-2.61328673569728,5.10570129496644,0.088109303430251,0.778763953664724,0.845369035099567,-3.0420480217356,-2.85741951698285,1.10681205213896,-1.77259255011802,0.228032576473497
"ACGCAGCCAGAAGCAC_1",-22.5993695808857,12.9320622710483,-8.35394744292649,5.05269140594825,7.84341707957506,5.07336401150633,1.25030694804127,-0.613356222925528,-1.24914388875669,3.20770173579457,-1.12160817383765,2.21099358800893,0.0555404458788842,2.93194610404771,4.37923479263228,-0.948778616567832,-0.620855339010875,1.40265023777613,0.429796454227843,1.53202712678221,-5.01134506857777,2.20415713965339,2.93799845931972,-0.262254256243303,0.661256913830071,-0.911390128184141,0.832181756786359,-2.25806052229101,1.58885266287985,-1.10092318132855
"ACGCAGCCAGCCTTGG_1",-11.1492504195385,8.49420034845721,-7.44053992162122,5.13235632356999,7.14027930765668,-3.73411960089732,1.47642585120119,4.26916337344736,2.14862498191824,-3.73697277654662,0.777122080732785,-0.86340855334332,0.628267129438336,3.82252069803136,1.76987018806285,0.933108974810468,1.1515342640811,2.11218323299875,-0.621999728341838,-0.547987634368216,-2.99002979152816,0.789755651849212,0.0299981653331371,-2.52326408483614,0.646086848984103,1.55330627559321,-0.799002935964816,1.36443206043419,-1.95588307244751,0.487372343372731
"ACGCAGCCAGGTTTCA_1",-17.7297246792692,7.51235289862846,9.54063201952564,-1.00105126691087,-11.1601790502834,-1.91536230753167,5.76863013512567,-3.21151054387674,-2.33364488026835,-5.42648802939979,0.299218221858047,1.57410239979336,1.76760795125716,1.11568689184434,-3.95664208911505,-0.217858087248601,1.47511831687433,-1.41198688720021,-1.88702369307922,-2.71120752434424,1.34968489575338,2.44528366507523,-1.16740945975623,-1.91224796942995,-1.34271266861988,-1.17063628321139,2.73595743411961,1.17727103816412,-0.0621142002085983,-1.09683250166502
"ACGCAGCGTCCTGCTT_1",9.89773922452717,0.933092412692934,-1.73074030976406,7.33698746084143,-0.112328001173487,-4.76805928465883,2.65698760523697,7.38544063760073,0.302790743418061,-0.761977562705744,-0.823454321940319,-2.12982521241138,-0.594112063225882,1.50683418137234,-0.68979133199916,-0.626401337906072,-0.188687242453043,-0.312357720801312,-0.601841608504841,0.744489244505194,0.552591117120056,-0.569153859934805,0.220502856879418,0.268523156413914,0.406593498787905,2.5054194440318,0.524729930851298,0.633315539013912,1.07545113823275,0.0445105534007856
"ACGCAGCTCACTTCAT_1",-12.650437173252,-16.4547382605827,0.5450014833533,2.05855899946339,1.49333428288056,3.65018679126684,-2.44835506985365,-0.0771251324509517,4.93365976535269,-4.4963689075645,3.71412332747836,-3.58340733510572,-0.926100578363619,0.309111239910555,1.63428635892308,-3.75131578267587,-2.49728485270849,-1.36744590876221,0.736999987754429,-0.314965767458826,0.52516794814023,1.72167402559882,0.551976887054022,0.904367274331581,-1.22373753438368,0.0444548743676588,0.0600515338444204,2.73004401237927,-2.41348733847729,0.860503179625736
"ACGCAGCTCCACGTGG_1",-9.97746033343546,4.02676751428419,-4.07902781722297,8.9565619966343,5.41234163412859,-9.5087845749582,-0.550357386520674,3.27829798573312,3.23354040825277,-1.2749609576368,-1.98708962372828,-1.87788125267383,0.471430950533749,2.07599108696256,1.71254705171986,-2.27823060934569,2.67937435980166,1.25476458736074,-1.99220133219833,-1.07247810794868,1.67136154597527,-0.194987754560545,-1.26800867640348,1.87607464188926,1.1687311659934,-0.341814798892977,-0.271299043310901,0.882642765743715,-2.04838057075631,1.28631751533567
"ACGCAGCTCTGAAAGA_1",-14.5377122771471,-22.1318737511691,1.11792548726342,-0.0958908378994624,1.65279629122776,2.17218847425895,-0.720554517237842,-3.23840827249924,2.28195932008336,-0.700363112965482,3.10481425234022,-3.39606047256885,-1.64715185039015,1.19748960940968,2.54160652579483,-0.577887396657639,-2.55382525079993,1.44323120570968,0.901591539070763,1.05390521856843,1.01575874509858,0.545309604836208,1.04875373330472,-0.990135372219304,0.00359776308314502,-0.770643747472427,0.222723292356809,-0.139298115601268,-4.06088763632553,2.09901361784171
"ACGCCAGAGCCTCGTG_1",-14.5735543834304,8.34788652693464,-7.38061180482697,6.90061985449204,6.43072147264008,-3.44245489131952,-1.08559073269507,3.45016362625413,-2.91234705423961,-3.24481485676252,-1.97334377979944,0.345168270380753,0.527532325972556,1.44071392505945,0.383708429753457,2.54219747953666,2.85462188384478,0.404939255378233,-1.81262348631396,-0.0395051582204893,-1.43728673248451,0.646505719018907,3.07167633940844,-1.45883817849283,3.16783240955262,-2.09660487786892,-2.92984706011414,-0.0323801910203403,-1.85657006742354,0.712815967039118
"ACGCCAGGTGATAAGT_1",6.84203345164605,4.70915471895822,4.39915493315139,-4.70826245291389,3.33587953387807,-0.0573044366748079,0.104089151370928,1.18098868146192,0.837417586971964,-1.33335016839736,0.716223534918914,-0.873188148984601,-0.713992011189399,-1.27097387905776,0.647886705936888,-0.0564444481477099,1.01055726203103,1.00618114633826,0.0148896241414375,-1.13764161454596,-1.40745229251495,-1.38728834592379,-1.370266575979,-0.559851934219968,-1.05626913142023,2.99639813923922,-1.49038146886517,-1.46467852875816,1.25663947173428,1.22183235590358
"ACGCCAGTCCGGGTGT_1",-8.78743973575586,-19.4836468152662,2.04752137104615,4.18231894921335,1.4858037062958,-4.52172826131748,-2.24645832342121,2.21417856949898,2.21725237731324,-0.705750337316907,6.68428159958544,1.12507702700983,-2.26816427404453,-1.84626902440672,0.207319730505838,-2.14925172697278,0.626149673569599,-1.36861586695523,2.49999008006114,1.6268468214431,0.426631371707674,1.17390735224832,0.199012575770948,1.49405536484208,1.03187525174582,-0.717558306059303,-1.5364296159386,-0.0369972118486452,0.960348917958193,-1.0910862624524
"ACGCCGAGTTAAGACA_1",-10.6709462423553,-21.6013553942804,1.43856031454493,1.32098394261506,1.76019161926422,1.63156774091023,-3.8854892250891,-0.160748452947031,2.21235839591585,-3.61450700280134,4.17124024992999,0.64699864706419,-0.276807369435078,-0.898829135383698,1.44302741832913,-4.01632306935266,-1.19712684753165,-2.2614169619458,0.769244440692414,-0.741389013370806,1.03572477931829,1.68241568431115,0.766064459758127,-1.00971647388249,-0.0526489100225264,-0.515657073333005,-1.39437621542636,0.0837630316672689,-0.686886832620226,0.466330533240666
"ACGCCGAGTTACGACT_1",-14.0316147854845,5.06618140641893,10.9287398473274,0.766434784781419,-7.01845695751231,4.92869944594177,2.52823713658527,6.65651741353069,2.11173546792193,1.41899638736784,-4.78432599049269,3.59684356240596,-3.73619121216727,-3.06577542239197,2.92388440630669,-1.17361844102404,-0.877008997633832,2.02762957830365,0.9037754720274,0.462161500452652,0.315171003404669,1.16735147890692,-0.143728989818006,-1.24005585119159,-0.304538127712899,-0.466629369084709,0.306430123434533,-2.60775768640249,1.15005722752973,-1.69064079705769
"ACGGAGAGTGTCGCTG_1",-17.715661502015,11.5525845271586,-9.85990102424077,1.91346629428907,6.26672641209647,-0.75665321084519,-1.63675464937747,-4.85863695893784,0.508573076678886,-3.81072784960736,0.408925421864582,3.09939057584828,-0.746991981417753,-0.295070257967862,1.51833678089303,-1.79976675705324,-2.48904895214249,2.69741862096682,-0.513116173983144,1.25701873498125,-2.0004881246695,2.13596858339205,0.620295185236199,-0.180860494493128,-1.64419246535712,0.786835277476792,1.45634225883389,1.22706521065554,0.0607429949827856,0.89059250071218
"ACGGAGATCACCGGGT_1",-20.7023818408206,13.3308175734541,-8.74373132854984,2.03683326618094,7.2412243377748,0.367334221722976,-2.46079806344122,-4.99312573370683,-4.63662069852259,-2.00651144314017,-0.68689617018688,1.93777578374621,-2.0213708328055,0.0471370333806196,2.79317918093194,-2.79422788735308,0.0512540816793637,-1.76195579394707,1.95289871210948,-0.843766121418173,5.2190559715002,2.11495768078176,-2.27840592768181,1.42573723049551,-0.969113283598485,0.542775112784638,-0.329049270006265,-1.51499102251057,-0.131230564563438,0.874306936568968
"ACGGAGATCAGAGACG_1",5.23355091427144,2.67481005757164,-0.1706714339412,2.72822218322147,-4.68182058933421,2.09845630676659,-3.15855625233022,3.37850326960206,0.0553946982306961,-1.60531243008392,0.870888498558247,-1.12095821288851,0.265446801936057,1.51738557469434,2.44909067764262,0.685419056240809,0.420281770144033,-0.566753175210493,-2.22646787826374,1.30294171096424,-0.0679198610083855,-2.32531480331479,0.273056042423665,2.32520636376162,-1.13343784844896,-0.989711491677779,-0.0969819110314174,2.21154735385525,-0.393825045137146,1.53535253971473
"ACGGCCACAGCCTTGG_1",-17.6308239969479,8.76714053904375,9.5478112973839,-2.49881229671277,-12.15603065596,-2.96700518054599,4.19300027850152,-6.31589870424443,-2.87160406166962,-5.50557410902549,1.89009253996959,1.5202034459323,2.47330775854126,3.35146683286938,-2.62864089211079,1.0958539248838,1.03535415677855,-2.06770512358708,-0.119914374681322,-2.53661531504393,-1.42157495879807,0.219409674940088,-3.21371830237589,2.82001123038916,-2.64036172808687,3.97264129110088,-0.606863414225694,-1.65489237813854,-0.81061230365226,2.64729609007322
"ACGGCCACATTACCTT_1",-17.3875788455186,4.71461932606611,-3.21330251144403,11.3870477507025,6.43650945460235,-11.0368774709827,-4.74180835932431,2.46061737166138,0.490022994979776,7.50304387047445,-3.947228403419,-4.20123742698656,0.455087320203239,1.34706848255625,-0.597933066062326,-7.94887092825978,-0.827493030987316,-1.66259919463668,-0.50419446790618,-3.53040987770158,5.09482742475782,0.0883803481117725,-2.81413340869035,3.98768495888777,1.48638121928675,-0.846044496317772,-0.460906527062652,0.178624336159987,-1.35089851434503,-1.80752743988795
"ACGGCCATCCGAATGT_1",6.5794466384149,4.72800228329729,5.14448799469535,-4.28466418518562,1.80815701036913,-3.88243551162028,-0.727987240146454,1.79816211821984,1.63242509464879,-1.91507372118745,1.30533505105489,0.227776543198234,-3.08817647152659,1.92274672153957,1.20285327060528,1.42948588961416,1.35566977167759,0.518695105805006,2.1345858701873,-0.262270256115817,0.925398534033127,-2.22826108381037,-0.0665724421855724,-1.66437178678771,0.705514382432005,-0.76582930744434,1.48662511588562,-0.495685141144579,-2.10693533400151,-0.695916402700369
"ACGGGCTCACAGATTC_1",-16.2454775715474,4.6131881224617,11.748531730432,0.805106940537045,-9.05964786355359,5.28573385299214,1.36850097980366,6.76285400773495,5.64621660486793,1.19906687044386,-5.3110108547778,4.11987434542477,-1.31971839548162,-1.21682949346524,3.30245432433096,-0.316722915026516,-2.05841103184392,2.99773334739782,1.60125269973119,4.95075973610644,1.23294323140129,0.678321127208341,0.583874689220724,-1.56596665179288,-1.78881354472093,0.65394944770943,-1.61629574418433,-0.128981709948866,0.782585967484668,0.158218371571304
"ACGGGCTCAGCTCCGA_1",-11.4299162116039,8.85707827508514,-6.19253831153555,6.33524911570346,4.70362201099012,-3.56092989085981,-2.23087040023624,1.19730062680095,-1.33676963467923,-6.24196216366111,1.59001068735231,0.566533750493802,0.162282207192364,-0.0107199667547954,3.02088636721595,0.790409506686912,1.17646629499512,0.929519678170746,-0.323047216574206,-1.17871455476999,-4.4049798029996,-0.544431492132677,-0.788908681551809,0.274294430649645,-1.33615103203148,0.555196093476835,0.813716221313608,0.468059585703382,2.01990735874542,-1.91143379262837
"ACGGGCTCAGGGCATA_1",-17.5222009611035,-29.4391917346352,1.92732848348089,-1.05707203872828,3.39525036387728,10.3145838960229,1.47614011279463,1.16265370461923,2.56854254197772,3.33764915130976,1.74715905596738,3.96375894248051,2.19398077927987,4.22314273395932,0.157403419275229,-2.53093259802688,1.04744130311646,-2.52525587720671,-0.0365706674120436,1.5775953699314,-2.02924224686604,-1.48343241605335,1.88632394946083,-3.13181802258901,-2.17714327128749,0.530734129946085,-1.83534092172114,0.261535396090457,-1.81535472774624,-0.00645028775549057
"ACGGGCTTCGTTTAGG_1",7.8156918996488,3.92509581117056,-1.82335743056315,2.26283281006381,-3.4503003871645,2.00268286526821,0.0143087741143217,4.74885523306493,-0.967395461516735,-4.19466266046141,1.63665194641398,-2.56126141381328,-0.817240633729927,0.934525366668079,-0.229108702001077,-0.597201535180269,1.37879005716431,0.396542566945605,0.427427076280033,0.858084550173896,-0.932751346262834,-0.494340305980125,2.14676270378565,-1.69068400021659,1.35177092862008,-0.45239783825024,-1.72852644737055,-1.94940213433132,1.11791169621943,-0.877042532787498
"ACGGGTCAGTATTGGA_1",-22.3861817486685,14.2638653257982,-10.013902318689,1.94018056501339,7.15090078148897,6.18981009585305,-0.153130608464648,-3.25726038552355,-2.17295744511881,0.498367572598862,-2.17411740243013,1.36308739278762,0.0642532533816441,2.32004086062774,3.18472297238578,-2.92789554295256,0.0223221832607174,-1.31001299626677,3.13824229204323,1.70682197512899,4.30246645122097,1.37914495341425,-2.83028306086646,1.43325192791782,-0.293545296313947,0.268446270932952,-0.916620973059597,-3.12370626523484,2.20993258378755,0.22791468051552
"ACGGGTCCAAAGGAAG_1",-20.2922133313153,10.9837052649289,-9.70009216828924,3.27043433357212,7.58116844006566,-2.01824487175313,-3.32374390342763,-5.83226743944956,-3.46225836603015,-1.19109369387137,-0.463178262441037,3.82877903004482,-2.99174642484004,-0.863127392137532,-0.175296052815399,0.349331030029577,-0.651715764825693,0.64543348789203,-2.67200258711191,-0.813357103643434,-3.92607362432139,1.25608152895049,4.20411443011057,-0.774366054822927,-0.14358634189355,0.865761288872648,0.143116602669141,-0.983488972275558,-0.132388764524138,0.711873708246375
