"","PC_1","PC_2","PC_3","PC_4","PC_5","PC_6","PC_7","PC_8","PC_9","PC_10","PC_11","PC_12","PC_13","PC_14","PC_15","PC_16","PC_17","PC_18","PC_19","PC_20","PC_21","PC_22","PC_23","PC_24","PC_25","PC_26","PC_27","PC_28","PC_29","PC_30"
"cell0_1",7.85908593438943,12.9403895451905,-9.69998435944792,7.95808349949719,4.21400676353825,-4.56017864534011,8.27857101335233,0.0164447937970411,-3.32843927250073,-1.29594251433531,-5.01948766478943,1.96047349982017,-1.36398622961454,-3.62545227898436,0.767548546143919,-2.97026509676115,-1.32784595260637,0.816575989889859,-2.42943332281042,0.322515584389702,0.286719377579837,0.884685714860673,0.693612849236019,1.28059541603646,3.88680329496141,2.02148323943052,-0.335276827432748,2.19161166191319,-3.62427320272642,-2.02986103979453
"cell1_1",-6.55606849106748,5.81611037958542,1.21002428603161,3.45290051030119,2.49587525893782,-3.92217331337063,6.17063296298963,1.06135272492723,0.338370244537846,-1.87843782834392,-5.59854127805889,1.88265397155373,-4.3060056818143,-3.07877041665811,-0.759528151690013,-4.2321823614302,-1.15654397621031,3.02858143913244,-0.636251015664282,-2.03225706568393,-2.30193301648666,0.503315378241502,-2.53715428983495,-0.234146955483405,3.81776689747915,4.64881010460827,1.29324076938635,0.829967297282401,-1.97345048001553,-1.11936599508228
"cell2_1",-22.1171709510605,2.31146818808107,6.35129280573669,4.54324403978642,-2.15238391269853,1.52169490119753,4.12504659838352,-4.21402124960158,-0.486609822984344,2.17332900049188,4.51437197685142,-2.86024082464561,-1.77896446217288,-1.70718362703783,2.47284116364325,-0.0909387842492286,2.76631300326659,2.39397075868504,-0.356608020898209,2.76417848713232,-0.276435588209372,-0.649440073698261,0.13437325211848,-0.988528527830129,1.75415144033554,0.380783375155819,0.681177968925298,0.313995514096665,0.672711107521565,0.136331868426006
"cell3_1",21.0367896345059,-5.48894092888495,11.4683981834473,-0.700742147570009,-1.85631190866526,18.9170752250914,-3.62748626598686,-7.41212434451352,4.80340853961599,2.63918118711493,-0.553888425084632,-6.21842841856209,-2.45813905846391,-6.23538080433772,1.00911273212713,-3.03412303498752,-3.49530794395086,3.24777819081111,-2.11680065833915,0.951195477113771,6.17665384024741,0.707262329798152,-5.15176986580075,-2.41011442814905,-3.72267405497352,7.77651613797815,-4.52878611588072,-7.30984714391364,-1.97490427470896,0.186953248517886
"cell4_1",8.39207997464234,3.31012679960655,-14.7521933114681,10.1990121441051,1.33070190425233,-3.53248301056672,2.21997018582733,3.79178404959909,1.72815513058651,-6.07265556080057,7.56756433096276,4.45218104064388,0.109351535847487,-1.4592452237046,-3.56761666976755,-0.565308231250223,-0.923573058643686,1.68704191253308,-1.92869977010062,0.637323057895341,1.87233054224399,0.0981816264929679,-2.20473688345675,0.456133928325441,-1.99066000322845,2.24641984132287,-0.307312334404517,-0.353963657524046,-0.721999086631244,1.77588368891702
"cell5_1",8.87858197929931,7.74032198047195,-8.03604218149262,8.7817366878966,3.30294791629823,-1.1829020941975,7.47202440397655,4.43521250930024,-2.27094019231755,-3.68813438585059,-5.89169222315705,2.88036697984906,-3.35892297872206,-3.43159597283565,-1.84886707222499,-1.99749108311035,0.773372270627089,3.2071761750627,-0.535168486955444,-0.965139755477341,-0.881644483104419,-0.932573973789609,2.50612929345599,-0.848492890150191,1.28978099668533,-2.05678112697182,-1.47821865619859,1.48205257169939,-1.62345024078464,-0.644683037249763
"cell6_1",6.87202274364648,0.714747785667466,-15.3124535529337,9.49237187711307,3.76064942085732,6.43033322362055,2.36442408638473,-4.75466887923328,2.00708835923802,2.31190331695785,0.783231794036393,-0.369721719046567,-1.11932411067751,2.90000102619552,1.79836714289646,-0.684181876219951,2.61965466299846,1.24091499247876,-0.695470256573777,1.34474136925047,-1.82569016963451,-1.21522308329983,-1.67060497954415,-0.549187997342239,0.658304299027434,-0.704501764817438,-2.25708937150316,-0.888942250841921,-1.34897771045461,1.08889196845203
"cell7_1",-22.9550715747282,-4.5223218409425,3.46601843495679,8.65779562468337,-4.62680874931627,-12.1535945138378,-11.0844653995713,7.84764229534967,-3.78716803027392,2.71251726194367,1.29100153718561,-3.75784745465726,-3.03696277723979,-2.02658210263704,-1.64973083408323,1.44902114872736,1.31551704897764,-0.155092734681686,1.84299212485821,1.48364641194331,0.330326844652831,-0.0347315876191589,0.818091863039198,4.51617452932915,-1.35945175979937,-1.65012892381396,-1.84040138958298,1.19574075303365,0.292159312100205,-1.4598309932993
"cell8_1",-18.0885533605606,0.342591698864157,7.57391505635193,7.0304537455881,-3.52671865886286,-1.67970217778189,1.16560099064085,-4.67425403833487,-2.44969205778197,1.98804793583873,2.64924694907307,0.351933815630091,2.60216707834724,1.20095276795216,-0.618475295119146,2.07911882527987,0.98390855528523,-0.201281829983645,0.903147402656155,-2.58125080688963,-0.0807561622566329,0.999331341212735,-0.293541066856452,3.4710568295111,0.172867086180069,0.572737432223591,0.41167712949951,0.262977299478321,-1.28470586562881,-0.357372401133704
"cell9_1",12.3885722007267,4.55519955290049,1.18166337091286,5.54249452828923,1.80475646150385,-3.02309924806281,7.22167938003414,4.09905419597703,-4.29960836245247,2.26361258366088,0.854862579285033,1.41487988815434,-1.11103670914696,-4.05938799122963,-1.56343587439506,-5.85788810645991,2.86762093413776,-0.722134284190566,-2.32011510186613,-1.92811055477206,0.140158412419412,-2.26584110419219,-5.72899719307487,-3.91974323997636,-0.452103194036575,-0.651376869194059,-2.43789467550423,5.61379874542176,-2.61718382225829,1.26336410923993
"cell10_1",22.3796578760661,5.09039493931104,14.9922332278949,2.7056814682924,0.682061362156861,-4.57495843940541,3.59382996842545,0.146089867872274,-11.9682331865404,-0.51728289161721,-5.48744519233586,0.294578096834696,2.62082999085975,-4.21940206889597,2.11980983735366,1.90808854015447,-1.15312545379242,0.986414228793776,-1.08300586556248,0.360923375521572,2.13684995624914,0.0231967880742772,-2.04618173477763,3.01383231490487,0.459565623306289,2.45693238116507,-1.21115138909425,-2.85438327640689,-1.35402134627731,0.208876471943157
"cell11_1",4.67152927643325,7.74823250157062,-15.6112873315522,8.64446624676672,2.84145872125457,-3.45958745036152,4.29427010351274,3.68743798531671,2.96249730013667,-1.04931177172459,6.43886905503075,1.90331915714877,-0.580632745265261,-2.50360383334093,-2.74396569814139,-0.162034464354763,-3.02944315999876,0.766541054273161,-2.54209675358432,1.62311370582494,2.60054616981153,0.042326889571582,2.82539858420203,-2.7595420529676,-0.558880644167558,-0.414999162617481,-1.92021461048851,-1.20195950095979,-0.120378406598879,1.6248174941344
"cell12_1",4.91231877404953,-3.81133464197782,-17.1064799889035,10.5959048601957,5.36969443535414,5.59526714145545,3.91896272578219,3.21630892431507,5.0350409227025,3.85379748350494,-4.44404943929709,-4.20439924706949,6.7468327438437,2.41345624161094,-0.205136558655743,3.61997833092095,0.599277026174139,1.16364219585269,-0.54050567538321,2.95290478679471,2.17341922247265,0.462998176658459,1.06975727948831,2.47158161983694,-1.04286417236254,0.366434885243139,1.20738084090385,1.06279659689052,1.25677812712511,-0.117528935237258
"cell13_1",15.9846445543743,4.71076727357676,10.6468302536755,4.29945620040208,-0.904981443020016,3.91735592010156,7.98753564415739,2.98816299161729,-2.01826452145216,2.69003034214222,-4.63535031540562,-2.9825966053297,-1.47498881686208,-1.97210141951321,0.535693499450054,-0.274120298207886,-1.81785347545191,4.23072187119356,-3.35616822090756,-1.7819080546054,-1.41809461032291,0.629398796769094,-0.310266531810072,-1.05164853956216,-1.97796876593197,2.9062325612041,0.551221566896549,-8.66099986992854,-0.000422486573470339,3.20743487936382
"cell14_1",18.2247364119673,2.05623379470756,15.457399401584,1.55247761848865,1.43106321493671,-0.829320319817233,2.13000692911172,3.21209543299164,-1.25713154862317,-0.22562569264858,-3.82721978182476,1.15484056758911,2.67811098095571,-3.00688538559907,-2.36432328528424,3.37428711386348,2.80901301964701,2.98538856243967,-3.27325167979114,-1.30572897863056,-2.24462628492866,-0.21919854428473,-4.5870599987855,-2.25009879886377,-2.83901575039131,0.15296125673598,1.83066631695316,-2.50390251287252,-2.98035111215446,1.18890487229383
"cell15_1",4.54080410703457,4.33105458774773,-13.5001762505882,9.86350478850904,2.10081744493983,-2.85882376507563,6.37477964866937,5.26766377255059,1.83252888848743,-6.79776447396126,2.30555895306332,4.53586060612969,0.367926423078216,-3.67420118164866,-3.00760384049377,-0.308203999822048,-0.604657161869638,2.68564873025353,-1.84196773115125,3.73530885701961,1.61701457826809,0.34958893037271,0.98307167522594,-1.37086045874748,-1.873548710137,0.912483986073963,-0.806057000960174,0.643724999153862,0.873000006576774,-0.474051569095647
"cell16_1",29.0754862936128,-2.41177252107222,16.32640498084,-1.81329356967227,-0.966517039123969,-4.72640411954288,2.27844548351597,4.42200438856009,1.0735952256844,1.87146369600779,0.997658621647509,2.50998000927201,-2.28824687317178,1.93616278992026,-1.59629325192353,-2.27601749858773,-0.285888679660234,-1.73210444605205,0.888239099330088,1.51334802363342,-2.93836961406522,0.346303894684126,-0.0102344168258489,-2.49881650977243,-1.34864002130918,-1.28772609718897,-0.357260720719252,-1.07989007981004,-0.33122574919392,0.937461129129407
"cell17_1",-19.2059834047094,10.8183282974698,6.04862356195486,4.83533808059808,1.20184453956305,-3.40610913609179,-4.27818284300003,-5.74114333983076,3.14428974448083,-0.903175212978457,-6.20615874578812,-1.57981027986651,2.33546429614796,-0.787653905672461,-2.68221286322893,3.63528826136612,-1.10830363225632,-0.820313680273617,-1.38277881813658,-0.504147428585151,1.48187379623364,2.56175199876647,4.50808507263261,1.1143883249915,1.88388814963148,-1.07823247350383,1.02662490146047,0.677283003835023,1.64514072600814,-0.220226284756106
"cell18_1",-27.9059061978628,-1.7088835920941,8.48219816724221,7.88068263611798,-3.18991724767972,-6.01022313769755,2.38205434339592,7.55671248937696,1.01431720024521,3.24327214065666,4.24232373945357,-3.93538483000529,1.70790576656067,2.34724042369655,-1.42898609170493,-3.70950744755743,-1.19914034658882,-0.566545160690866,-0.0282302852293183,-4.61977401057715,-1.35875139809673,-5.1539073241829,-6.15690421029458,0.675177189308116,-0.827500790281787,4.88503349514609,-0.00378180336606895,0.975846989040209,-1.3999388464483,-0.112584213494124
"cell19_1",-1.00017181055068,-2.75435950056133,-12.7509435367676,9.10307086984036,1.69138402808276,-0.646898183391765,7.79841055674633,4.72346475849184,3.08622614869198,-4.89856913809569,0.0699805867265376,4.345706977856,5.35314628421587,-1.40767275335236,-5.24720203016253,-1.40299776409768,-1.50931206887701,-0.13304180956196,-0.329869044894085,1.71231394810184,2.88811003883084,-0.362671455763556,1.74840318941025,0.0357276005362801,-0.0610266017727047,-0.118938742253471,-1.52715505424653,0.682720210671963,0.526803433171842,2.2291536263591
"cell20_1",6.26213357911026,3.97400083538324,-7.8916525471396,10.9394739151917,2.92193087968558,-1.25578447333544,8.17252259195425,0.352019731956583,-5.62174960704978,-3.78911725952305,-7.39515281395818,1.84281436727957,-4.46102367100529,-4.9558432626139,-1.23351275524271,-1.88062806767883,2.03653819619535,6.4101568066265,-5.05884441097819,-3.99253162147709,4.48664276361727,-2.44229016694026,2.88681331116735,-0.304364144875259,-0.66791359677793,5.98557816486376,-1.58023298733672,-3.12058429112862,-0.23075171078063,6.72788624461735
"cell21_1",20.4142630516674,-2.39141732425457,11.3812140460087,0.925967200987606,-0.957220800399451,-1.98630751608583,1.71298178095795,2.39304408201368,1.4695199342206,-0.859381016227618,-0.0827956421926811,0.746865155907227,-0.0678106201913947,2.12290486850653,1.12194118956013,2.36347773361761,-2.43550894585127,-2.42722601419824,-3.76003289816734,0.654501633581544,3.80137176080997,-2.00190310723625,-1.26991988813927,0.21436583283349,-0.160845593226656,-1.76786162221108,1.24394454745245,-0.76284669331738,0.835755629481246,-1.30769750034699
"cell22_1",2.43630267933625,-10.2053457752717,-14.0682745260474,11.8189032174639,0.675170674288508,-6.07252213541535,-7.56235853244776,6.44241904584337,-0.932071315571713,-5.00589062066525,3.45734822323444,-7.82743912533512,-5.83231765334357,1.03179329537258,-0.915648817704093,0.298479895937914,-0.117570177867713,-1.53470058527505,3.34334525094958,1.37035331076334,-1.6172614024334,0.242638593211776,-2.28035321035185,-2.52136848385905,-3.06193162480978,-4.54414644409376,3.01057166482148,0.931973641640802,1.48651897370404,-0.974437166537486
"cell23_1",0.658310483368707,4.06938292534268,-8.75363392408145,9.28116534502436,0.543709697243192,1.35242887802487,7.17367720733604,0.832832401906503,-7.61449897993008,-5.4605999543895,4.04729748623564,4.94969727933475,0.769868354013391,-0.9761651347633,-1.26767836810604,-0.795671077212836,-2.53587974257181,-1.68785958724639,-1.64815327684635,-0.53896723751423,1.64951083051566,0.615162839312619,0.0637168495556151,-1.60867598412501,0.252925566538927,1.25504159029682,-0.690573565696636,1.67056118901015,-0.917925597100519,-1.40092050455198
"cell24_1",6.92959737831664,7.06020713213019,-10.9925936832846,8.03300475544345,-0.368330302805579,-2.9764547282858,4.01567982969784,-2.36179864701923,-3.42135393977113,-3.57537051748197,6.02845829934532,11.195295547412,-2.33169672661465,-3.23124840335422,-1.93539773097962,-1.71009884609685,0.433001950218025,-2.05515352915948,0.152412494842733,-0.529967434354459,0.135596567790684,-0.875625141981452,-0.12970572052358,-0.948826100423743,2.84519530292689,1.83825485468117,-0.454703939206348,0.852667911811001,-2.4430885674558,-0.104795787423744
"cell25_1",18.5844150568524,12.0373838404338,10.9636811659156,3.41367659493884,5.05040291538533,-1.39122502543076,5.30120724883352,4.24162478136017,-6.50178048143295,-4.98983037646395,-6.75986167934035,-6.25062313773822,-6.1914601607258,0.753197562473362,-0.465481579067972,0.233659024691235,-5.27866890772985,3.55580612353346,0.298280148142257,0.505865717180945,1.64088805575504,1.88670336692479,1.93248423808518,-3.57253959436416,-1.0775807022973,-0.146075368285038,2.03967305265302,-1.97282134233862,6.06638603677243,-4.240633656387
"cell26_1",25.3908263729019,-2.88464466245839,16.4687416637368,-1.03399505415372,-0.973126515155914,-1.43720926069032,0.318415471568716,2.05710281309902,2.1418984172362,1.43597541086579,3.58099611263719,0.179904639773666,1.28272757421921,1.84364113482569,-1.3989830791473,-2.39799704444711,0.918945420768324,-0.624289438012848,-1.48719218475008,2.61382258579577,-1.12690424163731,1.65941816738195,-1.36537034424905,-1.74670545013004,-2.13481815857202,-1.79691741579362,-1.76767342140748,-0.0693929299744355,0.641933415336841,1.72037503442875
"cell27_1",6.81230287720323,6.76593456476506,-4.01293902395075,5.55703238835087,4.79594113222784,1.83196421984455,7.38672060930227,-3.06718066499681,-1.50850009620789,-1.07245256340092,-5.55709385379604,2.77390223977981,-2.15447795624496,-1.83808717089405,-0.182591505059037,-1.28725081254771,5.02143182368915,8.08391138441841,-0.923878676048261,-3.13649843301247,-2.56199432028694,1.75020728399947,-1.37278297980299,-1.50781212310667,-2.34134659218806,-2.44243239618885,2.5590200379455,-1.4597641212369,-3.36288136961121,-1.53695685141363
"cell28_1",26.8739312465268,4.2606528256043,17.1427109216828,-1.98488831281787,-0.834756974790479,-4.95545581391881,-0.74520894448473,2.27252240096124,0.875625179182784,1.39609048462197,0.307820455803274,-2.83921929723651,-3.3942503285108,0.746494911848129,-0.934405801835554,-0.604394681825935,-2.41182889857933,-1.44093541861234,0.0661011546826363,3.58108892869592,-2.77191479304178,1.50129063701813,-0.454647657697023,-0.622521098679318,0.581934483742451,0.356812128545249,-0.904045471072675,-1.68540676413663,2.41246619325745,-0.0499007070266958
"cell29_1",23.8796052034698,-7.25010113136169,12.618387380955,-0.229050379140509,-3.8534997767958,-2.40373288047587,1.93094476225802,1.00410197593733,4.13167949402086,2.12395132699917,-1.20643250793442,2.56755734850876,2.83494121729797,-0.345314624367978,-0.329325604540313,-1.11101924277629,-0.83101946443544,-0.081730025224374,0.796568745530753,0.890536810330366,-1.86752926063486,1.21423935362738,-0.686776399260025,0.427807582189797,0.559999952324241,1.4577373925347,0.759793227286392,-2.29019126114251,1.34343980780328,1.03091190965681
"cell30_1",8.42974352710731,9.40990628562497,-8.26751484306038,8.15456265670553,5.42379960730611,-4.03121454375329,3.44547354925186,1.10276614148487,-1.9976117040634,-1.18642138530202,-4.2265328497884,3.32464484104424,-2.08000128332826,-5.00640436202533,0.0151368891942056,-4.93608788478408,2.84067201277954,3.16104948449142,-3.45251580068807,2.3449298420405,2.97456727695086,-0.0501331086659636,1.62318506704504,2.28914925956307,-1.03474232437771,-0.587776655067901,0.869380398872399,0.694475820878929,1.75348692045663,-0.441384717681082
"cell31_1",9.2229153777777,12.0372323459272,-9.05738820078463,10.89889649983,5.07527488860204,-0.15068050894451,8.55287237453987,1.28181144085141,-3.30189668443457,-3.71355083037311,-5.32704344507285,-0.327634267089635,-4.06133968092747,-4.49292443400571,-0.0244554528466075,-1.20667989670567,0.0386050375144724,3.85666427207836,-1.88356017936931,-1.92067007972013,1.3834022856514,-1.70577492781181,5.50602758333547,-1.2062394503606,0.0836919501640192,-3.21542086920703,-0.116102462428004,-0.214979455758461,-3.94062103888994,6.00935581357655
"cell32_1",5.58457997476408,6.99544248449293,-11.5700975509872,9.51559360562375,1.44900872909164,-3.50843568305271,5.01654613089163,-0.4776591148497,-7.26126865694221,-4.21989934594373,5.65037547361402,8.39108040774225,-0.346549195461695,-2.15803402478421,-0.973628220478445,-0.448664596941053,0.00264353441951242,-2.20643785467336,-1.51462672112934,0.800440330534306,1.5988042684013,-0.938468850389472,0.220640495149014,-0.510330578265011,1.88839703728424,1.97160899374953,-1.04143972132319,1.36958045506578,-2.66767107808366,-1.03480296312245
"cell33_1",4.92382821478692,-31.7039640971661,-3.98808814752024,5.56523572811232,-6.11135336592006,-4.91657529475258,-7.20058191904177,1.8666552679418,-1.35044117648122,-1.9411606653254,-1.14807678592782,-3.56615552294245,-0.931696329513356,-4.20423998854401,1.16037526890311,0.11426350556672,0.621734721573478,-0.310213977654734,1.0935168182768,0.315829029326403,0.993266402843329,-1.59401612417872,1.62721495244505,-1.38702551963067,-1.41120879820427,-0.659133747310563,0.656081532367221,-0.759504360010305,-1.67525998517643,0.663987725999951
"cell34_1",15.3020772761965,8.08259816936546,9.03148284073727,3.30986020305076,3.0903894725098,0.717849830105486,2.15850685525347,1.71324496643192,-2.69877469437776,-2.91618823003213,-0.242282023256756,-2.89412082469939,1.14236011732946,-5.19662031818967,-0.00586301569692996,1.39023354376381,-0.566386761611705,-1.49697137205588,6.3617677040161,-2.40273215079582,3.53691387289856,-3.5485602496662,7.32076125119575,0.936335438593673,4.32433703302677,-0.825344980427283,-4.58416173438946,1.01418865575489,1.89175822452308,-1.47933337561961
"cell35_1",20.7117938639113,4.71574647323694,12.7735927057247,0.824211374207168,0.802127802327781,-0.425170179955957,-1.24793781544581,-2.35334972348733,-4.05515288175048,1.61573782248899,1.30714346830795,0.23269271618893,1.23542856378302,-0.463754851397669,1.33780951562015,1.09641818618771,-3.38255057786917,-1.8937308359035,-1.35627444190896,0.809990617975159,1.47256236572197,0.00631480662215454,-1.03304310867277,-0.596867377050893,2.03966775239392,-0.574248956606813,-0.0216327957101991,2.29752962083743,0.322615351152146,0.00685001740236463
"cell36_1",26.3928656041943,16.9781973831373,17.2389043417534,2.17388375622649,1.23229570084113,0.611316226156497,0.348678218848035,4.63941558705012,-0.970029532061095,1.23486084655455,-3.00017890265078,-3.93654801909881,-3.55156129262262,-2.50016626918398,2.89842494208483,-0.555207782264823,0.0358181624505696,2.8028059761244,1.02214239920429,-0.719515986094559,0.938508457222602,-0.74270085594717,0.451821374186152,1.09717965589064,1.48538374684464,-1.34535896894162,0.500648541015419,0.448656578498397,2.2087246484189,0.767382909158256
"cell37_1",-20.3436609657361,8.76228069881188,8.14008658237175,5.33118316520596,-1.47882526424734,-6.37593481009666,-3.66463653336534,-4.00359899744922,5.70335181594525,2.86213649216342,-0.5824092901118,-0.279663806286542,-0.838308366132466,-1.07150184792135,-7.49310246152612,1.68927552194251,-2.46471379769361,-3.23097460419217,0.0631122652604761,-1.31753493219641,1.44637715629244,2.57694449717673,1.82606982679116,1.37170591530328,2.51135358523164,-1.05849484190204,-0.281539550601431,-1.28457985886638,0.528554827785645,0.321075619318262
"cell38_1",17.83155096586,5.93083870366544,8.82293178504625,3.50817145546718,4.75456205484579,-1.91505380848792,6.14736351239663,1.74349236357574,-3.44324707890876,-2.50932571466732,-2.98775312438612,0.590890665291869,-2.7012077722117,-0.94366313933649,-1.20842777117196,-5.34746203091917,0.487719325886381,0.403588634858178,2.59949426255106,0.737390108747783,-2.04515104833052,4.49410700727042,2.1109464825922,-4.16801010060524,2.68588029798871,-3.28165263222881,-1.39836591473199,5.18173604888913,1.5596185404077,1.46599604387889
"cell39_1",23.6292475809328,-0.368517657211744,12.1542074057486,-0.391225727646897,-0.709802847322167,-0.68762097989602,-0.646281474759859,-0.718071579224125,0.439864515528882,2.87937525163891,1.1182598659261,1.09943445064049,0.0613806663212821,0.15473778660744,0.733696343993772,1.80612326318545,-4.07688145613341,-1.84349458597004,-2.29810522966246,0.712831627809927,1.0723648577395,-0.822169245502956,-1.08096633066869,-0.495346396001372,0.842331037024318,0.429861051187519,1.38427114406541,0.121726204574004,0.795923253630948,-0.0805440438841033
"cell40_1",4.02004079404344,0.234118834335566,-14.0920430629501,9.25690921635463,5.54322970539872,2.09752535344623,3.78092380736791,3.50296273271314,0.864559713812688,1.58392192186193,-1.2556711284347,-0.734505980550322,3.07653024663477,4.27016989895409,-2.36894589871206,1.34742933534136,1.51906819390953,2.23019577933869,-4.72349570043324,3.56083132683836,-1.35308931189385,-3.06365418114699,-2.10242677237578,-0.0255865766250061,-0.984717915289916,-0.889312950684919,-0.372505136632858,-0.480469840002799,-1.07701117120336,1.1026221359406
"cell41_1",8.36129959304083,8.67105484094706,-11.6846591234509,8.10137582246161,1.18512987413364,-4.84666927351127,4.26309398481426,-1.53308564807726,-6.66163110881257,-6.6847995639581,4.81815733446873,8.75381020028814,-2.12696716986545,-2.72193521915164,-1.65912611080936,-1.63720187352745,0.672721999061851,-3.83494431104637,0.229933460025936,-0.0256835988455965,1.29063820762785,-0.843929344637548,-1.30401236085553,0.034166557055923,2.61348104318359,1.2439189973977,-1.4202039696748,1.24186942420355,-2.88754650797684,-1.92414214433486
"cell42_1",2.67839140236537,9.10117414924381,-3.20186856236636,9.81090661803497,3.53147728893513,-3.4049087449637,8.06823489740141,2.31792614843015,-13.2537405231186,-5.40775287581469,0.00672625830711576,0.137003435325298,-4.67165445368167,-2.06010236686573,-3.04524393963687,0.952386677558696,-4.78792080041041,-1.69288927793725,-4.14023214976095,-1.28062164998221,3.95852642848133,2.43685142996462,4.30483517893325,1.89570464022964,6.07755143783954,5.01708859695331,-0.626885764121671,1.53077151069891,-1.65067483669681,4.21555093174649
"cell43_1",9.36399152267449,-3.02585336500177,-10.1565524876217,5.39468644204947,3.66359008081766,-1.23257895991051,4.4396750800547,2.05215702277183,3.85644617134182,2.81665374578648,-9.36892858877543,-1.86745738870857,2.01205487043814,5.96220319862139,-2.76371551901147,-4.85357441612583,4.23131123899479,-2.02117633079672,2.7119361295638,0.881887340825834,0.715839763967773,-1.5923219338639,-3.86057959531622,-4.74272972912052,-1.94260291912622,-1.29443061823103,-3.73204598914032,-6.04663565472804,2.19493071966399,0.606804345264011
"cell44_1",-19.231882502757,7.50889084085363,6.05623289600585,5.12492146506077,-3.18800665864335,-5.08322256839562,1.82945554064863,-2.76536243538315,3.99285573901981,1.6662614967118,5.41747899409046,-0.215585701419972,-1.51591823667383,1.00427078547824,0.319306191138726,1.12667916721183,-1.56831825539512,1.33854330160564,-0.845672845670956,-0.573977694894792,-0.308889632052489,-0.951265510538277,1.31174807611838,1.59518001309479,1.20762202937857,-0.431126424156366,1.24081832386998,-1.32852896789783,0.606344910064343,0.741956061120693
"cell45_1",25.6147996252386,3.05816543940119,14.7521667005515,-0.434098606241667,-2.71112197923221,-1.13070704410637,-2.08245644477674,-0.568413749236347,-3.17035574661758,3.72302466313475,3.23157630910181,4.06503285772541,-0.32727301490223,0.757057120478927,0.24658559217544,0.274452071507954,-1.15579395260629,-1.17146588159675,-0.22771796327261,0.158634927799025,-2.90001759295559,0.199722603184058,-0.323233111168389,-0.756027613443617,0.230286589416765,-1.30009454548678,0.594349877291739,0.954042916842965,-1.5197444119527,0.67408730809069
"cell46_1",25.9183310019441,1.4762417331283,12.3569175044167,-0.0459766366609944,-1.76649614222729,-4.71010972379931,-2.04172673398969,-0.41436004612953,-2.31355352023293,1.45034577885748,2.69204527661918,2.49194222276141,-0.219929783879668,0.673836304504927,0.145453923634255,0.317693130963784,0.00341539563766171,-1.06057282635306,0.752604905279629,2.45894351968287,-3.72867677829859,1.48884460441997,-2.22779844498924,1.33817997423958,1.95168298837651,0.0208569376514359,0.276926858774607,-1.31147070595337,0.047168705432175,-0.714316675895626
"cell47_1",17.2577580320931,14.7754719615374,10.0275906817597,1.45731898301631,6.00539140588697,2.75099699436371,2.10498817705321,-1.55937131492011,-3.0728962153214,-1.59978813661923,-1.8711650419198,-8.5341507300869,-4.75869636903714,-10.5581800486317,0.430555429767036,-7.21896805908082,1.14820156056457,-1.28810222631098,-3.82476472717491,-0.382893373637846,-4.24855963333056,1.86346774760576,0.429227552715787,4.45695907413327,1.45796982631527,-1.91128636797691,-10.6441032667304,15.388669810117,11.4451748975778,0.634688953537363
"cell48_1",8.78436348305544,6.43080167588724,-11.3535259782765,7.02573444338858,-0.935973705477614,-3.38737217005952,5.02971400988895,0.623373543725434,0.0497427565282717,-4.45249277528802,8.54983405163896,7.63162918843646,-6.91117449228326,-2.78667191245267,-1.38633420149599,-3.88764097454176,0.893124324667583,-3.12422578777064,2.46318229100327,-0.54015355861436,0.796798881501549,-0.106301893903297,-0.276618858109031,-2.11141066144907,1.1976544641293,0.481172861973277,-0.746137387219549,0.550152560120873,-0.10610950243425,0.616970894236822
"cell49_1",7.97438092099089,17.8684810996441,-12.4262406878154,11.2736289316434,5.4880453226206,-3.92479091556804,6.49739696143096,4.34030413320126,-2.76793235722515,-2.57078239576221,-4.97878312059542,0.568414413577378,-3.2828194090563,-2.08608284760702,0.0700350985529044,-2.62614436691963,-1.3135770121719,3.00000071014663,-1.05979457468036,-1.14432899502419,-0.307282839909326,0.572864765991218,2.28156259230532,0.896937126977162,-0.205635432909703,-1.00241396248185,-0.524424073114345,1.5935452795982,-0.873044422073446,1.79947342544788
"cell50_1",19.8761704641556,29.642621048608,7.16006792301096,5.02627664305387,6.73740715551887,2.20232571998881,-0.748862537037752,3.93116459879067,-7.98723807297322,-6.72783810785274,4.82987486892082,-5.64102331970136,-2.0502532219571,-1.17519706013662,-5.07668934726204,3.94916371940811,-1.36817361635796,-2.85197120733617,0.885906401670745,-0.110147355504609,-5.39686532876471,-3.38867580677396,1.4292627487263,3.14441559520831,-1.14809224085117,3.1413449416296,-3.55166226111536,3.5403436061162,1.40304669197551,2.00026421118489
"cell51_1",-16.1822549067545,3.54948863268774,4.61124179784326,4.90680374268291,0.210740468514616,-3.60973158420349,-2.03596638024406,-3.80115916843825,6.12570829784166,2.51581964886678,-1.0899422105063,-2.33035080877094,0.470867410657446,-0.0706636581450057,-3.56714578691766,1.70299764663773,-1.69864499292027,0.249174022302109,1.42062759289843,0.826178203955609,2.67595252393475,3.57467595310104,4.75990140518259,1.94722468895144,1.52178488201856,0.118696978907361,1.14737326226646,-3.03497730172069,1.89321046845864,-3.01407457445303
"cell52_1",25.1758626854647,-5.14491744035423,16.4905155123728,-0.364251032646712,-1.72799547033277,-3.17151076013721,3.01967203573931,0.910647389372067,-0.183805541141865,-2.95446668218232,-0.0586888673153131,-1.60833064113074,-0.500888571063494,0.00730741652220708,1.16515904865673,0.611526494850022,-0.380146476413005,-0.341964852814321,-0.409579504498039,2.6567497381993,3.6979553819117,-0.809909418240237,-2.81814083316624,0.0166790095872561,-1.1825059363775,-1.94559059423531,-1.40693129609924,-0.849255716242598,1.11383625858159,-1.91955459559679
"cell53_1",20.2542681297212,2.70628328511107,12.0254381883215,1.5643020990759,1.57614311348102,1.0862284876005,4.46238891440276,1.19530054728834,-1.49042063043564,4.3174135373236,-6.82090839911439,-1.21301093558585,-1.06877233662584,-5.1759636106974,0.252822488789723,-2.92739450630761,2.00266565075476,4.76761512306821,3.4579374367804,-2.17825683881621,-4.16948814592913,-1.40032139861238,1.37408036908686,-3.82691326100245,12.6879489008803,-7.46105093976819,2.86517036165324,2.70137035873607,-4.08613514199362,7.93161518323961
"cell54_1",-24.2782270175901,3.18175752162984,7.72969201368266,10.2360968798553,-3.30642312556126,-2.41304814837196,0.94920056188658,-2.55590030268214,-7.045210210542,3.47322663181771,3.99085498786109,-3.6910254297949,8.23107744805294,-0.837135966494755,4.23603126321598,0.0169123042745501,-2.61368949416484,-0.104799110845537,0.613674885275877,-2.76680470946672,0.552444956429448,-2.27692587109571,1.97056913557963,0.892544652292275,0.399230969487282,2.97186277538678,0.916975268376911,0.894160137996306,-0.121165122236554,0.00975796185103059
"cell55_1",14.2931253420216,4.80228044095136,6.94548809696071,7.72312144255526,-0.0866717019919364,6.44823940168196,4.28502522863526,2.09332543710991,-4.29914555370712,2.78079900601135,-4.50458048636155,3.0070286453451,1.63426715963482,-1.29280173153439,3.45444304686017,2.56721995249641,-1.04383275634788,0.915639760751396,2.66892842567037,-5.44714024540936,3.8309729355666,0.150578395282417,-0.686049927117928,5.26369649788731,-1.77453803235751,8.7364046139337,6.32524357126043,1.1815891039836,8.30197692997868,-4.71143291138585
"cell56_1",24.7257286794326,15.2817364933822,17.1040626878903,1.61600499703534,1.64936288276223,0.722309035778872,0.691012328064861,2.98007852353564,-2.79176781649904,1.68323685560082,-2.6634346327904,-1.58044527108734,-3.31361778438902,-1.56043523146831,1.88853744045627,1.13853896705791,-2.04511755347839,2.50511054786069,1.23916413483819,-1.31212548034054,-0.690140909216535,-0.996451751650181,-1.15233130458964,1.3183429017153,0.587366701685347,-2.54418741193785,1.14111567473421,1.25674868935973,1.3797351396907,0.0870906607771968
"cell57_1",-19.8787251173158,-1.37179473893902,7.58742524428549,4.5594765312393,-2.40971955436433,-0.121827003870125,3.24359001994318,-4.23252525107521,-4.5035798319796,3.66869570471972,4.30126803520394,-0.800773459627193,0.444448606838759,2.15768259774318,-2.42709279910663,1.62698541199633,0.725638951366085,-0.667703733757339,-0.924296431118121,-1.23379326768752,-0.313465207616083,0.463871147757907,0.743081772764868,2.1232591228815,0.870795994959349,-0.569639315794079,0.801591923639577,-1.11284447831281,-1.28386749591598,-0.146574841515545
"cell58_1",23.9410324802413,-1.80070881853616,11.9543560166931,-0.180029695892374,-2.8724842524338,-1.0086245062348,-2.34367678618561,-5.76681123245854,-4.07852063438006,1.62202131421987,4.07318020359871,2.489675320178,0.801930713921383,-1.89428044122665,2.22949291664756,1.63701626279745,-0.648023966398943,-1.83579386741157,-1.03801138241624,1.51149496436244,0.739785308051793,-0.730592904486054,-0.993576418376358,-0.615157000206225,3.29003934672936,-0.0172920315138184,-0.534064828125873,0.697937289323334,-0.661891203293732,-0.775461350005879
"cell59_1",19.4160162119674,9.85600767389059,5.23314882246842,0.336617893669809,2.36930178879608,0.726421510450887,6.7359483612499,5.50041437526977,-7.99040551951656,0.383757238051818,-6.6408897744714,-4.54541850247837,-5.25489988377418,-1.00797451706822,3.74653008078775,-5.15267328494184,-3.96280322964749,-0.19763427453431,3.49796533520986,-6.36040961149168,-0.14446681213138,-0.286256746313801,2.43867696734521,5.36604772275174,2.77629939344833,-3.67111411318159,-0.563453567107766,7.86822329749428,-2.34416546368216,3.40237542405651
"cell60_1",20.2954633000398,-12.1233709385107,13.1418054597099,2.14019850629835,-0.498238451077892,2.42265446969401,4.53181444054425,5.06808072258092,2.3906786492526,0.121506701246924,-3.66804310366219,1.08200281142319,6.833204435018,1.86689692145186,-3.43236903740843,-0.725199254466892,0.369650524676015,1.75244815421876,-3.61908853939066,-0.885099111606453,-1.38071848129298,0.550087542259299,0.52419620667214,-0.849943153050398,-2.34911428176872,1.16733469995832,0.58751238540877,2.01216631605735,-0.304428882433963,0.543685461495045
"cell61_1",-18.0652419446685,-3.08187455089021,6.33115164295514,8.4819485616177,-3.0046587635856,-0.460823231091167,3.18552475546771,-2.72493165725907,1.29033787410891,5.33549298790264,1.49859496516909,-0.601144781373557,2.24276967069217,2.49723588485287,-6.19948961727058,0.74370677064753,2.86339376832286,-0.508545347585399,-1.06225408349774,-1.89906666781616,2.42303883260771,3.81101670757682,1.6528495922909,1.81028274508795,-0.272345939574125,-1.14747703327872,-0.00178895125624039,-1.85208977734664,0.393623795616958,0.352376663579401
"cell62_1",20.8216664969176,5.07836234658353,11.9345916417063,3.29739939058052,2.66384752158067,-0.160703917976407,5.16167427656412,2.19506021322803,-2.78804088351112,2.8740237228403,-7.75933804066267,2.55958358639129,-2.98856388049431,-0.4178165229526,1.95631221537093,-1.59074073412918,1.00864868796365,2.67280816278707,3.27106841239709,-4.0453023714001,-3.15286025947245,0.038029301344511,-3.10044521487736,0.0321576338178298,2.54228657258281,1.44754762080632,1.89923831755613,-2.13078476131379,-4.7304760091352,-0.306519223045984
"cell63_1",17.2201787640974,6.46243800196268,-21.1471828825095,10.1082832189445,5.53109019793662,-4.24094633404695,-4.54555262039475,-4.57078787873106,0.377232605604449,5.44856076904735,-0.582174670642531,-0.0195423520279455,0.422614339608859,5.00091339146098,1.29284972632985,-1.67965499965616,0.602368715261863,-1.37103116857817,-0.989903568051584,0.731232336438471,-0.786015781620002,-2.20389296242593,0.361125385482103,-2.4570240658235,0.801688158901925,-0.206421443627435,-0.998252904463945,-0.665436904270316,-0.709617057882552,-1.21158172302402
"cell64_1",-20.5385956732612,13.2006783241443,7.26555742906771,6.28025644896972,-1.61907921241681,-9.19489045031615,-4.40883259982643,-3.6915508505356,4.34577881305011,1.15694360096419,-1.02071066849869,-2.61133294978522,4.22532126604049,-2.74671416999346,-1.56332981198519,0.81871921575521,-0.0869792756625045,0.418743454870147,1.00274303807871,-0.332477095275675,1.29183025093481,0.486837418954417,0.78978560094651,-0.467085927778944,-0.155127045221574,-0.22129310514845,-0.213114294827318,-0.146421100666816,0.277339318647183,-0.109072777153311
"cell65_1",8.633117171234,5.43912282596115,-18.9982634881925,11.8225383686363,4.69481326620036,-3.36340188982879,-2.47423948558495,-0.870512777335717,0.222315922727752,1.63941269566896,-2.8082566736264,-0.404527840752668,2.98417002311676,3.42982923444984,-0.833629681481273,2.12852286449355,-2.03778970559071,-1.95786940073235,0.0781890971232609,-0.73576325595805,0.770443999739159,0.675969443781915,0.607623676208235,0.0289026923834654,-2.32584110826969,2.44853279707781,4.10108243984106,0.577249118309723,2.66705919500578,0.696382292804553
"cell66_1",14.8959941138298,3.09164846821052,10.8478281188717,2.68733248740067,6.41485064045369,2.0012934046298,4.93605357794978,3.86907979108037,-7.53535679731162,-1.36773509204864,-5.90765559361783,-5.81232565813155,-2.87803816674189,-1.06335122121537,1.91400538834855,-0.0642833316723728,-1.23923645900992,4.50160640491652,3.33145286578814,-5.15615542448504,-3.15213137882052,-0.502455465620668,-1.4323430615885,2.23621169845171,-3.96219281307199,0.33225761908395,-0.223788208894838,-6.7941241342034,10.6231687215242,-2.29340367667134
"cell67_1",-12.4075253059489,-6.27507595905038,1.29425136870252,3.94095859594733,3.99247261647346,5.753251555356,3.93988575406614,-5.38423629262123,-1.28541032090856,1.71230178063158,-1.1363738707318,-5.5721443960989,-1.39986518104901,-2.53285444190934,-5.5911556282402,-3.70028851055343,-1.34486384465771,-3.29202550443673,1.29149395875677,2.52120987936072,-0.630464873743662,-0.776891884479541,-3.5160556802843,-3.08327971623566,2.65586116434859,-0.304537606527792,1.8281486740593,0.623149206540002,1.49276436025181,1.67471035551763
"cell68_1",5.68831082851089,4.67277812563556,-10.2904466396578,9.33959057340844,0.781408326735011,-3.86661914548052,3.99757305640756,-0.26230370660561,-5.55916823172352,-6.82468778314461,3.75186704745399,7.84612390096689,0.474222939807708,-2.55232257672236,-3.19607227118625,-0.18533812256059,1.61387284321991,-0.434707743665142,0.129074978733632,0.0362400159842629,0.753419683665903,-0.00371671948111492,-1.02693773458329,0.16744937141627,1.12487202875013,1.98104739375394,-0.445864961166788,0.254076935895405,-1.25013610365812,-1.04992742026144
"cell69_1",13.7239662834533,8.79043255899454,-12.9411440748576,7.45474539616596,0.480640108758643,-10.0364023495252,4.63628747504098,2.74562162062403,1.19420849472072,-4.68565958135687,8.63491927439351,8.2284974966117,-7.98192765808905,-2.99300248647351,-4.00247581832216,-4.10549404552501,2.05827059159062,-2.38165547483223,0.388159979709989,-0.575899652131164,-0.438336440598545,-0.597221651346727,-1.97580341311488,-1.75754286766699,0.541062247759555,1.19200053990944,0.379302673798766,-1.71897199782926,-0.753497424741039,-1.89279735711945
"cell70_1",25.9744426582786,-5.02794944730584,13.3722798935201,0.409289661120838,-1.39894440350819,-2.47393523447814,-1.80454280163197,0.393449170469336,2.68657899673609,-0.356706086872535,2.27396048594043,0.984670517111711,-0.622840643452639,1.58241401514299,-0.326481985218941,0.673397647856486,0.404526006083802,0.722615844408267,-0.797512602104059,1.18364479478433,0.710256076309752,-0.266690640421957,-2.68640313123795,1.83541842002601,-0.544928635405918,0.122819349456717,2.43377801705661,-1.80303921971343,-0.129257772555064,0.118590764483292
"cell71_1",-19.1987775687619,-2.63640321158361,7.54408047659328,5.53180711640664,-1.16489055019918,1.6911377596717,5.89338174855653,-6.25672069113456,0.877308323545003,-3.74480977822095,0.650356878946788,1.68190952431515,0.748325944515634,0.227938580754969,1.16135896546655,1.93290418466936,3.62688468417504,1.9273066171551,0.232936751807425,-0.534015798284212,0.34453594909075,0.0663201504069735,-0.119982934184458,0.519802622268608,-0.40467670986165,-1.37792086347592,0.861489536313103,0.564998435660711,-0.262797576398055,-0.414009313066257
"cell72_1",22.774158706932,5.08875486046908,11.7999074692179,1.02269785586685,0.492623960633601,-2.54260021189303,-3.43038576550156,0.370824851520572,-3.4501450770494,1.80566182917683,-0.919204725257143,0.696528394022699,3.73161942128329,1.67457751698679,-0.798091896815246,2.05041672625051,-3.46309889103626,-1.42711955085364,-0.589371257253638,1.50446424419595,-1.25994756548956,2.8772666151353,0.244408193270796,2.02681738237071,1.465979669817,1.22355928686327,-0.847271769028472,0.497080437884896,1.40471946154405,-0.641085610894457
"cell73_1",27.9383073907234,7.74434066293332,12.8693308128234,-0.791690078384697,-1.25585731887214,-5.1225441551865,-5.70702956112605,0.692472746435909,-0.886634781992466,2.61161359176817,6.21360074276274,0.639653149136542,-0.0794871446180715,-1.63420081919275,-2.48488177198215,0.558566984039912,-0.387520104444497,-0.729519787128573,1.40151483196906,4.73250475898728,-5.6157984916135,0.358155734500046,-3.0650903851499,1.75452336546698,1.73810346369914,1.40535314405673,0.281333327087512,-0.728605801399471,0.269008630878506,0.479349325428715
"cell74_1",-25.7378697849634,-20.0891724954511,1.15254210852506,5.228737238329,-5.68765208955369,2.71615301869803,6.91688930472052,9.67069367254756,-8.71122902875184,11.7217764912299,2.51331313434964,-1.01269909973194,-3.38090294069033,-0.216670673948004,0.560653989373769,-1.69930839460252,-2.07347392420914,-1.48792975088319,1.13203504595893,0.345196070926442,-0.944357613752798,-0.178447540664451,1.34319767278612,-0.00358289481656365,-0.115108836823593,-1.3123420618596,2.05952289475375,-1.49690680809375,-1.88351020089508,-1.04149467312496
"cell75_1",22.0311420001374,-2.59386868589312,12.6492220179131,2.64175697019754,-1.95746865721981,-1.41233146056258,0.0793722538561677,-2.8304296569559,-5.58689568313786,1.38403504954835,-0.309548130670269,3.28038540708097,5.79080489298807,-2.50641975414665,2.38783397598145,1.32580244310268,-0.952276962118529,-2.25642117508291,-1.39086337533877,0.555434823483288,4.69735297923801,-1.5801161982385,-0.254342557909257,-1.93403789376526,2.70425207188124,-0.944501431543701,0.287947944149307,-0.401847367434911,-0.669454566754258,-1.5371644730907
"cell76_1",-22.768848000889,-16.0365467309881,1.25222107351577,4.70612173167298,-4.28005712873782,4.22946854642954,7.63062052380355,9.17297003136997,-7.91173552646871,10.6929026733611,4.24978189607138,-3.95007898755132,-3.1497478841298,-0.76614763033877,0.205566880717848,-2.0197173333758,-1.81342533816297,-2.07602513206268,0.961833306127917,0.799731853985589,-0.276939918524578,0.723188528820689,0.294265983141518,0.119893117693354,-0.159797602439201,-1.09339649373837,2.35874693193275,-2.1528020654964,-2.27106253043781,0.294471803280626
"cell77_1",17.3027674586256,6.65982487334258,8.98369789016751,4.22687617388728,-1.77633071337396,2.52701126437203,0.62946764352172,3.69335412986447,-4.14333381874243,0.146813837207833,-4.47218188730742,-1.0591544130555,-2.760816281423,-2.08780728283219,1.8762527744474,-0.0368878591717413,-0.270291410372655,3.46106794174171,-5.06855451986512,-3.87070199281654,-2.16678069175524,-0.978065303962944,-3.83060676941972,2.24323294243962,-1.9220341373552,-0.185829747577749,0.0778298090513743,1.98875199158891,1.85385121291107,5.89598282802219
"cell78_1",19.4932089049078,13.2822018225033,15.1015849517607,3.46621537549928,-0.325259623378352,4.22874538096661,1.08147661457727,1.78110142388192,-4.31195055918452,4.87803986051873,-0.598990016698345,-2.57256733635058,-0.613108611050252,-4.19871152671712,0.7099841122028,1.28282964103992,-0.053476721280971,-0.437991711651767,0.774111078106986,-2.78976171953561,2.34575371456081,-0.259912288891053,-0.474044406754309,-3.30768004266213,4.11590856820735,0.539414061657328,-0.152584595815145,-1.54804135180895,-0.38627050836245,-1.85089526721666
"cell79_1",-3.33868105835851,-3.50869879841655,-12.495521366491,9.19500259986517,3.42582544759512,8.40422107339832,5.07071725282193,0.818471763970677,2.58863428619737,3.85002766402233,0.0326533127583199,-2.54401458826756,3.62449306282205,0.785994640657819,-1.76619372269608,1.67422156825585,-0.440005564476726,0.503665378163641,0.809031509109681,2.35868967468319,0.120347588545489,1.29980760437997,0.379647539099019,1.97325461766658,-0.460751221970365,0.761714777186788,3.43701551299077,2.36275933780052,0.807203531732051,1.15166405155372
"cell80_1",2.29553895157648,0.54700358703448,-15.1180270601788,10.6139849038762,6.84650710219998,3.2445116838624,4.02080246479754,5.67420465093557,2.7959670175413,4.22405309310571,-2.38212496044175,-2.25312100642409,4.62872478807658,5.48605717547062,-3.02307662701316,0.990905362477179,-0.302361251668287,0.2013938787385,-3.28305180675037,2.72447735661916,-1.38809850144332,-3.30714015104047,-1.79642704938447,0.686696397284727,-1.07057490799249,-0.363188359476413,1.2733024716818,-0.0719135527921591,-1.24306654535311,0.330828493394081
"cell81_1",22.9565195223238,17.234189156098,18.5689500002864,2.72425789122882,6.45300327814921,4.75678409943689,0.991026268126583,4.11733379189622,-3.56026441362139,-0.92947726496923,-5.11537258742193,-9.22410672185203,-5.50400211914156,-5.87062377233377,2.61862427038206,-0.592830074366783,-2.31693349197758,4.91739092670612,1.25953196230245,-3.65912738977001,-0.395960414656036,-2.24647327488247,0.215652171268045,2.621758311203,0.90703607854788,1.08958188453868,-2.72497552517007,8.49765707173223,5.72267187998192,-5.21189181688048
"cell82_1",27.0643775478572,0.778836636823907,11.9701009888379,-1.74981721177136,-4.50208503287359,-2.7300929101531,-3.22414146291417,-1.06421404351997,2.49841208628444,3.65549824162021,4.00898005060951,2.32764205163517,-1.46865108516112,-0.309974662164394,0.442080090165605,-1.7180662534724,-0.52851296931849,0.0599166586241838,0.854764592683849,0.821551653501177,-2.04850979854987,1.26793393115859,-1.18067482088049,-2.35135332402627,0.436626323560199,0.574152193679927,1.12452810915564,-0.572450017097187,-0.932215200804713,0.674216595854655
"cell83_1",11.4025767127659,6.633356707926,-7.88411597477113,10.3078359856524,4.59676691675959,0.00466273805032689,5.27830955387562,4.86402760926456,-5.30636084406247,-2.02916348636847,-3.54739842966486,2.20921713644059,-5.35474086872853,-2.41270408886368,-0.805997264765391,-2.80925716671432,-0.860583025199103,1.96511579608439,-4.53775467865061,-0.66506399435425,2.00136642845684,1.16705110794126,-3.3299514407383,2.42496813855342,-2.04081824119013,1.65009250628671,-5.81792024314608,-1.58833753627186,-0.944534506230371,0.698296097680106
"cell84_1",4.65055919889166,9.70110066421425,-10.8848478174622,8.97880352453952,1.47566670120264,-5.36484681621012,3.92586373008614,3.52546736487992,-7.18162040994011,-6.00536336616762,6.88066425877032,6.21614913511262,1.44650780082811,-4.83462803157058,-2.72749715290629,-1.00017225084172,-2.05180429350134,-1.44487589846768,-0.712412509567914,2.97306281078608,0.465314700654805,-0.0775496097534798,-0.236511785413068,0.147900817527937,2.35662449186687,3.55677773302027,-1.41988386889909,0.611025478764149,-1.61017883154387,-1.45341660590982
"cell85_1",3.84954191365013,1.61019597976767,9.24469342204539,7.33530002892237,0.926626588086528,-1.37865034461574,3.93428963361442,3.71437194998515,-9.70668934981387,1.12164819595017,-3.99932481187417,-2.08451351025599,4.04272551095534,-0.0199916404859919,-7.42229499119886,-4.48878421762922,-2.96852487706476,0.174709942251395,-2.8729655277884,3.05666012469434,-3.24822335730962,1.55162334811841,-4.27759142679792,-1.82597211286794,-0.645749587819648,4.02089325150544,-3.03680320565486,-2.88472476784245,0.711339149162512,-5.88077184654394
"cell86_1",15.1333141160842,1.4823925636288,12.4667337346764,2.84955915402637,1.99218275788136,1.63000154615004,7.17075589162829,-0.0343968392241583,-3.62825883586344,2.00323371799842,-3.92667802872985,0.882645736883066,-3.10443172579106,-3.2967785772187,2.07727037611235,-3.20947560721113,-1.21492244403061,3.24693061573962,0.0529707304044203,-6.30152447423647,-5.51707758783929,-0.84718107637063,-1.65330446814944,0.47754374058632,4.49371606017549,-0.511544130407439,2.92964809489526,-5.87085283502603,6.70605191595269,-5.17238500036934
"cell87_1",25.5033517699024,0.0344140600093665,13.1418684118599,-1.1387276366625,-4.40218723017471,-2.04638371648139,-1.27327711442822,-1.53097842570277,3.64023506811006,4.60914626625543,4.2316042074071,3.82395497039748,-0.362295618663963,-2.46500277616693,-0.893032394722941,-0.445445464824079,0.505847688792367,0.699405947529018,-0.175396497134889,3.10034404553851,-3.40936824699601,-1.09892753001571,-0.822699863321579,-0.746329140642184,1.17136021797067,-0.500281288521402,0.273003026455504,1.61491665835133,-1.82538268127693,1.50584289331878
"cell88_1",21.6914181553194,7.11884216106206,13.8438825800517,2.31831864396255,2.930450179833,0.435130247535784,2.62223954996035,3.78511038947715,-5.22476927596469,4.29411641952537,-6.2091029672664,-4.53792909490586,6.28517214659608,-5.67361105480059,-2.20672344533649,1.90908461053276,-0.343301405682079,2.46313017810162,-0.644607518632577,3.72713826758224,1.4490342210511,2.26341001291507,-0.343462719816836,3.44444179403807,0.0640954397906976,1.65658317828132,-1.60598964219354,-0.0368255583583002,2.06917290339425,0.130806679001933
"cell89_1",19.2284938223208,6.23926880998156,12.69353843712,2.21350387568145,0.336543611185701,5.09593636209326,2.14365400872013,0.174343440363764,-1.97234277324663,-0.375695198853874,-8.07979876045069,0.45270064146821,-4.75608052991928,-0.890918063080947,-0.881344806802497,-0.296099115454882,-4.03969068983164,6.28623696685369,-2.77370404222597,-4.1600198129706,-1.88987188985054,-3.61336524079391,-1.60695104373503,-3.69556655282215,3.08287084169499,-0.270688852901201,1.87192147432736,-3.39843736384311,1.87822113575293,-0.43627740101003
"cell90_1",3.43787209446964,11.9605802225628,-15.0863913712277,9.440012515221,5.65248114109225,1.32420456073438,1.26387769736954,-1.2616132219108,2.84228783424691,9.7905976958006,0.78991169380808,-2.46184080075111,0.801415739227279,0.748856176441851,-0.683274648364888,-1.31225899023704,-0.509144748217044,1.49988718415861,-1.86880767002616,6.46266483799495,-0.0113914601809049,-1.20840057974138,1.0231645501823,-2.4444314359263,2.17750477942564,-2.05250529199594,-3.61995450445912,-1.0069458936258,-1.72187462117043,0.550149734809227
"cell91_1",-5.15669955981045,1.99798966220675,-7.48989183892307,8.56787214309795,-0.0838434806511275,4.35412739540128,7.87758013902836,4.25626804142149,-2.80267602438551,-2.20616447431925,9.67046871766603,3.34234395289327,0.440156798103354,-2.87647352878333,-2.51335464159433,-1.07454956417039,-1.39082318627382,1.72043939117007,-0.435487406613405,4.59939034568697,1.06088238971438,1.15161778500676,0.3147924017781,-0.4310983682466,0.775756375320839,1.31905238756475,-1.44516083588061,0.477897078668792,-0.470248458909277,-0.380323292702741
"cell92_1",5.65261738127219,16.2713599363809,-14.6619280904803,9.94730077773459,6.46863778234145,-3.12034303270209,6.03440819626664,3.12519007191976,-0.220461792297486,-2.06805510463658,-4.24569881977196,-2.15081309256834,-4.71215394165971,-1.86521739556813,0.214555152086908,-2.24076134862319,-2.82160837227782,4.89751070279224,-0.347829089622017,-1.57349072829676,0.105240714368391,1.09391023795759,3.06535968275632,2.26471592064804,-0.378003570831024,2.51159878328925,-1.33173540003449,-1.25395746035623,-7.52018853609552,0.233751175087027
"cell93_1",9.6957720294382,-34.5611713681805,-6.87153569649333,5.03043941122809,-5.77746803039055,-7.92494451422073,-8.0875006087121,-0.290380283007824,-1.89388741131525,-2.36989364527637,-1.41995332322362,-3.75025381612544,-0.990076099779485,-2.6573599225931,-0.235758064456344,-1.02066825510221,0.957811987008679,-0.221818358584242,0.929018905853159,-0.242234461749931,-0.213925916339092,-0.852432471212141,2.03498215449951,-2.01415549451123,-1.66638710906702,-0.0690330057483836,0.785353668058991,-0.869227288121924,-1.11664352318317,-0.434850193423913
"cell94_1",7.7021299169665,13.2699085704442,-8.43290748813608,6.46159868630849,1.14721320919417,-0.758389802227438,1.27541011674391,1.73195739036222,-2.04487916824715,4.37014675270609,-0.0756027390900695,-0.545784953587246,-4.49121247434525,-3.01745344622355,0.813025333569644,-2.67025756186705,2.54423405432072,3.17529596122472,3.28498843263638,3.03801091979568,1.19707485195018,2.16373119591332,-1.55654342421864,7.53111598604406,1.80607642646004,-4.29835380664175,-2.75582340474286,1.71695970868581,-1.29655847987513,-6.19555084193989
"cell95_1",5.349827699682,-4.47174212882546,-14.4327160138014,9.34935592322342,3.7704119115116,5.50495164686743,4.86298808477609,-0.885901256065526,3.70702857088184,1.58372760989581,-2.76786027458571,1.66231845361437,2.09084950238195,5.70780620473295,0.847115800113302,0.0198655647646023,1.44231194604913,0.414128648273879,-2.27250976875286,1.07776377744422,-1.11818050438317,-1.45171367602752,-0.0318314324203721,0.0885289740024515,-0.980527900769562,-1.46218457563498,-0.952262751109201,-0.210284344456872,-0.77056924782626,0.171028772377736
"cell96_1",13.3527207333115,20.83433172883,-15.0731486859873,11.3676986309235,9.32237768046716,-1.50844325426248,4.10751004717809,0.905598620552065,-3.22539230599784,-0.528054327208594,-4.96909777897707,-1.13271256701269,-3.43843345741143,-2.95564304742135,3.74832198476079,-2.09757302256551,0.315903915063412,2.32126894559117,1.76256918605543,-2.21334440295326,0.060863805514297,0.683242808224742,1.71315668150333,0.690308767908233,1.08201374213668,0.495437378778136,-0.243959926806509,2.32213607685226,-2.983292500773,2.52262253244195
"cell97_1",18.424677931233,7.29837459644717,13.1647509535335,1.73161587677078,1.91459010195273,1.55183625783209,2.91329715782928,3.37890071140167,-1.03134366573158,0.0879960191052874,-5.16935508767026,-1.60404129239241,-1.26781291480798,0.65444303161873,0.181677365422403,2.38747991925659,0.564364072609947,3.4876917643205,-2.47209841804354,-1.3181511645751,1.51709753311346,-2.62821452920565,0.930658387776641,0.916283136985922,4.32668001023243,-0.429367642980649,1.09770384428483,4.55317866701867,0.898270787618669,-0.847633623978259
"cell98_1",20.303424604646,6.6379377410362,13.7187064006786,1.39793804045976,3.54405855344547,1.44180275829067,1.04089540938021,6.576706897014,1.4400493064499,0.558417515044343,-4.57161530984865,-4.17849345035763,-2.25203035545811,-5.12256001737378,1.40182278298914,0.64292799172724,-2.87404649911686,2.88878160384875,1.33205065267758,-0.790807653199909,1.22819591720694,1.96880488911504,0.531500409018371,-2.1391812163129,0.698608265626045,4.25305347004798,-0.180793461480753,2.78183991335388,-1.80139763005887,-4.69221137999683
"cell99_1",5.5231460644104,24.8846097614056,-11.2443567299831,10.4108701222181,5.41441805893894,4.83061858697107,8.91543319663451,1.60592002403014,-8.4771899493972,-2.62029079098491,1.6577822513692,-6.81249573638338,-5.7420597945408,-0.567983636961243,-1.13620112398833,-0.956578729967847,0.11689659238633,5.39697048654602,-2.14847872054961,-4.27664167860324,-1.34499672558787,0.133551767122965,0.92736001849217,5.66108358501615,4.05088325560411,-1.99217956616399,-1.28609287980561,11.0673863165896,1.88614773462125,-1.05222354175473
"cell100_1",-20.1298888747163,9.79423486805845,8.72058761447357,5.13266253069021,-0.584071003552601,-5.18438127862818,-3.03534913201776,-5.02288164759589,-7.20214865972107,4.63756438552996,4.06830098850556,-0.953018384708445,1.25710168745249,0.609916475872458,-3.31340868228822,2.16635417279084,-0.672201340827223,-1.66286920075838,0.779315304139295,-0.168261534830718,0.673479495038192,1.73084376158969,1.41457952539076,1.6826123815628,2.50334521404954,0.406315022453859,-0.0544026465492206,-1.23408476460937,-1.61620046259513,-0.167105672379298
"cell101_1",13.1201882887652,2.33002178148354,-5.33619920198264,7.94250425065322,3.3516691091367,-5.01284883563316,6.70485753952853,3.0429344476597,-3.6063660080576,-3.85680593790639,-7.91188539786321,-0.326607079948244,-0.702965438126212,1.59128484681907,2.01611451995836,3.04633008142335,-0.210383164830343,2.64168525187423,-0.186077653665415,0.630388585298654,1.28691576948503,-5.40150222973444,-0.275845838982668,2.11815452897247,-0.94904407258848,-1.27004161694594,1.75790000508913,2.3716464878611,0.00902950002614333,0.194388316688223
"cell102_1",-0.398916592851284,-37.9062715317238,-6.33625220373271,6.67772796652902,-7.07614252345684,-3.21834025303997,-6.9201306639469,1.51770682844432,-4.11686888637598,-0.812709511514004,-2.55683732377011,-1.61388803874485,-2.57123161155008,-1.96254815210065,0.18602926698758,0.0160832173279321,1.42804825372153,-0.210106759104404,-0.0556906355728344,-0.836996831195649,0.120823049305638,-1.65003062971394,2.20233976519433,0.910950175658532,-1.18241532367945,-1.02991179991321,-0.756282509589418,-0.75010318115105,-0.468979254182225,0.58248691694375
"cell103_1",2.66304673158021,-0.406446269536563,-7.65657800008734,6.21718751736142,-0.506867612082399,-1.25863198768895,8.26617191031423,3.64191305184576,1.29149767082912,-4.67042865294788,3.85547947908767,7.71419456149135,-1.7671525668117,1.50321516960741,-3.61805800486113,-2.6882793927481,-0.806696133546458,-1.92236213160229,-1.12274672337165,0.471150845069154,1.3593153360278,-0.156803554992906,0.231388857569761,-1.10073128182546,-0.517799436140592,-0.0365754540265213,-0.0107244155233243,-0.714668386603648,-0.394144287577045,-0.284380163157498
"cell104_1",12.3221101705912,-29.3183537641067,-6.69620426707905,5.21275755357054,-5.55047473258433,-5.66777855945681,-8.49012898484191,-0.433584143364675,0.402037013019369,-1.57224447494357,-0.704841699949013,-3.96548873314297,0.140493740026604,-2.83726243617033,-0.0790227542790456,-1.15839854493928,-1.13278934084314,0.416690762970541,1.04941226535764,-1.31659015904199,0.626374167023709,-0.391798640403769,1.02010754441019,-2.56184659402034,-1.75038717660494,1.58891819061154,0.698078824956964,0.0690550005691814,-1.05996012837218,-0.461353833835538
"cell105_1",-19.5114080502688,8.32721918969401,8.45869204013309,3.44114689152972,-0.706954926431538,-10.5775091424184,-7.14265545230285,-6.84521913087817,-0.913902007035438,3.16812703280561,-1.05250368267942,-0.159005348884192,4.69669963268567,-5.56066244835429,-7.18552591176729,3.72871046446006,2.27530870687789,-0.595724972250577,-1.11080304395744,-2.96665547843555,2.48527178721197,2.12241380907769,-1.11785156480051,1.5473698604422,0.833909151933334,-0.837608420235964,-0.654240990521032,-0.124229500282124,-1.74153717325548,0.215775656328615
"cell106_1",1.03870793051244,4.61684374194402,-10.8001758176417,10.2434009544345,2.914691532966,5.2708899984663,6.0780458533799,-3.29761609747418,-0.616910116949394,0.667654439248549,-6.9976230056239,4.51731578693302,-2.75558524290143,-1.09444008949898,-2.09030342780609,-3.52110382748623,2.93546172229112,3.96201463031106,1.34841558758961,-4.31474124581551,-3.22532799079361,-0.255074318368036,2.41343620502771,-1.85041519628777,1.58414594249353,2.12379469387461,5.60668179178705,-3.2900424290139,-2.98596513601722,-1.8144330323201
"cell107_1",-19.1132166065264,3.61593469170939,7.21036606786138,4.24472032034182,-1.19973954884264,-3.98606391244616,2.99078053476853,-7.10799779840758,-2.11108243547797,-1.16633008223165,0.741029095641293,2.07406019439861,1.16971480129613,-1.05166766329012,2.20946781509134,1.00247108254176,2.45902925584079,-0.380351680127296,0.234232853904013,1.77831825878611,-0.746694355641419,0.0641289771083164,0.197361744177106,-2.43119736220669,1.56538692176562,0.396743072065999,0.486835509388065,-0.913328166660902,-0.902786015875599,-0.241810982127911
"cell108_1",21.5587775297648,-9.49371458958675,3.92640765262387,2.22191403701777,0.272670021965008,-0.129583857250916,-4.63562699164049,-1.19955567109468,-0.752293887004551,-5.59982448695345,5.46985497013769,-8.12733728423094,-2.56966068506388,0.795564867586637,-0.746338469760567,0.178314534058536,1.34479963728622,-0.00857246702537904,0.443970556659044,2.42830145614922,1.00830544085692,-0.56383216398522,-2.74368556563957,0.0773812512186466,2.00738105011045,0.105007958857831,-0.551443826095533,-0.457562083247857,-0.507840264262485,-0.866666640714983
"cell109_1",21.6037760847409,-7.04550276387726,11.4429179508642,-0.114742887932622,-3.22564204132984,1.74048278198368,-0.901362305448523,-6.50397018876211,3.02348184157805,3.06128033546109,2.15122270498094,1.89934480483976,-0.247341996444328,-0.364173500794496,0.491589014816129,-2.49472259786408,0.508182925173725,1.02413901024772,0.918676311634377,2.31517594163467,-2.24736972970068,2.32104065182818,-0.302299280238326,-1.37465202753639,2.38280853022992,0.170426822889074,-1.68099891638689,-0.460051273391957,0.761495589843682,2.06952848057381
"cell110_1",-12.481129872804,-30.7419293494974,-0.238566174076295,6.65634503943753,-7.15904620445532,-3.27956809793066,-3.41151734286628,6.14738412525264,-4.81048729143301,5.39862283539877,-1.76209371985218,-2.22802599775849,-0.752487881754438,-2.85493094460924,0.0783100364160777,-1.50914439338316,-0.872088859163814,-1.98417294222223,-0.647066930574303,1.17817085794169,3.12409828942428,-1.0176500635874,2.69617010496121,-3.79188162892073,-1.17481363583361,-1.81244809463673,3.16258274284297,-0.413803510434915,-2.62911366043641,0.0686673397005135
"cell111_1",22.1282972123419,-3.18845057684215,8.77845789654966,0.267199353152882,-1.499527607313,2.13398301861738,-0.305804052520003,0.395911090610652,3.26217625431378,3.12087194182218,2.22506080126213,-0.713915236488769,1.48082425981851,1.32461902507789,0.741085766234988,1.89314612170851,-2.22276090457403,-0.668751595303471,-2.90193536103674,-0.0459826297109468,2.72624787788435,-0.00241668843445307,0.179717792255319,0.681772988397237,0.895722194239546,-1.32343906811687,-0.418895653474618,0.455115622462932,0.336061427623363,-0.40202760707426
"cell112_1",-19.5195151728361,20.602262434493,7.56578557705486,7.48353108051349,-0.775613447508313,-11.3605611061702,-5.69803398149919,-1.39383323204902,-1.91647287654352,-4.18947321386386,-1.33927787129292,-3.22295448452915,1.31431221807015,1.01539730890853,4.13735828506341,1.37262347211146,-5.57587219077799,-0.433383324075885,0.229898069515987,-0.585290986491902,-0.68063183879326,-2.25567972455829,0.476234151819303,2.4059032844886,-0.962963221276469,4.59758726368306,0.358214596652838,-0.433124972466776,0.835730326225686,1.96672695549785
"cell113_1",-10.4412649378008,-13.3198341274489,-9.13192405165479,10.8637177324424,-5.25427860958486,-0.0818824654198681,-1.39773571297821,7.10758523175042,-6.05728644161675,1.81668248292693,7.09584552685244,2.10666360573005,-2.13813926372472,-4.39670676855273,-1.47908024115922,2.18118700704183,-0.616106767402592,1.06105061377871,-0.0717838811270771,-0.968112571835162,-0.930871113937293,-0.821446102719469,1.69243968053912,1.39287099590309,0.832228016879059,-2.30004291793415,1.0466384846481,1.06346764251435,0.151691721960747,0.763061587137068
"cell114_1",8.02723891734957,1.04866714940022,1.74634912557304,8.19638340912837,5.45618718243178,-1.91138480368757,7.17305194706199,-2.17182210733883,-2.92138994968126,-1.80784074738904,-6.25043347717046,-1.4918872706389,-3.49350556804239,-0.239592802054543,-1.30001101458818,-3.48977448122198,-0.199717247122425,-3.13567433456293,-2.58245741771804,3.50624444397607,-1.327391956584,3.77828306306883,1.19685798569488,-1.09307225221248,-4.40442203562541,3.65641712873533,-2.24460864272586,-3.20338146756649,-4.5924155634215,-2.1591402404902
"cell115_1",2.26036528211422,-4.95530223457692,-14.7203320684077,10.3032167195725,4.3565601746465,3.31166727450207,5.3540773552982,5.46584851854135,2.06564330749858,-0.223618163357908,-1.85519017515931,-2.22615440813437,5.16320672269087,2.85378856635462,-2.14835874048652,1.67041342137598,0.39907116664027,0.411260309261126,-0.629542336046463,1.08945287326344,1.76030107202055,0.419720929903481,-1.28472829036543,2.60184158561802,-1.57701654438811,0.921615597536382,3.30496787543817,1.22427228232934,0.648946093182805,1.29833918177061
"cell116_1",-21.1540849162049,11.030827957351,5.76962576128343,4.28102236864829,0.980509490684353,-3.4219435200938,-3.52584270307879,-5.53992555277836,-2.02468194617696,-4.14783947307462,-4.3699511668104,-1.1148801014575,1.74575374407209,-3.41824513191641,1.91230393176274,0.817194105869213,-6.27880719052375,-1.42517667896171,2.50595998812008,1.86497850482504,-1.05106261507735,-0.274037767517524,0.306667862562003,-2.1447166082181,2.22020572775446,2.70221211165825,2.29555962511908,-0.756121463881043,0.433202212458776,0.517669161847134
"cell117_1",26.6120246221229,2.97199108769353,16.2547741393398,-0.751356856808757,-2.11530349075375,-2.17802609626866,-2.39713314041865,-2.5918752854566,-1.92366306908537,2.54448196096902,1.77852169913197,1.06422871690601,0.596063650251324,-0.293621951281074,0.555517750013412,-0.175852788398968,-1.59533891581178,-1.74177380698414,1.22002474422563,2.30821404955496,-3.21099867045062,2.95540112743692,-0.120339533868346,0.698509550879846,2.3015648519901,1.22291089312079,-0.507035746761426,-0.854845019748513,0.793962593666646,0.725371611943753
"cell118_1",12.723615334338,6.25338254045848,-20.2162208162977,9.28172469551576,3.69054980143794,0.999692381938513,-1.64613865723367,-5.1596767460516,4.59438759559787,6.17662486733009,1.56259006839281,1.16612464424837,-2.30573128709964,4.05851558916572,2.25698745368839,0.629022957597274,0.161719231390995,0.0204753142432033,-3.28402525549194,0.29788177947698,-1.26105446317885,-2.97772418657983,0.275262456869897,-1.05333763100789,-0.192042807836969,-0.832001125559981,-1.40386877190192,-0.930326519977287,-0.818891333105755,-0.104546553922111
"cell119_1",-14.0110490289844,-24.2792836251901,-4.46626776889723,8.55979376702951,-6.60312652676868,-3.79404165559716,-1.73227552062285,8.46560501473698,-4.83420217796046,3.32037630156736,2.62145524364261,-1.33220957119127,-3.460998622247,-2.86591377663805,0.763842448563702,0.264535025245792,-0.362379228764423,-0.165690716428979,0.216153236334493,1.16726195804407,0.934896056881183,-0.827109674118473,2.45287859355278,-0.341792003088827,-1.23529569305646,-3.19106766041776,1.24632975168543,0.219480548887612,-1.77828936715783,0.296180716321854
"cell120_1",-18.8176569414622,4.33854690282271,7.42908622214468,4.68112701992985,-2.01369535022805,-3.94386656192902,1.07041647185642,-1.56408242983271,4.13191417626246,1.12089132346785,1.04067740533511,-1.7792332587095,1.63063122732376,-0.111149359382804,-2.63162460543671,2.53767575584673,2.1846048547204,2.18569059893998,0.397191731485637,1.58412642904558,-0.26766430970559,0.619224446763869,-0.40851315687777,3.14300161424918,0.390236031017294,-0.0929237107542045,-0.406855189354595,0.319457202229678,1.17718855648218,-0.452641666201649
"cell121_1",-18.8245938185618,10.9661566733359,8.29201227447357,4.10104937466678,-1.93393666499943,-8.91875746987538,0.117379064942096,0.301959407158781,4.06614547821348,1.61918606955211,3.30614805692454,-1.20220894603662,-3.90829533063309,1.99437959002881,-2.96799127929203,-0.242876827969066,-0.867775257509539,-0.190049009202419,0.445168406667808,-1.77430313053082,-0.443060010840718,-1.05463314133368,-1.58710915889384,2.8421504163913,-0.665771666212442,-0.114851342780316,0.47891267682596,-1.93062188757214,-0.437092887660028,0.613691007467458
"cell122_1",21.8294169601424,3.76966288330222,14.0880821828327,-0.705899380186745,3.42283144713531,-4.36668332418864,-1.62036725551497,3.42944230013088,-2.04493482159122,-1.46634115408117,-4.24290261805769,-3.33204917519456,-0.931481765819523,-3.3164808111437,1.17966671791955,2.92597378651816,-2.48832766489213,3.40825382224776,1.20250527835101,-3.47240184755381,-0.61785734739959,2.77302348148181,-10.1168041035188,-0.97046348133836,5.29971242069876,-0.942747141806312,7.34714525652858,5.14154406901314,1.99528931431587,-1.29375903943011
"cell123_1",15.7262944579864,10.0179958387774,-23.0809612799155,11.95643078659,5.95917831794279,-6.46394639363923,-6.22025346095858,-1.0943870892602,-1.12384373960243,0.47273967449044,0.790189203189665,-2.88454031136271,1.55527718363208,3.49333012342255,-0.262805705300769,-0.815864659584241,-1.41081037691314,-1.86437096023767,2.10390288071379,0.889109462272862,-0.381088761513556,1.17033420080077,-2.53499698104533,0.530533369224959,-2.65376950309457,2.97491542767948,3.75097253251186,2.50083852609781,1.69790775908774,-0.640689663413506
"cell124_1",-4.0158144281808,-2.61319572125987,-11.8948371281308,10.77332590098,5.28660533573893,9.60425745734728,9.08346486230169,7.47958981090672,1.41486334874405,3.02269592955514,-2.63274866195306,-5.83839475906225,6.20510219246051,1.35093282950179,1.04153221921408,2.13780342324717,0.275225950648043,0.049879896089286,0.0951449349084667,7.15946677491017,-1.2283409818317,0.185139132284923,-0.952551424192522,2.81389183815391,0.0198781383223842,1.30587327174263,-2.1380534618938,-0.588166638144728,-1.50538746615664,1.08007729900726
"cell125_1",19.9362486351511,-5.02839920778351,12.4216060945022,1.5386407115874,-2.13896790605973,-1.59344700765808,4.03781916240433,-0.577655133827885,0.57620182939521,-1.04006656859911,-0.245691261466913,1.71525120496021,-0.800845109174687,0.521076885110931,3.51460337155697,3.13071707651145,-2.31148327900131,-0.258423906695434,-3.28236342673094,0.218984069800728,3.38918053115252,-2.0527590773409,-0.579376240863124,1.00156787749097,-0.909736766525387,-2.05569830775821,1.25098254514527,-1.74819559001123,2.21165792624873,-0.229693847651282
"cell126_1",19.0939232881645,5.73865462767954,9.887591148323,1.52041000308583,0.319548064796635,2.23205878946038,4.20332370500571,2.58210834037291,-4.13077898712166,3.91288326354285,-7.12330504433824,2.63400421959022,-1.81315605321111,-0.712937767595841,0.516415516158473,0.327435593132085,-0.00430417868143198,3.14119845061021,-3.96153209207351,-1.32247846818327,-2.67420807436628,1.60813224134275,0.736917366065939,-1.22279851721685,-0.0748064060381033,-0.964295223636471,-0.221660200270768,-2.00419379446694,1.70120160435833,0.0360885335190871
"cell127_1",19.9107940834543,8.33363786311088,14.1549475592846,-2.22940603447335,-3.86211589169504,-1.65896109888971,-2.30200702524443,-1.57374443503824,-1.48049268969933,8.79753842747197,8.47878625187115,2.6386519728798,-3.74040866592786,-4.5209754233248,1.94432714382009,-5.58550004452171,-1.23652671726336,-1.43789286735196,2.06959147028417,1.27581192675946,-3.06508440554152,0.389250483967498,-3.51002225989401,-2.24554278988267,4.56232884137585,-0.412547155208849,0.459344142223978,-1.26867499638463,-1.99351793031168,3.36006213032482
"cell128_1",-21.2617076683352,12.449861452915,6.31646931998751,4.92597236890794,2.08889309774232,-8.26065140604671,-2.7305249987877,0.0681726333435347,7.4583462481857,2.20271875304635,-4.46397502654351,-4.53383348017553,2.67360979331574,-1.76502527511751,-3.55908659361057,1.81571581772652,-2.34398945313524,0.569703862846092,0.581969614571359,2.79423477779108,0.853998457996315,3.19613705368943,3.62770377426138,-0.8561963690821,-0.126034132844191,1.2207528971665,1.70469082954612,-1.95763082222352,2.24154428886003,-1.34067856253836
"cell129_1",-21.4282751102398,10.2479780210792,8.3349230198789,5.3292360954042,0.141227873024668,-9.07547549595395,1.84419257796452,1.50214878046293,2.77816567162407,-2.79300280693673,-2.43392723695829,-3.32027212694293,-0.67701591500687,2.34862623456089,2.34855283354201,-1.25774946712818,-3.01954926915824,-0.532078433234792,-0.696642676506546,0.619944441006729,-2.05060725995945,-2.50909045661724,-0.96129684733011,-3.58995523134814,-3.69015054256445,2.36845178096356,0.819469763907271,-2.23954350362136,-0.69379761358943,-0.132377736551555
"cell130_1",-2.72900132401405,5.51692520071531,-10.9507066288712,9.47805517223058,1.17270701697248,-2.08230083869649,8.36674198004541,10.5663917020178,1.07889603249467,-6.55270627201279,2.77969523181157,1.31314720941991,3.59221595662826,-5.0750376225374,-3.86392219354675,-3.07829133227086,-3.18348518074164,1.38575573546134,0.919581507110839,6.77813317959986,0.533640240627756,1.95210933378707,-0.840914555539381,-0.607715279910805,-0.347208045107456,1.89300595698963,-2.77625442144873,0.532905339663415,-0.274542772038307,0.460780087495353
"cell131_1",16.9373032662227,6.78710992693387,8.82861807354181,0.801720219712376,-1.66025502573088,-1.0591272044406,1.02220891969266,4.42240692900329,-1.39134277615112,-0.773399965467557,-4.92767671052441,-2.7691863642347,-0.377700480879059,-3.2137631782657,-0.47916132835615,-1.3367909935738,1.41494699622256,5.76850839214639,-0.35261319304553,-3.00156818776165,-0.849859303861184,-0.450416453823403,-2.10018229145313,2.29984278200891,2.30966864358332,1.22331677367995,-4.30258806878637,3.15557295867415,3.44601519942546,-1.06359128221906
"cell132_1",3.01010390795066,-4.57909977300017,-15.0454303519733,8.95624222378262,3.22020436951604,1.75330259121654,5.75460283992225,3.96440014059252,2.39390936634816,-2.25852413609143,-3.74704387647984,0.0439445708722419,4.67151453746405,3.94445456805151,-0.621126138145197,0.697377480270774,-0.0919254595860819,-0.180528300434705,-2.02407152508536,-1.56487155800956,1.4107383514013,-0.683834838089276,-2.67276545342505,-0.0703265041694368,-3.74382187809651,1.05622743276543,2.85111162291415,0.861864076918911,-0.12535660998155,1.49340532807432
"cell133_1",-30.3801454371459,-16.0726149150943,1.99114600857316,7.21305552680471,-5.92313053668533,1.54402887268619,5.11208703310707,9.53357964448809,-5.10346091934112,10.6188006016,3.47987241880689,-2.09077006960906,-1.33447666940835,-1.65821948883783,1.70123698988301,-2.26678395539668,-2.8558271474614,-0.991940726961349,0.787772764683752,-0.0853140831975123,-1.58177994476422,-0.296052031127455,0.230159810101399,-1.28132882160652,0.472166211874603,-0.17006760151603,1.506321071996,-0.0262167690821007,-1.04611862656048,-0.785269707659148
"cell134_1",-17.1942813670078,-4.39665244413673,5.32731297832907,1.40914954903163,1.64663515860538,5.49207610505624,7.05231342849022,-1.69792871191083,-3.47792780556877,0.161904029560788,-0.555070127013934,-2.59659776176678,0.382451056545427,0.814925321776594,-0.110045111573297,0.901401020969921,0.233533446259287,1.97469423216687,-2.9341213544339,4.05955058452018,0.12421989204532,-0.27403591958815,2.73047388862334,-0.77933650396088,-0.211533399955511,-0.508433673547003,-0.216468751381409,-1.8680796825163,0.421159247977879,0.132593741261967
"cell135_1",-15.9546790395181,9.83044232393335,7.56747036828915,4.18066168855624,-1.18243113354187,-8.81515746612242,-4.32378136009766,-1.53015248189709,5.32731189212187,0.845315406190149,-2.3688102469336,-1.8434813623331,-0.142367562193159,0.516326405455388,-7.37735878408345,2.39426109501126,-0.685632508924772,-0.897662060613513,-0.0214245796180136,0.15196994961697,1.16443755633731,1.72422550424337,1.23048906923589,1.23302799801988,-0.649561364639218,-0.665962886676818,0.76005852243263,-1.9324259110657,0.991858357735142,-0.804342889165351
"cell136_1",-18.2881315471097,-29.7995239838301,1.78897263575174,6.81170461118461,-7.70519514613988,-0.35507158199235,-1.03910346702873,8.11240238302263,-4.61420782948268,7.35425425609256,-0.852176726141977,-1.02733660042404,-3.28063682092418,-1.3108325778059,0.108905710528236,-0.953802580035281,-0.243604891674712,-0.732894341871693,-0.0772034236729997,1.6142998444634,0.784403275713409,-0.204585589194892,3.84041673405411,-1.19245252773622,-0.426298467260264,-2.07435272748027,1.9913407728797,0.386693227195837,-2.6133738365987,0.0950283709058723
"cell137_1",15.5916255743114,-6.70777134144151,-6.69820825397912,6.11527044802291,2.51073915099839,-1.79502692129658,1.07323434810377,0.36401996146115,-2.57372254116299,-1.97795862218536,-8.16750215413846,-5.32302524026563,-0.708534993207098,5.06761229156445,-0.689949072033023,-1.14957221635204,2.90584423690745,3.70811818450832,0.32130530813866,-3.70386759982508,-2.47569284511298,1.38270683904056,-5.93337120231215,0.917382794348831,-4.32618210105965,2.93997814591936,1.22149156483361,-1.70465427289411,-1.53711559899144,2.18515131266019
"cell138_1",-19.118565297914,6.76691177514717,6.06188972490487,8.06322859170359,-1.4951725615709,-6.20444038643706,3.26795905884239,1.51086667843416,6.97996771165056,-1.82953605349415,-2.87355709708649,-3.3637953931974,4.90702027669553,-1.62022624958345,1.62971117129678,2.33880569998716,1.73849975624467,2.79050279937781,1.97849971883017,5.14208880182163,-1.81452775217073,-0.766474335838512,0.333200306671823,3.4133286553562,-0.8131986183633,2.8401776074627,-1.00017849229032,0.644844238843753,3.07128730632981,-0.762217753028281
"cell139_1",22.5139546793773,1.47454299615584,14.7535185184186,8.08027989706552,0.238072226180341,0.170590199535393,5.55961036055225,7.90157779114139,-0.588822761341798,0.30682588626709,-4.72753527633306,-1.71256043468379,0.0970680215597019,-8.0548051035445,1.15704397904147,-3.04884615693044,-5.80464685091126,7.40259829460372,2.10881338797869,0.861834358616758,-0.417280257475583,0.244161201157148,0.373799965957136,-4.37028158959775,-0.448328532572417,-3.66955383385826,-1.09908725408068,-0.657592364027438,5.73392448611272,-2.26325870998451
"cell140_1",-19.1284920801016,0.528066973798649,8.4267603312195,4.15598113873977,-0.234494791122796,-3.40031926430831,1.31260194016346,-2.73061766492167,1.84401558598138,0.38681430879429,1.31195908139666,-0.869448273971003,-0.696794017567817,1.35942573664125,-3.99665867230962,1.43059251573167,3.2329377723641,1.09591192526088,-2.19060557745775,-0.555678982217668,1.32813514358281,0.832264761791204,-1.35864479845401,1.87842180413128,-0.677647841851495,-1.57174551544334,0.136254116394039,-0.204858287183947,-0.0120337882563341,-0.398416720465961
"cell141_1",-13.8034403014619,2.51418919327804,5.90680272748994,4.76312410931557,-2.71676946848898,-3.94165111185602,-1.3290384963085,-11.3151821564681,-0.395746165222742,-2.29854462341123,-2.20269997382455,4.19521269003145,3.96211220822168,-1.48076566315963,2.22766057687333,2.34495207668539,-0.109977071309272,-1.34336400553174,0.996274656471063,-2.50786156446805,-1.15030652583027,-0.176254821123951,0.506316676113024,1.8498880636454,0.25249950225039,0.840095106083413,0.890420582520735,0.291735377023144,-1.61395486523512,-0.527497832505528
"cell142_1",11.4574505709189,8.48699512032101,-9.45964076619362,6.39019040044126,4.8529055704883,-2.08293008327203,3.67273946297215,-1.46055403964951,-0.565699849717801,4.35248373484761,-0.916152244853059,0.947164329859751,-2.9000833458547,-6.9306531603643,0.429948539103995,0.194426117183489,5.96639023714439,1.41916417147367,2.59187434551641,0.122566950893832,-1.19273940273885,0.0205378311229357,-3.86259222535562,2.15004742267523,-1.21052544952555,-0.427821735429335,3.31874748442692,5.77601414914104,3.98159551687092,5.55539742151622
"cell143_1",20.7665033738547,13.4989804696781,10.6606284997596,4.45995414014054,3.97493108332746,3.11902412718669,1.10365386030383,5.96798830648449,-2.78834061821956,4.91518224406995,-4.63776832316226,-4.21998431214289,-1.63045082191748,-5.62964145142909,2.08915603027963,-0.0874344344424747,-1.00645326467594,-0.54368538337284,1.58275366977818,0.297851552467258,1.27924326484494,0.0915401238934555,-0.176549704301013,4.5855053952492,2.20215811265658,-8.15751311061917,1.68339489038656,3.24508235988153,5.06635708639496,-10.1788188672274
"cell144_1",-17.6469774539144,3.24444379476681,6.22002822996851,3.22804845302728,-0.514304665505886,-7.13019006057348,-0.586421113917423,-5.65439242280581,6.50999200199727,-1.38338963531364,-3.92774686967885,1.22463168289204,-0.155570819070631,-0.417805808994624,-4.94452038887034,3.57876957366921,0.284460293327517,-1.30981842265857,-1.87781603042096,-1.71889332385559,0.380795287356569,1.3453113278978,2.2568375944257,0.641400420751288,0.549201182768451,-1.89704088184488,0.974597107146918,-1.60213141350723,0.691190044321385,0.467273906866045
"cell145_1",16.0933820873162,-6.65498818056503,-18.0812851897057,7.8618001572959,1.05385730320459,3.78261402242083,-6.36923067961557,-9.50098299633208,1.40965108597345,0.0078123087728235,0.951265507290446,0.504714795594266,0.0155099568417584,1.10700432594636,1.29257845171643,-1.49904002494634,2.28380121851253,-1.63377010358045,3.65620666582277,-3.03922812386347,1.55445417678814,1.36331290956505,-0.686635383317208,-0.408669466161983,0.712764185993253,2.31285282074354,3.08903944998979,1.9942288226066,1.56605645340212,0.0257231241302794
"cell146_1",5.64467575670669,12.8286534353473,-12.1255089473722,10.4597081141371,4.05779635558986,-3.0612183116683,8.0536204061022,2.32521793785317,-0.501669738749168,-1.06819913955303,-2.83294637423851,3.77863138906116,-2.74163661537466,-3.2650835838217,-1.33398202744956,-3.36786783003865,0.787931267240402,3.95956781107378,-0.791743569531457,0.163301585905946,0.379361100343397,0.094582526029967,1.42064730107838,0.881381776327735,0.304394974932484,-0.200801841963217,-1.0755543617187,1.71248133892533,-1.76496330889978,-0.101429422502708
"cell147_1",6.84497834724178,-19.2185527574938,-5.97380838867195,7.45776002333591,-3.91530589106396,-3.51103802890746,-5.3710682924429,-2.86339884008598,-0.177410927365677,-3.45820801670104,1.94295679308951,-4.50376772705737,-2.47175034973921,-1.33430135463549,-0.144760589033827,1.1305213533669,0.845332201249127,6.27166623437634,0.678228357429852,-1.69722678198136,-1.59088602552341,-0.843291744656495,-1.62110272344858,5.15469918789708,0.881045264940087,-0.998697012257774,-2.51183904748775,-0.79142710930437,0.180849610288984,2.19154008629328
"cell148_1",-17.4166859144575,5.62207712087894,5.597413713301,5.6077424391637,-3.57065660102935,-6.57049623810641,-0.921645284814176,-4.06576232097849,1.80334558256465,1.35018080713775,6.58289943899304,-3.24715458187901,1.66878601883251,-0.910754404741038,3.75409083320359,1.02856923879227,1.61720323962161,5.69376349101727,-1.67113627521765,-0.902067354053307,-0.573553293776808,-3.58052966943627,-1.23706424168528,1.57110154315402,-2.28182869155505,0.504563750345643,0.992425663600161,0.421529043819655,0.715696288883589,2.32932660882184
"cell149_1",-19.5121154929163,-20.0686492609281,-0.594194171768373,7.16711712300123,-7.58466692650476,-3.9166515243024,-6.54185932682084,8.06690374068956,-2.7710355724361,2.97340082917311,-0.220627029379543,-0.270477395989475,-4.1167301555635,0.411806108976864,1.72920850849898,0.265204217978628,-1.28078719520515,-0.166359088558489,0.442657942519016,0.498847501908888,-0.250610847092841,-0.873480741928371,3.33973816855959,0.891045543431088,0.690223653682612,-1.44536776243607,1.04726348707401,0.213795047000435,0.0379064039388078,1.06425065222366
"cell150_1",-19.2848494049269,7.74352867666047,7.46611185130422,2.4389792102332,0.0848220550107948,-10.2544927629815,-3.41946385938867,-1.10769700974225,7.71810038676584,1.60341861413167,-3.29466635100075,-2.17272163174654,0.898668783245446,-1.95798490052434,-6.08447945190312,1.82135356771398,-0.859598485590393,0.0835076000597662,-0.493982454039799,-0.920657527948692,1.70088770441401,0.817715001015979,1.17244970444875,-0.7424551565845,0.505936501943891,-1.04864679121363,0.738768480621042,-2.30322251415703,1.24816449463134,0.0326547529231517
"cell151_1",4.92595708870237,-32.3507347248685,-4.64080916126927,5.75911462199486,-6.59760969744963,-5.12041793847825,-8.89275088742916,1.66269620187185,0.208609773002239,-0.610179949791414,-1.68616426132667,-2.89824706706034,-0.123637501202338,-2.98507348516935,-0.653265586485126,-1.04259445857302,0.738177234418572,-0.106247341413949,0.234983985265051,-0.920051314288828,-0.449419180874652,-0.260911053998631,2.80348686752151,-1.66646765829054,-1.51817279555422,0.0415545269113527,1.32061682679964,-0.398560807596341,-1.38592828274012,0.529904234289166
"cell152_1",25.4579124000111,3.46987066169248,13.1762203603618,-0.548653368904254,-1.91258121274606,-0.14255004225421,-3.15059538078768,-0.850496988755568,-3.2715395902356,3.68755726127838,0.850311807160035,2.15343486688028,4.44469245432779,-0.618202326232364,1.05188549667678,2.14082303641552,-2.98585186498649,-1.21014206452604,-0.632786944547576,-1.47878637862038,-2.37223167831914,1.22421879057453,0.693925458800657,0.83929559456437,1.11579048351119,1.45168031936309,0.470258769498909,2.637313759848,-0.343344762179125,1.03528355149529
"cell153_1",20.4686587179781,7.85786449982322,12.2065953279507,1.33752996487041,0.528745074067757,-1.84273403671042,1.11895216773212,3.21634421686848,-2.66503325586608,3.77778094936468,-5.7235087074807,-0.0362189013459697,-2.50373445346257,-3.35316642947206,-0.38430125204452,-3.0505541399478,-1.68902945613784,3.11506761798787,2.20334041140882,0.162794621794063,-1.82037514480527,-0.98592296315466,0.457693184759741,1.71256143053176,7.10971026220559,-3.7881779735647,3.21106452098603,-3.2761404604631,-1.2213159062459,3.52183674787742
"cell154_1",12.6844720683622,4.88154468287908,-18.7294417551885,9.24296138685039,2.50447056314192,-2.52685863405252,0.53275296891165,0.157389976807566,3.11023269711058,4.12792256138749,1.02883992580205,0.343376900645841,-1.30270745645696,5.18484797766317,-1.27542930608662,-0.764378332078904,3.5253058988453,0.329675070780294,1.79172754786274,0.416366208300968,1.41929007119841,-0.179350579222856,-3.41179204435668,0.657005650079846,-1.92464621236081,0.0618112437288138,4.04873185814007,0.0856310913103729,-0.48911390174252,-0.101956996213811
"cell155_1",8.18965834468641,-38.7565207903989,-7.28814176614277,5.46310355043601,-7.06374255794002,-6.30592149779876,-7.85887366775303,-1.19361744408916,-2.80077890586698,-2.83321338735027,-2.28135709402037,-2.80396740265803,-1.84975253516063,-2.32610610896487,-0.0531581784815539,-0.467555396155951,1.7874705942594,0.275771702206311,0.299163123076916,-0.908892537445012,-0.779139218435747,-1.49719205476012,2.32448837385123,1.34931374994663,-1.10018063420942,0.0924888018245954,-1.04792082460815,-0.39503803512208,-0.0716258141460943,0.716374130982994
"cell156_1",-15.8618551849783,14.815820738671,7.02979974911772,5.83448790689343,-0.401680534609937,-13.0481812895526,-5.4785274021431,0.829636046244576,1.26711965034814,-4.28241977464149,-0.712537991393839,-3.01751587274258,-0.821387133357347,3.54571770593346,-0.992409916843444,2.21030166028961,-5.2865092733259,-0.959114041694347,0.00746563104131379,0.201784771588648,-0.452139090414636,-1.16573622100705,-1.54713352103373,3.06727796321952,-2.29661505541165,2.33692577163923,1.38431756676375,-2.72016923516093,1.17970780747362,0.702204083183551
"cell157_1",8.26718426555704,-35.3146787914014,-5.43799925396207,5.39078196233962,-6.7824095107813,-5.6510763118009,-7.80486421224453,0.10038664066381,-1.30410259141904,-2.51804054914513,-1.95415492705225,-2.69696253037071,-1.72626009679428,-2.47642922334564,-0.334983879020477,0.120123984641473,0.778669877262641,0.544624378222788,0.574770417136961,-0.473247079085713,-0.796534657377371,-1.54981688190577,1.62349307170756,1.25247662540867,-0.517880830838679,0.191824001233206,-0.32561451201521,-0.605936597493592,-0.026093115231891,0.393555481402409
"cell158_1",-19.8483944044193,13.7978823402427,5.62953974384031,6.9133264716669,-3.12632631149947,-9.28161900597182,-4.41226989636192,-5.4735629586903,5.91903201948146,0.93622186732927,0.702034369024332,-1.34611252152599,3.09048179555234,-3.28678920431106,1.9445540786589,2.12179317424466,-4.47925555964176,-0.9282694822006,1.44686280452168,-1.51784130329246,0.17397686198769,-1.54038321790201,2.64138232716816,0.843547885164013,1.67449493095193,2.38234811842703,0.148488119251104,1.20006616452503,2.12282481717713,1.30296004361048
"cell159_1",25.2295849122138,11.3061158352843,15.7420113889745,1.77144927906555,2.34370079971643,2.10069360912221,3.65791737309152,1.10425041273178,0.074715288275019,5.29849207741878,-2.47527976593366,-1.88353965353954,-0.49530843659051,-4.90234856095385,3.1818117643419,-1.75745794219912,-3.1029875895003,5.077050992685,0.49558989159662,-1.77291307425908,-2.30612042159412,-1.30551704567597,-1.17092688678353,-0.785694483448323,0.51050878221264,-2.34006735437908,2.38792037934887,0.751255667761985,4.6128999069084,2.18652122570927
"cell160_1",12.7393729079188,8.84006175989831,-10.8965028309221,6.76827071860312,2.87814830962234,-1.99472107271372,5.1858312156417,-0.579392558956943,-0.542162950573865,3.76080788345162,-7.60944936817373,2.05421534076092,-0.086022134557021,-0.706743023445396,-0.479920843657472,-0.444910517004591,1.03737069976104,6.51921469347542,-1.46433045735451,-1.05930274629875,-3.13368678905905,3.43473578044136,-0.0480275147313371,2.0315833652822,0.263717195931696,2.44419486137658,-1.58451758923184,4.21195895424551,-2.66417991692832,-0.690600220533931
"cell161_1",-19.155761620814,-2.67243584413232,6.00881836801028,4.69563786141112,0.176036466255226,-0.532398572771573,5.2464521491843,-3.08132544311397,2.55019550337375,-5.56649064482627,-3.402041873798,0.683924974404179,-0.110376414420404,1.66013376980542,0.160178788864044,0.278048477187706,0.0368950653828494,-0.572487288932812,-0.217594108195053,-0.289218059641769,-0.590222504249594,-0.513936524305531,0.201241074285249,-2.02132246622561,-0.01068517667595,-0.204919946431161,2.61056587515858,-0.797951813193168,0.84339857664982,-0.132043586607774
"cell162_1",-17.9472092283222,10.2287056502817,6.49431226382319,6.04447081644096,-1.65160601721289,-12.1991010348836,-1.57388373892233,-0.164418119768036,4.23179013507496,-3.54829156072214,-0.0482483364549969,-0.19074374692831,0.0421520136951903,-0.0158527161197026,-0.019750612411133,0.719447663000751,-1.91141056963006,-0.397574586312123,-0.322300703379419,-1.56984978385931,-0.108064606052747,-2.05339426874938,-0.700021151668106,0.239240782317458,-1.70336886846286,2.25443719974841,0.895448711939203,0.193576326253976,0.558110757306992,1.11917634339501
"cell163_1",8.12623808607086,1.93624551501651,-10.2180537598247,7.91752213227366,-1.98134776260593,-0.964948723324616,2.79569443572248,-2.03575418657872,-3.415456390486,-4.01499373125807,6.15991871186823,10.4779848952401,1.6625755557775,-2.48792385300618,-1.40564898107184,-0.925858522752274,0.402412055981556,-0.939322806204407,-0.530133211651476,-0.67621772541183,1.25415348624439,-1.0144315355437,-0.0376003306630092,0.143362123648367,2.35753052454382,1.60997758906566,-0.895266201289911,1.68050135788162,-2.09811397466558,0.162337719334033
"cell164_1",26.6070314348172,-3.45963829840163,14.4048108456588,-0.622667906601395,-2.04545268533134,-5.11240216522349,-1.0600895946864,0.465948285207468,0.102933562562914,0.214948224161639,-0.258182295706038,0.76060923647713,-0.51348330174337,3.5230613923093,-0.460983997565308,-0.639453436518409,-2.15125495557045,-2.17292188434236,-0.301118192678002,1.37149277259783,-1.75641691569174,2.64683324280908,-0.888085241181451,0.840128312575121,-0.304057998002107,0.235887185554495,0.824142549342041,-0.0142862579172647,1.08489593882533,-0.122635761055802
"cell165_1",24.8383195148973,4.04634010945693,10.7493872515606,-0.530800582005214,-2.92276650158519,-3.31236272862034,0.218874200609165,-1.58881537223036,1.01233000712942,2.86048397039823,2.04763170501234,1.24699745554907,-3.61767763978176,-1.00631692357362,5.10806488243959,1.72088239620916,-2.3684125801076,-3.05792188151237,-1.98274025679438,1.20795120507858,4.81847030576519,-2.06512907724311,-0.939490130704898,-1.60044451014424,0.844849590848116,-1.9039330767314,-0.0674610661007533,-0.799061797706954,1.4675712506156,-1.49334810153243
"cell166_1",7.75903737100965,9.28446289506414,-5.69209002059746,8.25647028845676,4.78876055688623,-5.25034475071499,5.30994582930972,2.27679099474038,-1.65518333992378,-1.96255506223501,-3.86096907883631,2.74962600107874,-0.816847259122908,-4.01989757854602,-0.131887267728821,-4.28437210234356,-1.29037638902236,3.58033568749179,0.678352090971553,-0.219640791208901,-0.918027502376857,2.05839595028001,1.82596560138539,4.83711577056277,3.49812314273577,6.26371708136018,-1.57719468725048,-4.47462611670985,-0.119536804090758,1.72721410630064
"cell167_1",10.5225359048756,7.80602740465462,-18.1794309208568,10.2989217395904,6.39737135558025,-4.20754622251129,1.54615413899995,2.08038766014406,3.83449070209167,7.13498692404288,-3.83317485016942,-0.87953320908167,1.5684494346067,3.81481128681498,-0.897852796661498,-0.158545183013832,2.57732688948538,0.631822924906201,-3.37283388819584,2.80069767541021,0.599742461107208,-2.59880065595695,-0.076082405213917,-2.34448211761952,-0.703215392676039,-1.587044202046,-1.13148461105868,-2.14556935073507,-0.295537854511253,-0.126873341778728
"cell168_1",-2.62920072293143,-34.634660733052,-3.66869131336388,6.31313861587201,-6.95462599868002,-2.6995225562259,-6.04419291162681,3.42561555195797,-3.6212093483756,0.202603799244099,-1.9524199810323,-2.40204927599001,-1.99657674741285,-2.46906372697847,0.542239395769845,-0.581269449584522,1.1781466384381,-0.729445488704706,-0.181273891970847,-0.585043962372302,1.26785083950305,-2.00210412948638,2.15340508169512,-0.64520328309066,-1.34365160197814,-1.54081744132618,0.479524619410797,-0.941410710507045,-1.28862776976251,0.548861133006534
"cell169_1",7.11383193002485,1.21252645605401,-9.91344663470759,8.96909344089561,1.82095352900907,3.18144969784509,6.76766632092831,0.883507998437378,-0.0578020456902659,0.530845994452309,-4.72565447874101,1.34333855500169,-0.960175726732224,-0.871457439551316,-1.95008259376446,-3.45712727558273,0.456875250437877,5.50017518129161,-1.70094174108179,0.689252929876854,-1.44451463182719,2.76502583317123,0.604653955793533,4.43467003463345,1.66140585504111,2.08978515987369,0.418246532013531,0.160771302209776,-0.70194900480976,0.181744758922555
"cell170_1",5.96167628165519,8.83706074048662,-13.1045210464461,10.9022518082439,3.72327477095016,-2.11881623897477,2.67792475168165,1.03191819426197,-5.90694856605177,-7.57826177914483,0.626413890021457,5.06783493532118,1.42059555246142,-2.55711250963351,0.49982420714331,-0.334807834680316,-1.9754611474679,-2.19279411792757,-0.429535073904341,0.383632238986231,2.37450009587108,1.27958941818499,0.634561344368603,-1.56778081293505,0.0418086168401968,2.97869073484738,-2.31380740413574,1.13647948946695,-0.435622491938022,-0.163581278787196
"cell171_1",27.9546142720821,9.66339889092641,14.8650749604984,0.941854198401395,3.1201003210303,1.47050818581237,0.574004737335988,4.70888260267182,0.347400205429243,2.42289300348095,-3.4674995521329,-6.76631214226847,-1.45147808521362,1.15897166668234,0.597433675142462,1.3868516128386,-3.16226472051288,1.19064525089869,-4.38054421695525,-2.04138818633416,-8.04692737841482,-4.88758400359106,3.18043921546331,3.77908158501766,-0.608824050576361,-1.31065673585595,-4.54845740544384,1.26951537592184,5.18505849737233,2.14001482319927
"cell172_1",-25.0380803592603,11.3284358816785,10.3152345495513,9.58303103747174,-2.0658243786538,-14.0448436364374,-6.47867235868219,-0.621615340070353,-2.33386349185149,0.545627166603584,-0.941807193882048,-3.72796075630705,9.75323963635806,-3.61261072143704,1.01777808988957,-0.782213178511111,0.393234449399246,-0.614972915348726,1.46949621386838,-1.63696827549643,-1.92528562145073,-2.28651168067556,-4.57582431482451,-1.60201306575383,-2.15574720276299,7.35074149575448,-2.06714749400381,2.46352191073315,-0.695984759186649,0.149892501323831
"cell173_1",15.0467728570105,8.45713058709364,-8.2788642370747,9.96423224364374,6.25353980067054,-2.56787905214,4.28567530560181,0.575670434052735,-3.26525087584785,5.04931166480863,-4.1744123094861,-2.4754501973661,-4.66274050987525,-2.78027554842091,1.46371165501247,-5.95139516624334,-1.42321784942249,-0.00945032644279613,1.56170766381148,-0.916582676388137,-0.884271509201784,-1.7730803624585,2.28328977092959,12.3963697704288,8.79283942345226,2.71419837392832,-5.30884667919358,6.81267356321715,-4.29006570935296,-7.23479293894438
"cell174_1",25.5982316482162,6.96897207831152,12.6212692908347,0.384829398720658,0.599392195777657,-4.19386424945735,-1.59163876194955,0.444046236298387,-4.0958667642931,1.97184271978766,-0.488514924507313,-2.84360900053911,1.00227811532089,-1.53831311307327,3.21120312953786,2.03166051599785,-2.40026627909557,-3.39579630081864,-1.42731494457013,0.500579427214233,5.99241659516888,-1.23570751852045,-0.553623663254772,-0.115454566306135,3.1630559210869,-1.32896014651287,-2.13243242812603,0.744530017003508,-0.115043430251273,-1.78134402933084
"cell175_1",26.8064043743095,-0.243459366822572,13.9691267894611,-1.67932504105569,-4.68537862239881,-2.42477931886029,-3.06355224613902,-1.95024086333756,3.34241091764404,3.72229884082018,4.36196522503181,0.997966153345706,-1.06453805713779,0.245544981986869,0.597993180219459,0.0990935381292695,-0.743832097071952,-0.694856826456648,-1.19143329722201,1.32662356640585,-2.7953869361318,2.59503176958113,0.0332566873867049,-0.551303223866635,-1.01635458740164,1.07000112350975,-0.391239021414928,0.711704134841545,-0.577738536088188,1.34416911580115
"cell176_1",11.4895089842677,3.77566260018957,-17.4868686877841,9.26408013506987,4.16378635370265,-0.311960301134173,-1.96976866260216,-7.00132648494663,-4.70760213557902,4.20286546684873,-0.114894245428649,0.912762243168659,-1.31001195062245,2.61661590575743,1.78203392021592,0.83037406532398,1.68828899174335,-4.76629386054131,2.42858639428577,0.296357392341152,0.204259289640878,-0.416810146172999,0.696519225857379,-1.03513225872553,3.79989292570213,1.35801128473104,2.06785942967735,1.70781943499837,-0.509944050329436,-1.62490842069128
"cell177_1",20.8149335478126,7.62889014169913,11.2448461462155,3.00467607127432,-0.341900572795644,1.79064826215886,2.24331227301543,1.91294519603918,-3.46961973565688,1.69773926788571,-6.97694809769127,0.466304306069802,2.15406437078045,-2.38176226729856,-2.48194567800884,-2.44681086755299,1.69009746560591,4.93219602315994,0.190060210596481,-1.08613903971384,-6.15206189635998,-0.314217976527305,-1.63197963393287,2.04864307100563,0.269597987985491,-2.82487177624254,1.35106995823114,0.890320286824363,9.13468981897686,-4.74799543057303
"cell178_1",16.757724147667,9.5820600925949,6.8946537833817,4.18190728419675,2.53554663022839,-2.21041098994798,-0.869932195607446,3.40503707555712,-5.79121925893404,0.296017070502169,-4.37439338037629,-1.36023339915765,0.831637232064793,-1.08198188731311,-2.79379790718296,4.20771945468173,4.32620149437732,5.88808360014069,1.04572542608348,3.58947322768595,-1.62995945983511,0.577452017331116,0.176176615250802,0.950519528873904,-5.0127188134252,-3.427252013998,-6.06226173303543,-0.0561013528647091,-5.17645105682496,-3.86931267081667
"cell179_1",-19.1017404733303,5.27060204816491,7.82656729382636,4.40439424097602,0.00499033058588124,-8.40939639064496,2.89828340940631,1.35399629205867,5.87493880198734,-3.91457942611211,-1.92224426172457,0.531941226013456,0.0557819185560244,1.5429491558734,-0.750636318728064,-1.12810585878301,-0.329244683083409,-0.582643477323769,2.46539892414309,0.894966587747841,-0.234255317459966,0.426955552471297,-1.50287999031346,-3.05705628172706,-1.1850954423877,-0.557258249453105,1.90149573317538,-2.35828072959898,-1.18391165169183,-0.209642703616841
"cell180_1",22.2271330653024,8.07615776884752,15.9443895505266,2.79254009644355,1.24032909271208,1.56505787907371,3.73562134308549,2.53000039857385,-2.06605720785814,4.06731150919349,-6.43196131237642,0.487781676114713,-2.60312349557478,-3.58669311609097,2.3266873722757,-0.771293454671794,0.273014030467852,2.81720812179949,1.95276263844169,-0.557449645926705,-0.480329332010286,-0.965089586445459,1.46535417201253,0.834183927148663,1.12699645380365,-0.292698882501871,1.71047364264243,-1.08760235653276,-0.753648575684858,-0.682425735659054
"cell181_1",-23.9430456890072,-17.8711278219143,-0.101315367407256,4.95138923562831,-4.74022469539902,2.80632884071417,7.53574513837247,9.86857559730819,-8.68924027843662,10.7941425100064,3.82979662301708,-1.92755614067142,-3.53447187551642,-0.645509805130734,-0.102935095609009,-1.55370201879124,-2.4747051900462,-2.03721529319079,0.928942432967185,0.0925762777541781,-0.864728186366942,0.079046799353974,1.13947543609021,-0.197967566377749,-0.195524063723762,-1.48578707553893,1.99657060369289,-1.43043119318695,-1.66236188983586,-0.945094207231751
"cell182_1",-16.4409881165011,6.79652079939572,4.61031538026777,4.95760676374188,0.952767608983738,-5.83956965325566,-0.0396323634475918,-5.47492171374066,-3.18296774111841,-3.93445155061497,-5.07400079841863,-0.41983748157806,2.16832463930761,-1.00091427212157,3.19871766252445,1.3983961342324,-2.04426918337562,-1.34818797482782,-0.0402417346686939,1.15385872970203,-0.617652371501401,-1.08020185809825,-0.0415213722951113,-0.98369591290522,0.86859343984269,2.56456706134508,1.13740303906164,-0.786612454369317,0.478171262920909,-0.0324164087540735
